<?xml version="1.0"?>
<opencv_storage>
<my_svm type_id="opencv-ml-svm">
  <svm_type>C_SVC</svm_type>
  <kernel><type>RBF</type>
    <gamma>8.9999999999999997e-002</gamma></kernel>
  <C>10.</C>
  <term_criteria><epsilon>1.1920928955078125e-007</epsilon>
    <iterations>2147483647</iterations></term_criteria>
  <var_all>324</var_all>
  <var_count>324</var_count>
  <class_count>7</class_count>
  <class_labels type_id="opencv-matrix">
    <rows>1</rows>
    <cols>7</cols>
    <dt>i</dt>
    <data>
      1 2 3 4 5 6 7</data></class_labels>
  <sv_total>46</sv_total>
  <support_vectors>
    <_>
      0. 0. 0. 0. 4.64727253e-001 0. 0. 0. 0. 0. 0. 0. 0.
      4.64727253e-001 0. 0. 0. 0. 2.38048986e-001 1.08174374e-002
      3.23699005e-002 0. 4.47271973e-001 0. 2.70725433e-002
      9.04719159e-003 2.38048986e-001 1.21962771e-001 1.22127030e-002
      3.65450680e-002 0. 4.64727253e-001 0. 2.75320150e-002
      9.20073967e-003 1.21962771e-001 0. 0. 0. 0. 4.98198807e-001 0. 0.
      0. 0. 0. 0. 0. 0. 3.90592992e-001 0. 0. 0. 0. 1.74965203e-001
      2.27564294e-003 6.80959178e-003 0. 4.98198807e-001 0.
      9.24716592e-002 3.09024807e-002 1.74965203e-001 2.30683446e-001 0.
      0. 0. 3.97516817e-001 0. 9.86775383e-002 3.29763815e-002
      2.30683446e-001 0. 0. 0. 0. 0. 0. 0. 0. 0. 0. 0. 0. 0. 0. 0. 0. 0.
      0. 4.79355782e-001 0. 0. 0. 0. 0. 2.23357141e-001 7.46422261e-002
      4.79355782e-001 4.79355782e-001 0. 0. 0. 1.33212106e-002 0.
      1.35620698e-001 4.53221686e-002 4.79355782e-001 3.05320472e-001
      1.81658044e-002 5.43590114e-002 0. 2.03747481e-001 0.
      1.31813675e-001 4.40498590e-002 3.05320472e-001 2.69141585e-001
      2.02033874e-002 6.04562350e-002 0. 3.05320472e-001 0.
      6.72501028e-002 2.24738363e-002 2.69141585e-001 3.05320472e-001
      4.32347320e-003 1.29374797e-002 0. 2.20330402e-001 0.
      1.65159360e-001 5.51933795e-002 3.05320472e-001 2.53206551e-001
      5.81530016e-003 1.74015816e-002 0. 3.05320472e-001 0.
      1.03584662e-001 3.46161798e-002 2.53206551e-001 2.50596732e-001
      4.86467872e-003 1.45569546e-002 0. 3.03685546e-001 0.
      1.24749772e-001 4.16892767e-002 2.50596732e-001 3.03685546e-001
      1.45757350e-003 4.36159875e-003 0. 1.83537632e-001 0.
      1.89986348e-001 6.34902269e-002 3.03685546e-001 2.02927426e-001
      8.04721285e-003 2.40802430e-002 0. 3.03685546e-001 0.
      8.21181834e-002 2.74424758e-002 2.02927426e-001 3.03685546e-001
      5.83029119e-003 1.74463876e-002 0. 3.03685546e-001 0.
      1.98008791e-001 6.61711097e-002 3.03685546e-001 3.38382304e-001 0.
      0. 0. 0. 0. 9.51825380e-002 3.18083912e-002 3.38382304e-001
      3.38382304e-001 0. 0. 0. 7.19592301e-003 0. 6.31240383e-002
      2.10949928e-002 3.38382304e-001 3.38382304e-001 0. 0. 0. 0. 0.
      1.86371833e-001 6.22822233e-002 3.38382304e-001 3.38382304e-001
      2.83910451e-003 8.49565119e-003 0. 5.25980396e-003 0.
      1.56777099e-001 5.23921773e-002 3.38382304e-001 1.65793419e-001 0.
      0. 0. 3.83937836e-001 0. 7.67802894e-002 2.56586298e-002
      1.65793419e-001 1.91505551e-001 9.24412510e-004 2.76618404e-003 0.
      5.53805530e-001 0. 1.12796858e-001 3.76947299e-002 1.91505551e-001
      5.54992631e-003 0. 0. 0. 2.89172292e-001 0. 3.65473400e-003
      1.22134783e-003 5.54992631e-003 1.91227924e-002 0. 0. 0.
      5.53805530e-001 0. 1.34781152e-002 4.50414978e-003 1.91227924e-002
      9.27131027e-002 3.39316949e-003 1.01536186e-002 0. 4.68865007e-001
      0. 4.23132293e-002 1.41403396e-002 9.27131027e-002 2.11532250e-001
      2.66606151e-003 7.97784235e-003 0. 4.68865007e-001 0.
      7.96585381e-002 2.66204830e-002 2.11532250e-001 5.00548538e-003 0.
      0. 0. 4.68865007e-001 0. 3.79234389e-003 1.26733468e-003
      5.00548538e-003 0. 0. 0. 0. 4.68865007e-001 0. 0. 0. 0.
      4.38533276e-001 0. 0. 0. 0. 0. 3.04934710e-001 1.01903819e-001
      4.38533276e-001 4.38533276e-001 8.86289775e-003 2.65210699e-002 0.
      0. 0. 3.31478328e-001 1.10774241e-001 4.38533276e-001 0. 0. 0. 0.
      0. 0. 0. 0. 0. 6.05738442e-003 0. 0. 0. 0. 0. 0. 0.
      6.05738442e-003</_>
    <_>
      2.05334090e-003 2.78673321e-003 8.33896920e-003 0. 4.77537721e-001
      0. 0. 0. 2.05334090e-003 2.41013267e-003 2.30233022e-003
      6.88945083e-003 0. 4.77537721e-001 0. 0. 0. 2.41013267e-003
      1.78774491e-001 9.85847414e-003 2.95003150e-002 0. 4.77537721e-001
      0. 4.13512178e-002 1.38188843e-002 1.78774491e-001 7.61883184e-002
      2.97369715e-003 8.89843609e-003 0. 4.77537721e-001 0.
      6.30887821e-002 2.10832171e-002 7.61883184e-002 1.08262280e-003 0.
      0. 0. 5.03701806e-001 0. 0. 0. 1.08262280e-003 0. 0. 0. 0. 0. 0.
      0. 0. 0. 3.18351984e-001 0. 0. 0. 5.03701806e-001 0.
      2.09089637e-001 6.98742643e-002 3.18351984e-001 3.35766017e-001 0.
      0. 0. 0. 0. 9.83897075e-002 3.28801945e-002 3.35766017e-001 0. 0.
      0. 0. 0. 0. 0. 0. 0. 0. 0. 0. 0. 0. 0. 0. 0. 0. 4.36460406e-001 0.
      0. 0. 0. 0. 3.78675222e-001 1.26546949e-001 4.36460406e-001
      4.36460406e-001 0. 0. 0. 0. 0. 2.58422196e-001 8.63603875e-002
      4.36460406e-001 2.94194788e-001 1.49781620e-002 4.48203683e-002 0.
      2.94194788e-001 0. 2.08058670e-001 6.95296153e-002 2.94194788e-001
      2.07052842e-001 5.59891155e-003 1.67540647e-002 0. 2.94194788e-001
      0. 1.68500468e-001 5.63100129e-002 2.07052842e-001 2.34014198e-001
      2.37074122e-003 7.09415786e-003 0. 2.94194788e-001 0.
      2.64505327e-001 8.83930549e-002 2.34014198e-001 2.08263233e-001
      8.64184648e-003 2.58596055e-002 0. 2.94194788e-001 0.
      1.77273944e-001 5.92418723e-002 2.08263233e-001 2.78631479e-001
      9.20262944e-004 2.75376695e-003 0. 2.73443013e-001 0.
      1.90141201e-001 6.35420009e-002 2.78631479e-001 2.78631479e-001 0.
      0. 0. 0. 0. 1.27817407e-001 4.27144393e-002 2.78631479e-001
      2.78631479e-001 6.74859434e-003 2.01942902e-002 0. 2.78631479e-001
      0. 2.63998508e-001 8.82237256e-002 2.78631479e-001 2.78631479e-001
      0. 0. 0. 0. 0. 2.78631479e-001 9.89758819e-002 2.78631479e-001
      3.14198673e-001 0. 0. 0. 0. 0. 1.49645984e-001 5.00091836e-002
      3.14198673e-001 3.14198673e-001 0. 0. 0. 0. 0. 1.43460706e-001
      4.79421690e-002 3.14198673e-001 3.14198673e-001 0. 0. 0. 0. 0.
      2.97220081e-001 9.93258059e-002 3.14198673e-001 3.14198673e-001 0.
      0. 0. 4.61078202e-003 0. 2.34426737e-001 7.83414170e-002
      3.14198673e-001 3.54618020e-002 1.93174419e-004 5.78049337e-004 0.
      4.92029160e-001 0. 6.38197437e-002 2.13274416e-002 3.54618020e-002
      7.94363394e-002 4.63619083e-003 1.38731981e-002 0. 4.92029160e-001
      0. 6.75928593e-002 2.25883462e-002 7.94363394e-002 6.65044039e-003
      0. 0. 0. 4.92029160e-001 0. 2.27723010e-002 7.61010358e-003
      6.65044039e-003 8.10958724e-003 0. 0. 0. 4.92029160e-001 0.
      2.94160452e-002 9.83032305e-003 8.10958724e-003 3.33049119e-001
      5.97716961e-003 1.78859029e-002 0. 3.69208664e-001 0.
      2.45808825e-001 8.21449906e-002 3.33049119e-001 3.69208664e-001 0.
      0. 0. 0. 0. 3.69208664e-001 1.37396812e-001 3.69208664e-001
      6.09869696e-003 0. 0. 0. 3.69208664e-001 0. 1.00598726e-002
      3.36183235e-003 6.09869696e-003 4.92518023e-002 0. 0. 0. 0. 0.
      3.61314379e-002 1.20744910e-002 4.92518023e-002 3.20126951e-001 0.
      0. 0. 0. 0. 3.20126951e-001 1.66893303e-001 3.20126951e-001
      3.20126951e-001 0. 0. 0. 5.88411186e-003 0. 3.20126951e-001
      1.62726939e-001 3.20126951e-001 1.48599789e-001 0. 0. 0. 0. 0.
      1.20489478e-001 4.02654782e-002 1.48599789e-001 3.20126951e-001 0.
      0. 0. 0. 0. 2.36693248e-001 7.90987238e-002 3.20126951e-001</_>
    <_>
      1.02597789e-003 4.88160324e-004 1.46076188e-003 0. 4.65300024e-001
      0. 0. 0. 1.02597789e-003 3.62875732e-003 1.25526963e-003
      3.75624583e-003 0. 4.99641746e-001 0. 0. 0. 3.62875732e-003
      1.50901496e-001 1.80387720e-002 5.39788865e-002 0. 4.50620174e-001
      0. 0. 0. 1.50901496e-001 1.10506304e-001 1.68523975e-002
      5.04288040e-002 0. 4.99641746e-001 0. 8.73934105e-003
      2.92054191e-003 1.10506304e-001 1.79459713e-003 4.86585457e-004
      1.45604915e-003 0. 5.02054632e-001 0. 0. 0. 1.79459713e-003 0. 0.
      0. 0. 2.25406036e-001 0. 0. 0. 0. 2.22336203e-001 5.98665001e-003
      1.79143418e-002 0. 5.02054632e-001 0. 1.96906012e-002
      6.58026990e-003 2.22336203e-001 3.84206682e-001 1.38417296e-002
      4.14197370e-002 0. 2.07952783e-001 0. 3.75059107e-003
      1.25338486e-003 3.84206682e-001 0. 0. 0. 0. 0. 0. 0. 0. 0. 0. 0.
      0. 0. 0. 0. 0. 0. 0. 4.74753380e-001 4.98738065e-002
      1.49241433e-001 0. 0. 0. 0. 0. 4.74753380e-001 4.74753380e-001
      8.08331966e-002 2.41883755e-001 0. 3.74390595e-002 0.
      4.73379157e-002 1.58195421e-002 4.74753380e-001 3.12910706e-001
      3.69160287e-002 1.10466845e-001 0. 2.12668478e-001 0.
      2.72575486e-002 9.10899416e-003 3.12910706e-001 2.58735538e-001
      2.98184119e-002 8.92280340e-002 0. 3.12910706e-001 0.
      3.54097560e-002 1.18333306e-002 2.58735538e-001 3.12910706e-001
      1.31565109e-002 3.93693000e-002 0. 2.28378043e-001 0.
      8.66491050e-002 2.89566088e-002 3.12910706e-001 2.55974561e-001
      1.74508542e-002 5.22194877e-002 0. 3.12910706e-001 0.
      9.16557014e-002 3.06297243e-002 2.55974561e-001 3.11074585e-001
      1.27948932e-002 3.82871367e-002 0. 3.11074585e-001 0.
      3.57504226e-002 1.19471829e-002 3.11074585e-001 3.11074585e-001
      1.82629395e-002 5.46496660e-002 0. 6.58323765e-002 0.
      1.40160965e-002 4.68393741e-003 3.11074585e-001 3.11074585e-001
      2.61637066e-002 7.82915056e-002 0. 3.11074585e-001 0.
      5.65132014e-002 1.88857224e-002 3.11074585e-001 3.11074585e-001
      1.05323344e-002 3.15166786e-002 0. 7.16479123e-002 0.
      3.90221067e-002 1.30405035e-002 3.11074585e-001 3.49617332e-001
      2.20789276e-002 6.60685748e-002 0. 0. 0. 7.42019969e-004
      2.47970049e-004 3.49617332e-001 3.49617332e-001 3.10729146e-002
      9.29819942e-002 0. 4.41715159e-002 0. 1.73553377e-002
      5.79986395e-003 3.49617332e-001 3.49617332e-001 3.51471012e-003
      1.05173532e-002 0. 0. 0. 2.96807871e-003 9.91879846e-004
      3.49617332e-001 3.49617332e-001 4.82427282e-003 1.44360494e-002 0.
      3.91233526e-002 0. 1.70978252e-003 5.71380719e-004 3.49617332e-001
      1.41773582e-001 0. 0. 0. 4.35864002e-001 0. 3.94454636e-002
      1.31819816e-002 1.41773582e-001 9.15754586e-002 5.64696593e-003
      1.68978125e-002 0. 5.04241765e-001 0. 4.68639694e-002
      1.56611167e-002 9.15754586e-002 2.94960290e-003 0. 0. 0.
      4.84448910e-001 0. 3.23540671e-003 1.08121627e-003 2.94960290e-003
      9.41020995e-003 0. 0. 0. 5.04241765e-001 0. 9.92973056e-003
      3.31834191e-003 9.41020995e-003 1.76554531e-001 1.72190592e-002
      5.15257902e-002 0. 5.40313661e-001 0. 3.58851440e-002
      1.19921854e-002 1.76554531e-001 3.40157777e-001 5.03080152e-003
      1.50540173e-002 0. 2.16926664e-001 0. 2.50638071e-002
      8.37588403e-003 3.40157777e-001 4.67454176e-003 0. 0. 0.
      5.40313661e-001 0. 4.84525552e-003 1.61919941e-003 4.67454176e-003
      0. 0. 0. 0. 2.53985256e-001 0. 0. 0. 0. 4.98497486e-001 0. 0. 0.
      0. 0. 6.07197359e-003 2.02914677e-003 4.98497486e-001
      4.98497486e-001 2.97107897e-003 8.89056642e-003 0. 2.98879370e-002
      0. 0. 0. 4.98497486e-001 0. 0. 0. 0. 0. 0. 0. 0. 0. 0. 0. 0. 0. 0.
      0. 0. 0. 0.</_>
    <_>
      9.02093854e-003 7.81693868e-003 2.33912617e-002 0. 4.83371079e-001
      0. 0. 0. 9.02093854e-003 1.17323976e-002 8.45750980e-003
      2.53080949e-002 0. 4.83371079e-001 0. 0. 0. 1.17323976e-002
      1.01173289e-001 3.17630060e-002 9.50470269e-002 0. 4.83371079e-001
      0. 1.86543108e-003 6.23395841e-004 1.01173289e-001 1.08462378e-001
      1.71888545e-002 5.14356010e-002 0. 4.83371079e-001 0.
      4.06331047e-002 1.35789039e-002 1.08462378e-001 3.92509298e-003
      1.84729695e-003 5.52781718e-003 0. 4.04130220e-001 0. 0. 0.
      3.92509298e-003 0. 0. 0. 0. 0. 0. 0. 0. 0. 4.01694685e-001
      1.16411913e-002 3.48348878e-002 0. 4.04130220e-001 0.
      6.74150214e-002 2.25289725e-002 4.01694685e-001 4.04130220e-001
      3.68190594e-002 1.10176660e-001 0. 0. 0. 0. 0. 4.04130220e-001 0.
      0. 0. 0. 0. 0. 0. 0. 0. 0. 0. 0. 0. 0. 0. 0. 0. 0. 4.71714467e-001
      6.89723566e-002 2.06391603e-001 0. 0. 0. 0. 0. 4.71714467e-001
      4.71714467e-001 7.49785304e-002 2.24364340e-001 0. 4.21666726e-002
      0. 1.10788373e-002 3.70236230e-003 4.71714467e-001 2.95151830e-001
      5.52520454e-002 1.65335208e-001 0. 2.95151830e-001 0.
      3.97998542e-002 1.33004151e-002 2.95151830e-001 2.40595564e-001
      2.31092814e-002 6.91517368e-002 0. 2.95151830e-001 0.
      7.98333511e-002 2.66789608e-002 2.40595564e-001 2.95151830e-001
      1.98220480e-002 5.93151078e-002 0. 2.95151830e-001 0.
      1.11619674e-001 3.73013318e-002 2.95151830e-001 2.35056967e-001
      2.81454753e-002 8.42217132e-002 0. 2.95151830e-001 0.
      5.73807880e-002 1.91756617e-002 2.35056967e-001 3.17380875e-001
      1.47552760e-002 4.41533588e-002 0. 2.55643815e-001 0.
      7.12468177e-002 2.38094870e-002 3.17380875e-001 3.17380875e-001
      3.07177454e-002 9.19192135e-002 0. 0. 0. 1.35081187e-002
      4.51417686e-003 3.17380875e-001 3.17380875e-001 2.28022393e-002
      6.82327598e-002 0. 3.07225406e-001 0. 6.01598248e-002
      2.01043654e-002 3.17380875e-001 3.17380875e-001 4.93462617e-003
      1.47662852e-002 0. 0. 0. 6.28777146e-002 2.10126285e-002
      3.17380875e-001 3.47418457e-001 3.32979560e-002 9.96401757e-002 0.
      0. 0. 1.08587965e-002 3.62881902e-003 3.47418457e-001
      3.47418457e-001 3.08373328e-002 9.22770351e-002 0. 4.92177084e-002
      0. 9.52493306e-003 3.18306894e-003 3.47418457e-001 3.47418457e-001
      4.01575631e-003 1.20166754e-002 0. 0. 0. 5.70086911e-002
      1.90513022e-002 3.47418457e-001 3.47418457e-001 7.69939972e-003
      2.30394732e-002 0. 4.31557149e-002 0. 3.73277329e-002
      1.24742733e-002 3.47418457e-001 9.02256370e-002 5.71444747e-004
      1.70997414e-003 0. 4.90440369e-001 0. 3.90271880e-002
      1.30421994e-002 9.02256370e-002 7.73633048e-002 1.18557708e-002
      3.54768522e-002 0. 4.90440369e-001 0. 1.80265494e-002
      6.02415623e-003 7.73633048e-002 1.06387008e-002 0. 0. 0.
      4.90440369e-001 0. 1.75084639e-002 5.85102150e-003 1.06387008e-002
      1.23266894e-002 0. 0. 0. 4.90440369e-001 0. 1.88543648e-002
      6.30079769e-003 1.23266894e-002 3.61830622e-001 2.17967387e-002
      6.52239025e-002 0. 4.25022602e-001 0. 4.48592342e-002
      1.49911698e-002 3.61830622e-001 4.25022602e-001 0. 0. 0. 0. 0.
      6.23482540e-002 2.08356883e-002 4.25022602e-001 3.55251390e-003 0.
      0. 0. 4.25022602e-001 0. 4.39731171e-003 1.46950455e-003
      3.55251390e-003 0. 0. 0. 0. 0. 0. 0. 0. 0. 4.92368907e-001 0. 0.
      0. 0. 0. 1.14517793e-001 3.82698365e-002 4.92368907e-001
      4.92368907e-001 1.31194899e-002 3.92583683e-002 0. 3.13116275e-002
      0. 8.53652433e-002 2.85275690e-002 4.92368907e-001 0. 0. 0. 0. 0.
      0. 0. 0. 0. 0. 0. 0. 0. 0. 0. 0. 0. 0.</_>
    <_>
      1.11467475e-002 6.90370891e-003 2.06585322e-002 0. 4.88959044e-001
      0. 0. 0. 1.11467475e-002 1.83573645e-002 9.45614185e-003
      2.82963831e-002 0. 4.88959044e-001 0. 0. 0. 1.83573645e-002
      9.52610821e-002 1.74991116e-002 5.23640178e-002 0. 4.88959044e-001
      0. 0. 0. 9.52610821e-002 8.49549249e-002 8.28718208e-003
      2.47984082e-002 0. 4.88959044e-001 0. 1.30701857e-002
      4.36783768e-003 8.49549249e-002 7.17085274e-003 3.11356131e-003
      9.31696407e-003 0. 4.31918055e-001 0. 0. 0. 7.17085274e-003 0. 0.
      0. 0. 0. 0. 0. 0. 0. 3.40945661e-001 1.27361547e-002
      3.81114297e-002 0. 4.31918055e-001 0. 2.18159612e-002
      7.29053002e-003 3.40945661e-001 4.31918055e-001 3.83520760e-002
      1.14764042e-001 0. 0. 0. 0. 0. 4.31918055e-001 0. 0. 0. 0. 0. 0.
      0. 0. 0. 5.21801645e-003 0. 0. 0. 0. 0. 0. 0. 5.21801645e-003
      4.57613945e-001 7.75076225e-002 2.31932357e-001 0. 0. 0. 0. 0.
      4.57613945e-001 4.57613945e-001 9.91874635e-002 2.96806693e-001 0.
      0. 0. 0. 0. 4.57613945e-001 3.05120021e-001 4.50722128e-002
      1.34873271e-001 0. 3.05120021e-001 0. 3.16744223e-002
      1.05850352e-002 3.05120021e-001 2.20485061e-001 2.05412731e-002
      6.14673011e-002 0. 3.05120021e-001 0. 3.35087851e-002
      1.11980662e-002 2.20485061e-001 3.05120021e-001 1.68593191e-002
      5.04495129e-002 0. 3.05120021e-001 0. 9.44706872e-002
      3.15704495e-002 3.05120021e-001 2.35997438e-001 1.37968678e-002
      4.12854068e-002 0. 3.05120021e-001 0. 4.36359085e-002
      1.45823583e-002 2.35997438e-001 3.13335568e-001 1.38440486e-002
      4.14266586e-002 0. 3.13335568e-001 0. 2.15423480e-002
      7.19909370e-003 3.13335568e-001 3.13335568e-001 3.35291289e-002
      1.00331955e-001 0. 0. 0. 2.56807869e-003 8.58206768e-004
      3.13335568e-001 3.13335568e-001 9.90651362e-003 2.96439845e-002 0.
      3.13335568e-001 0. 4.10330528e-003 1.37125608e-003 3.13335568e-001
      3.13335568e-001 5.09034470e-003 1.52322529e-002 0. 0. 0.
      1.34824160e-002 4.50558634e-003 3.13335568e-001 3.45025986e-001
      3.87795269e-002 1.16043128e-001 0. 0. 0. 1.13898544e-002
      3.80628929e-003 3.45025986e-001 3.45025986e-001 3.95930819e-002
      1.18477590e-001 0. 0. 0. 1.38375266e-002 4.62425873e-003
      3.45025986e-001 3.45025986e-001 4.05774824e-003 1.21423323e-002 0.
      0. 0. 6.09051324e-002 2.03534253e-002 3.45025986e-001
      3.45025986e-001 1.55329902e-003 4.64806287e-003 0. 0. 0.
      8.98072720e-002 3.00120153e-002 3.45025986e-001 1.04912303e-001 0.
      0. 0. 4.88900900e-001 0. 3.34573761e-002 1.11808684e-002
      1.04912303e-001 8.09364915e-002 3.90010676e-003 1.16705624e-002 0.
      4.88900900e-001 0. 1.53181115e-002 5.11904387e-003 8.09364915e-002
      9.72930249e-003 0. 0. 0. 4.88900900e-001 0. 2.25249156e-002
      7.52743287e-003 9.72930249e-003 1.57183167e-002 0. 0. 0.
      4.88900900e-001 0. 3.00164260e-002 1.00309616e-002 1.57183167e-002
      3.24287683e-001 6.85701752e-003 2.05187313e-002 0. 4.44394976e-001
      0. 0. 0. 3.24287683e-001 4.41275507e-001 0. 0. 0. 0. 0.
      1.21618463e-002 4.06427588e-003 4.41275507e-001 6.53981883e-003 0.
      0. 0. 4.44394976e-001 0. 9.29873530e-003 3.10747395e-003
      6.53981883e-003 0. 0. 0. 0. 0. 0. 0. 0. 0. 4.83753651e-001 0. 0.
      0. 0. 0. 1.20649599e-001 4.03189808e-002 4.83753651e-001
      4.83753651e-001 0. 0. 0. 0. 0. 1.96481019e-001 6.56605139e-002
      4.83753651e-001 0. 0. 0. 0. 0. 0. 0. 0. 0. 0. 0. 0. 0. 0. 0. 0. 0.
      0.</_>
    <_>
      3.00137013e-001 5.74001074e-002 1.71762794e-001 0. 7.47969821e-002
      0. 2.41116844e-002 8.05770233e-003 3.00137013e-001 3.00137013e-001
      4.39100116e-002 1.31395310e-001 0. 4.76875193e-002 0.
      5.72751127e-002 1.91403367e-002 3.00137013e-001 3.00137013e-001
      7.55275488e-002 2.26006359e-001 0. 3.00137013e-001 0.
      5.39925657e-002 1.80433672e-002 3.00137013e-001 3.00137013e-001
      4.91111316e-002 1.46958664e-001 0. 1.34346977e-001 0.
      1.34220555e-001 4.48541529e-002 3.00137013e-001 3.49764854e-001
      2.52571944e-002 7.55790398e-002 0. 5.38515998e-003 0.
      2.05768365e-002 6.87641790e-003 3.49764854e-001 3.49764854e-001
      1.32753355e-002 3.97248529e-002 0. 0. 0. 0. 0. 3.49764854e-001
      3.49764854e-001 2.51041465e-002 7.51208887e-002 0. 0. 0.
      4.99753281e-002 1.67008787e-002 3.49764854e-001 3.49764854e-001
      4.10736771e-003 1.22907637e-002 0. 0. 0. 0. 0. 3.49764854e-001
      3.44633311e-001 7.20943604e-003 2.15733834e-002 0. 3.27110244e-003
      0. 0. 0. 3.44633311e-001 3.44633311e-001 5.92298666e-003
      1.77237913e-002 0. 1.88526377e-001 0. 6.48285775e-003
      2.16646260e-003 3.44633311e-001 3.44633311e-001 0. 0. 0. 0. 0. 0.
      0. 3.44633311e-001 3.44633311e-001 2.78357766e-003 8.32949206e-003
      0. 9.91788208e-002 0. 0. 0. 3.44633311e-001 1.81323022e-001
      5.28588146e-002 1.58173129e-001 0. 5.63378215e-001 0.
      2.22936813e-002 7.45015731e-003 1.81323022e-001 2.68270016e-001
      2.71120872e-002 8.11293945e-002 0. 2.36315846e-001 0.
      5.76430410e-002 1.92632917e-002 2.68270016e-001 0. 0. 0. 0.
      5.63378215e-001 0. 0. 0. 0. 0. 0. 0. 0. 2.33814433e-001 0. 0. 0.
      0. 4.91848320e-001 4.38427255e-002 1.31193638e-001 0. 0. 0.
      8.36692080e-002 2.79607791e-002 4.91848320e-001 4.91848320e-001
      7.17324484e-003 2.14650016e-002 0. 0. 0. 0. 0. 4.91848320e-001 0.
      0. 0. 0. 0. 0. 0. 0. 0. 0. 0. 0. 0. 0. 0. 0. 0. 0. 4.98004258e-001
      0. 0. 0. 0. 0. 0. 0. 4.98004258e-001 4.98004258e-001
      3.62419616e-003 1.08449347e-002 0. 5.35009429e-002 0. 0. 0.
      4.98004258e-001 0. 0. 0. 0. 0. 0. 0. 0. 0. 0. 0. 0. 0. 0. 0. 0. 0.
      0. 0. 0. 0. 0. 6.56056046e-001 0. 0. 0. 0. 0. 0. 0. 0.
      2.51724213e-001 0. 0. 0. 0. 7.09016761e-003 0. 0. 0.
      6.56056046e-001 0. 3.09378374e-003 1.03388843e-003 7.09016761e-003
      0. 0. 0. 0. 2.62973309e-001 0. 0. 0. 0. 0. 0. 0. 0. 0. 0. 0. 0. 0.
      0. 0. 0. 0. 0. 0. 0. 0. 0. 0. 0. 0. 0. 0. 0. 0. 0. 0. 0. 0. 0. 0.
      0. 0. 0. 0. 0. 0. 0. 0. 0. 0. 0. 0. 0. 0. 0. 0. 0. 0. 0. 0. 0. 0.
      0. 0. 0. 0. 0. 0. 0. 0. 0. 0. 0. 0. 0. 0. 0. 0. 0. 0. 0.</_>
    <_>
      3.21216196e-001 4.50963899e-002 1.34945497e-001 0. 3.62511761e-002
      0. 0. 0. 3.21216196e-001 3.21216196e-001 3.18504013e-002
      9.53084901e-002 0. 4.00924357e-003 0. 0. 0. 3.21216196e-001
      3.21216196e-001 5.47088236e-002 1.63709030e-001 0. 3.21216196e-001
      0. 5.09095332e-003 1.70131132e-003 3.21216196e-001 3.21216196e-001
      2.27610581e-002 6.81095049e-002 0. 3.89849097e-002 0.
      2.12123181e-004 7.08880179e-005 3.21216196e-001 3.51812214e-001
      1.94868948e-002 5.83122261e-002 0. 0. 0. 0. 0. 3.51812214e-001
      3.51812214e-001 1.59429628e-002 4.77074347e-002 0. 0. 0. 0. 0.
      3.51812214e-001 3.51812214e-001 0. 0. 0. 0. 0. 0. 0.
      3.51812214e-001 3.51812214e-001 0. 0. 0. 0. 0. 0. 0.
      3.51812214e-001 3.49248141e-001 1.09051075e-002 3.26322429e-002 0.
      3.71651584e-003 0. 0. 0. 3.49248141e-001 2.87916213e-001
      4.31354716e-003 1.29077593e-002 0. 8.65998957e-003 0. 0. 0.
      2.87916213e-001 3.82333010e-001 0. 0. 0. 0. 0. 0. 0.
      3.82333010e-001 3.82333010e-001 5.19300392e-003 1.55393882e-002 0.
      0. 0. 0. 0. 3.82333010e-001 3.47165823e-001 3.54565717e-002
      1.06099166e-001 0. 4.34574217e-001 0. 5.85539490e-002
      1.95677523e-002 3.47165823e-001 3.44833106e-001 1.20572643e-002
      3.60797904e-002 0. 1.15310282e-001 0. 6.44108932e-003
      2.15250417e-003 3.44833106e-001 7.69532546e-002 0. 0. 0.
      4.34574217e-001 0. 5.91019616e-002 1.97508875e-002 7.69532546e-002
      8.69244244e-003 0. 0. 0. 3.03355783e-001 0. 7.55519513e-003
      2.52482016e-003 8.69244244e-003 4.98753130e-001 0. 0. 0. 0. 0. 0.
      0. 4.98753130e-001 4.98753130e-001 0. 0. 0. 0. 0. 0. 0.
      4.98753130e-001 0. 0. 0. 0. 0. 0. 0. 0. 0. 0. 0. 0. 0. 0. 0. 0. 0.
      0. 4.98644412e-001 0. 0. 0. 0. 0. 0. 0. 4.98644412e-001
      4.98644412e-001 6.60963356e-003 1.97784677e-002 0. 0. 0. 0. 0.
      4.98644412e-001 0. 0. 0. 0. 0. 0. 0. 0. 0. 0. 0. 0. 0. 0. 0. 0. 0.
      0. 0. 0. 0. 0. 5.62789619e-001 0. 6.48964895e-003 2.16873200e-003
      0. 0. 0. 0. 0. 4.20238853e-001 0. 1.23612373e-003 4.13091911e-004
      0. 3.89420874e-002 8.19167867e-003 2.45125331e-002 0.
      5.62789619e-001 0. 2.31634895e-003 7.74083310e-004 3.89420874e-002
      3.88123258e-003 1.02957967e-003 3.08088330e-003 0. 4.24874872e-001
      0. 0. 0. 3.88123258e-003 0. 0. 0. 0. 0. 0. 0. 0. 0. 0. 0. 0. 0. 0.
      0. 0. 0. 0. 0. 0. 0. 0. 0. 0. 0. 0. 0. 0. 0. 0. 0. 0. 0. 0. 0. 0.
      0. 0. 0. 0. 0. 0. 0. 0. 0. 0. 0. 0. 0. 0. 0. 0. 0. 0. 0. 0. 0. 0.
      0. 0. 0. 0. 0. 0. 0. 0. 0. 0. 0. 0. 0. 0.</_>
    <_>
      3.18900853e-001 4.81337160e-002 1.44034371e-001 0. 1.74103994e-002
      0. 0. 0. 3.18900853e-001 3.18900853e-001 4.06549983e-002
      1.21655226e-001 0. 3.56921437e-003 0. 0. 0. 3.18900853e-001
      3.18900853e-001 4.26206104e-002 1.27536625e-001 0. 3.18900853e-001
      0. 1.55008128e-002 5.18011255e-003 3.18900853e-001 3.18900853e-001
      1.75460763e-002 5.25043495e-002 0. 1.42379478e-001 0.
      3.87520273e-003 1.29502814e-003 3.18900853e-001 3.50358814e-001
      3.18724327e-002 9.53744873e-002 0. 0. 0. 0. 0. 3.50358814e-001
      3.50358814e-001 2.09688134e-002 6.27466813e-002 0. 0. 0. 0. 0.
      3.50358814e-001 3.50358814e-001 0. 0. 0. 0. 0. 0. 0.
      3.50358814e-001 3.50358814e-001 0. 0. 0. 0. 0. 0. 0.
      3.50358814e-001 3.38530928e-001 1.85813066e-002 5.56023493e-002 0.
      2.66579958e-003 0. 0. 0. 3.38530928e-001 2.62243569e-001
      1.48709901e-002 4.44995798e-002 0. 9.42860264e-003 0. 0. 0.
      2.62243569e-001 3.91392201e-001 6.47571578e-004 1.93777354e-003 0.
      0. 0. 0. 0. 3.91392201e-001 3.91392201e-001 3.30155753e-002
      9.87947956e-002 0. 0. 0. 0. 0. 3.91392201e-001 2.78927267e-001
      4.15575132e-002 1.24355443e-001 0. 3.96200508e-001 0.
      6.45059943e-002 2.15568263e-002 2.78927267e-001 3.53109568e-001
      1.39192697e-002 4.16516028e-002 0. 2.95490563e-001 0.
      1.61264967e-002 5.38920565e-003 3.53109568e-001 6.49927333e-002
      9.99150425e-003 2.98982728e-002 0. 3.96200508e-001 0.
      3.98752093e-002 1.33256279e-002 6.49927333e-002 1.06336623e-002
      2.49787560e-003 7.47456681e-003 0. 3.92633259e-001 0.
      9.96880140e-003 3.33140674e-003 1.06336623e-002 4.98753130e-001 0.
      0. 0. 0. 0. 0. 0. 4.98753130e-001 4.98753130e-001 0. 0. 0. 0. 0.
      0. 0. 4.98753130e-001 0. 0. 0. 0. 0. 0. 0. 0. 0. 0. 0. 0. 0. 0. 0.
      0. 0. 0. 4.94610697e-001 8.07218195e-004 2.41549546e-003 0. 0. 0.
      0. 0. 4.94610697e-001 4.94610697e-001 4.07064743e-002
      1.21808805e-001 0. 0. 0. 0. 0. 4.94610697e-001 0. 0. 0. 0. 0. 0.
      0. 0. 0. 0. 0. 0. 0. 0. 0. 0. 0. 0. 0. 0. 0. 0. 5.09408712e-001 0.
      0. 0. 0. 0. 0. 0. 0. 4.80944037e-001 0. 0. 0. 0. 2.94222962e-002
      6.13140501e-003 1.83474310e-002 0. 5.09408712e-001 0.
      1.06372060e-002 3.55476793e-003 2.94222962e-002 3.27787874e-003
      1.22299243e-003 3.65964556e-003 0. 4.92283523e-001 0. 0. 0.
      3.27787874e-003 0. 0. 0. 0. 0. 0. 0. 0. 0. 0. 0. 0. 0. 0. 0. 0. 0.
      0. 0. 0. 0. 0. 0. 0. 0. 0. 0. 0. 0. 0. 0. 0. 0. 0. 0. 0. 0. 0. 0.
      0. 0. 0. 0. 0. 0. 0. 0. 0. 0. 0. 0. 0. 0. 0. 0. 0. 0. 0. 0. 0. 0.
      0. 0. 0. 0. 0. 0. 0. 0. 0. 0. 0.</_>
    <_>
      3.15639377e-001 7.27057904e-002 2.17563495e-001 0. 5.62675809e-003
      0. 0. 0. 3.15639377e-001 3.15639377e-001 5.45489267e-002
      1.63231164e-001 0. 1.77971116e-004 0. 0. 0. 3.15639377e-001
      3.15639377e-001 3.57167609e-002 1.06877781e-001 0. 3.15639377e-001
      0. 0. 0. 3.15639377e-001 3.15639377e-001 8.69536120e-003
      2.60197390e-002 0. 6.68533370e-002 0. 0. 0. 3.15639377e-001
      3.48354280e-001 4.40803766e-002 1.31905302e-001 0. 0. 0. 0. 0.
      3.48354280e-001 3.39301676e-001 3.23518515e-002 9.68090370e-002 0.
      0. 0. 0. 0. 3.39301676e-001 3.48354280e-001 1.51904142e-002
      4.54553328e-002 0. 0. 0. 0. 0. 3.48354280e-001 3.48354280e-001
      2.47675348e-002 7.41136223e-002 0. 0. 0. 0. 0. 3.48354280e-001
      3.29233855e-001 2.44613755e-002 7.31977597e-002 0. 0. 0. 0. 0.
      3.29233855e-001 2.53853500e-001 1.32229840e-002 3.95682082e-002 0.
      8.35316069e-003 0. 0. 0. 2.53853500e-001 4.00670588e-001
      5.91315050e-003 1.76943354e-002 0. 0. 0. 0. 0. 4.00670588e-001
      4.00670588e-001 2.49234308e-003 7.45801255e-003 0. 0. 0. 0. 0.
      4.00670588e-001 2.64010638e-001 2.73135584e-002 8.17322657e-002 0.
      4.31323379e-001 0. 0. 0. 2.64010638e-001 4.31323379e-001
      6.80924812e-003 2.03757863e-002 0. 1.96315154e-001 0. 0. 0.
      4.31323379e-001 0. 0. 0. 0. 4.31323379e-001 0. 0. 0. 0. 0. 0. 0.
      0. 2.56322682e-001 0. 0. 0. 0. 4.93755788e-001 2.33699139e-002
      6.99314252e-002 0. 0. 0. 0. 0. 4.93755788e-001 4.93755788e-001
      3.81039754e-002 1.14021190e-001 0. 0. 0. 0. 0. 4.93755788e-001 0.
      0. 0. 0. 0. 0. 0. 0. 0. 0. 0. 0. 0. 0. 0. 0. 0. 0. 4.98559058e-001
      8.30935780e-003 2.48646699e-002 0. 0. 0. 0. 0. 4.98559058e-001
      4.98559058e-001 2.98448326e-003 8.93067848e-003 0. 0. 0. 0. 0.
      4.98559058e-001 0. 0. 0. 0. 0. 0. 0. 0. 0. 0. 0. 0. 0. 0. 0. 0. 0.
      0. 0. 0. 0. 0. 6.12420976e-001 0. 0. 0. 0. 0. 0. 0. 0.
      3.41226369e-001 0. 0. 0. 0. 8.31185933e-003 0. 0. 0.
      6.12420976e-001 0. 1.03044221e-002 3.44355730e-003 8.31185933e-003
      0. 0. 0. 0. 3.56475204e-001 0. 0. 0. 0. 0. 0. 0. 0. 0. 0. 0. 0. 0.
      0. 0. 0. 0. 0. 0. 0. 0. 0. 0. 0. 0. 0. 0. 0. 0. 0. 0. 0. 0. 0. 0.
      0. 0. 0. 0. 0. 0. 0. 0. 0. 0. 0. 0. 0. 0. 0. 0. 0. 0. 0. 0. 0. 0.
      0. 0. 0. 0. 0. 0. 0. 0. 0. 0. 0. 0. 0. 0. 0. 0. 0. 0. 0.</_>
    <_>
      3.48812014e-001 4.86538112e-002 1.45590723e-001 0. 1.45932361e-002
      0. 0. 0. 3.48812014e-001 3.48812014e-001 4.36175838e-002
      1.30520254e-001 0. 6.43755123e-002 0. 0. 0. 3.48812014e-001
      1.62604190e-002 6.21864619e-003 1.86084881e-002 0. 2.52904564e-001
      0. 0. 0. 1.62604190e-002 3.48812014e-001 5.76581769e-002
      1.72534585e-001 0. 3.48812014e-001 0. 0. 0. 3.48812014e-001
      3.30540627e-001 2.41536703e-002 7.22769201e-002 0. 1.83193441e-002
      0. 0. 0. 3.30540627e-001 3.30540627e-001 1.59222130e-002
      4.76453342e-002 0. 0. 0. 0. 0. 3.30540627e-001 3.30540627e-001
      2.38886401e-002 7.14836419e-002 0. 3.29079747e-001 0. 0. 0.
      3.30540627e-001 3.30540627e-001 0. 0. 0. 0. 0. 0. 0.
      3.30540627e-001 3.52876693e-001 1.26847234e-002 3.79575342e-002 0.
      0. 0. 0. 0. 3.52876693e-001 3.51396263e-001 8.58198572e-003
      2.56805737e-002 0. 7.01420009e-003 0. 0. 0. 3.51396263e-001
      3.52876693e-001 0. 0. 0. 0. 0. 0. 0. 3.52876693e-001
      3.52876693e-001 0. 0. 0. 0. 0. 0. 0. 3.52876693e-001
      5.17938891e-003 2.07349495e-003 6.20466378e-003 0. 3.90165776e-001
      0. 0. 0. 5.17938891e-003 1.31367460e-001 1.84305329e-002
      5.51509708e-002 0. 5.50972283e-001 0. 0. 0. 1.31367460e-001 0. 0.
      0. 0. 4.43999022e-001 0. 0. 0. 0. 0. 0. 0. 0. 5.50972283e-001 0.
      0. 0. 0. 4.06296283e-001 1.76793411e-002 5.29031269e-002 0.
      4.07022476e-001 0. 0. 0. 4.06296283e-001 4.07022476e-001 0. 0. 0.
      0. 0. 0. 0. 4.07022476e-001 0. 0. 0. 0. 4.07022476e-001 0. 0. 0.
      0. 0. 0. 0. 0. 0. 0. 0. 0. 0. 4.98753130e-001 0. 0. 0. 0. 0. 0. 0.
      4.98753130e-001 4.98753130e-001 0. 0. 0. 0. 0. 0. 0.
      4.98753130e-001 0. 0. 0. 0. 0. 0. 0. 0. 0. 0. 0. 0. 0. 0. 0. 0. 0.
      0. 0. 0. 0. 0. 4.09053504e-001 0. 0. 0. 0. 0. 0. 0. 0.
      5.52448034e-001 0. 0. 0. 0. 9.27556902e-002 0. 0. 0.
      4.36958134e-001 0. 8.65600407e-002 2.89268475e-002 9.27556902e-002
      9.70313605e-003 0. 0. 0. 5.52448034e-001 0. 9.64287482e-003
      3.22247972e-003 9.70313605e-003 0. 0. 0. 0. 7.04615533e-001 0. 0.
      0. 0. 0. 0. 0. 0. 0. 0. 0. 0. 0. 0. 0. 0. 0. 7.04615533e-001 0. 0.
      0. 0. 0. 0. 0. 0. 0. 0. 0. 0. 0. 0. 0. 0. 0. 0. 0. 0. 0. 0. 0. 0.
      0. 0. 0. 0. 0. 0. 0. 0. 0. 0. 0. 0. 0. 0. 0. 0. 0. 0. 0. 0. 0. 0.
      0. 0. 0.</_>
    <_>
      3.11104715e-001 3.09699122e-002 9.26735178e-002 0. 6.68798611e-002
      0. 3.80430445e-002 1.27133187e-002 3.11104715e-001 3.11104715e-001
      1.96948051e-002 5.89342825e-002 0. 1.12066697e-002 0.
      7.34176934e-002 2.45349053e-002 3.11104715e-001 3.11104715e-001
      6.08917214e-002 1.82210550e-001 0. 3.11104715e-001 0.
      8.46396387e-002 2.82850843e-002 3.11104715e-001 3.11104715e-001
      1.88180245e-002 5.63104935e-002 0. 9.86744687e-002 0.
      1.94543332e-001 6.50129616e-002 3.11104715e-001 3.56853724e-001
      1.17075574e-002 3.50334793e-002 0. 0. 0. 5.63541837e-002
      1.88325774e-002 3.56853724e-001 3.00844520e-001 7.05386046e-003
      2.11078413e-002 0. 1.48343400e-003 0. 1.96885094e-002
      6.57955371e-003 3.00844520e-001 3.56853724e-001 0. 0. 0. 0. 0.
      1.85447559e-001 6.19733147e-002 3.56853724e-001 3.56853724e-001 0.
      0. 0. 0. 0. 8.10210556e-002 2.70758159e-002 3.56853724e-001
      2.72090346e-001 3.49636702e-003 1.04624638e-002 0. 9.26526915e-003
      0. 2.25722939e-002 7.54326489e-003 2.72090346e-001 1.56151399e-001
      2.45775969e-004 7.35452631e-004 0. 6.71374006e-003 0.
      3.22122686e-002 1.07647749e-002 1.56151399e-001 4.25211728e-001 0.
      0. 0. 0. 0. 1.27626762e-001 4.26506214e-002 4.25211728e-001
      4.25211728e-001 2.82642175e-003 8.45769886e-003 0. 0. 0.
      2.23516971e-001 7.46954530e-002 4.25211728e-001 1.48527712e-001
      2.75589451e-002 8.24665651e-002 0. 5.73912323e-001 0.
      3.22860666e-002 1.07894372e-002 1.48527712e-001 2.93786019e-001
      7.93441944e-003 2.37427205e-002 0. 2.14627057e-001 0.
      8.67412016e-002 2.89873872e-002 2.93786019e-001 0. 0. 0. 0.
      5.73912323e-001 0. 0. 0. 0. 0. 0. 0. 0. 2.34525651e-001 0. 0. 0.
      0. 4.78722483e-001 0. 0. 0. 0. 0. 2.37263396e-001 7.92892650e-002
      4.78722483e-001 4.78722483e-001 0. 0. 0. 0. 0. 1.19732313e-001
      4.00124416e-002 4.78722483e-001 0. 0. 0. 0. 0. 0. 0. 0. 0. 0. 0.
      0. 0. 0. 0. 0. 0. 0. 4.71947491e-001 0. 0. 0. 0. 0.
      1.40183985e-001 4.68470305e-002 4.71947491e-001 4.71947491e-001
      4.09648521e-003 1.22581981e-002 0. 0. 0. 2.72146672e-001
      9.09466371e-002 4.71947491e-001 0. 0. 0. 0. 0. 0. 0. 0. 0. 0. 0.
      0. 0. 0. 0. 0. 0. 0. 0. 0. 0. 0. 6.55996978e-001 0. 0. 0. 0. 0. 0.
      0. 0. 2.51443207e-001 0. 0. 0. 0. 1.21178571e-002 0. 0. 0.
      6.55996978e-001 0. 1.55414399e-002 5.19367633e-003 1.21178571e-002
      0. 0. 0. 0. 2.62679756e-001 0. 0. 0. 0. 0. 0. 0. 0. 0. 0. 0. 0. 0.
      0. 0. 0. 0. 0. 0. 0. 0. 0. 0. 0. 0. 0. 0. 0. 0. 0. 0. 0. 0. 0. 0.
      0. 0. 0. 0. 0. 0. 0. 0. 0. 0. 0. 0. 0. 0. 0. 0. 0. 0. 0. 0. 0. 0.
      0. 0. 0. 0. 0. 0. 0. 0. 0. 0. 0. 0. 0. 0. 0. 0. 0. 0. 0.</_>
    <_>
      3.16909075e-001 3.58578786e-002 1.07300341e-001 0. 4.64925058e-002
      0. 1.26159890e-002 4.21604188e-003 3.16909075e-001 3.16909075e-001
      1.41890859e-002 4.24591191e-002 0. 1.26517750e-002 0.
      4.28269990e-002 1.43120317e-002 3.16909075e-001 3.16909075e-001
      3.86660881e-002 1.15703240e-001 0. 3.16909075e-001 0.
      4.02885005e-002 1.34637104e-002 3.16909075e-001 3.16909075e-001
      1.22808591e-002 3.67488749e-002 0. 1.72862321e-001 0.
      1.51575327e-001 5.06538115e-002 3.16909075e-001 3.53689045e-001
      9.90463421e-003 2.96384376e-002 0. 0. 0. 3.10570952e-002
      1.03787361e-002 3.53689045e-001 3.15287262e-001 9.77789238e-003
      2.92591881e-002 0. 0. 0. 2.49161460e-002 8.32653884e-003
      3.15287262e-001 3.53689045e-001 0. 0. 0. 0. 0. 1.27846107e-001
      4.27239239e-002 3.53689045e-001 3.53689045e-001 0. 0. 0. 0. 0.
      1.50614351e-001 5.03326766e-002 3.53689045e-001 2.92885005e-001
      8.39556381e-003 2.51227319e-002 0. 2.45141354e-003 0.
      2.88621783e-002 9.64523293e-003 2.92885005e-001 1.24027111e-001
      1.00727445e-002 3.01414914e-002 0. 1.11313350e-002 0.
      1.31775411e-002 4.40370291e-003 1.24027111e-001 4.00537580e-001 0.
      0. 0. 0. 0. 2.55281836e-001 8.53107125e-002 4.00537580e-001
      4.00537580e-001 0. 0. 0. 0. 0. 2.62396455e-001 8.76882896e-002
      4.00537580e-001 1.42340571e-001 1.85111295e-002 5.53921461e-002 0.
      4.91243452e-001 0. 1.63881276e-002 5.47662470e-003 1.42340571e-001
      3.10471058e-001 5.74362511e-003 1.71870533e-002 0. 3.44146669e-001
      0. 6.65967837e-002 2.22554728e-002 3.10471058e-001 0. 0. 0. 0.
      4.91243452e-001 0. 0. 0. 0. 0. 0. 0. 0. 3.89540404e-001 0. 0. 0.
      0. 4.74157304e-001 0. 0. 0. 0. 0. 1.66343942e-001 5.55892251e-002
      4.74157304e-001 4.74157304e-001 0. 0. 0. 0. 0. 2.42183447e-001
      8.09334517e-002 4.74157304e-001 0. 0. 0. 0. 0. 0. 0. 0. 0. 0. 0.
      0. 0. 0. 0. 0. 0. 0. 4.47565228e-001 0. 0. 0. 0. 0.
      2.58363664e-001 8.63406062e-002 4.47565228e-001 4.47565228e-001 0.
      0. 0. 0. 0. 3.28585804e-001 1.09807611e-001 4.47565228e-001 0. 0.
      0. 0. 0. 0. 0. 0. 0. 4.35204571e-003 0. 0. 0. 0. 0. 0. 0.
      4.35204571e-003 0. 0. 0. 0. 5.61458349e-001 0. 0. 0. 0. 0. 0. 0.
      0. 4.16274041e-001 0. 0. 0. 0. 1.66273769e-002 0. 0. 0.
      5.61458349e-001 0. 2.95006353e-002 9.85859428e-003 1.66273769e-002
      0. 0. 0. 0. 4.34876680e-001 0. 0. 0. 0. 0. 0. 0. 0. 0. 0. 0. 0. 0.
      0. 0. 0. 0. 0. 0. 0. 0. 0. 0. 0. 0. 0. 0. 0. 0. 0. 0. 0. 0. 0. 0.
      0. 0. 0. 0. 0. 0. 0. 0. 0. 0. 0. 0. 0. 0. 0. 0. 0. 0. 0. 0. 0. 0.
      0. 0. 0. 0. 0. 0. 0. 0. 0. 0. 0. 0. 0. 0. 0. 0. 0. 0. 0.</_>
    <_>
      2.88019329e-001 1.83783881e-002 5.49950339e-002 0. 6.69455156e-002
      0. 0. 0. 2.88019329e-001 3.55316222e-001 3.35720517e-002
      1.00460134e-001 0. 1.07710570e-001 0. 1.45127960e-002
      4.84992191e-003 3.55316222e-001 7.94592127e-002 2.28579752e-002
      6.83995113e-002 0. 3.55316222e-001 0. 0. 0. 7.94592127e-002
      3.55316222e-001 4.83363904e-002 1.44640356e-001 0. 3.55316222e-001
      0. 3.08396872e-002 1.03060808e-002 3.55316222e-001 3.42015028e-001
      8.78144614e-003 2.62773912e-002 0. 1.68234818e-002 0.
      4.34290059e-002 1.45132123e-002 3.42015028e-001 3.42015028e-001
      4.44679847e-003 1.33065172e-002 0. 0. 0. 4.63015437e-002
      1.54731609e-002 3.42015028e-001 3.42015028e-001 9.77275707e-003
      2.92437039e-002 0. 1.72493473e-001 0. 9.62598920e-002
      3.21683660e-002 3.42015028e-001 3.42015028e-001 0. 0. 0. 0. 0.
      1.12443730e-001 3.75767201e-002 3.42015028e-001 3.71824503e-001
      5.55352448e-003 1.66182648e-002 0. 1.93868633e-002 0.
      2.96573285e-002 9.91095975e-003 3.71824503e-001 2.63753295e-001
      3.40928999e-003 1.02018956e-002 0. 2.93791313e-002 0.
      2.20707618e-002 7.37566128e-003 2.63753295e-001 3.71824503e-001 0.
      0. 0. 5.35402112e-002 0. 9.14936736e-002 3.05755790e-002
      3.71824503e-001 3.71824503e-001 0. 0. 0. 7.38779455e-002 0.
      7.83320665e-002 2.61772014e-002 3.71824503e-001 1.59743391e-002
      5.08816820e-003 1.52256805e-002 0. 4.91108567e-001 0. 0. 0.
      1.59743391e-002 1.19166225e-001 1.06509747e-002 3.18716541e-002 0.
      4.91108567e-001 0. 6.42964756e-003 2.14867527e-003 1.19166225e-001
      0. 0. 0. 0. 4.91108567e-001 0. 0. 0. 0. 0. 0. 0. 0.
      4.91108567e-001 0. 0. 0. 0. 4.02489960e-001 9.15881433e-003
      2.74065584e-002 0. 4.02489960e-001 0. 8.96331370e-002
      2.99538188e-002 4.02489960e-001 4.02489960e-001 0. 0. 0. 0. 0.
      1.13114521e-001 3.78008932e-002 4.02489960e-001 0. 0. 0. 0.
      4.02489960e-001 0. 0. 0. 0. 0. 0. 0. 0. 0. 0. 0. 0. 0.
      4.87337172e-001 0. 0. 0. 7.53683373e-002 0. 1.17388912e-001
      3.92293148e-002 4.87337172e-001 4.87337172e-001 0. 0. 0.
      1.03319317e-001 0. 1.10068716e-001 3.67830396e-002 4.87337172e-001
      0. 0. 0. 0. 0. 0. 0. 0. 0. 0. 0. 0. 0. 0. 0. 0. 0. 0. 0. 0. 0. 0.
      4.93603140e-001 0. 0. 0. 0. 0. 0. 0. 0. 4.93603140e-001 0. 0. 0.
      0. 6.94748685e-002 0. 0. 0. 4.93603140e-001 0. 9.82966945e-002
      3.28490287e-002 6.94748685e-002 5.25257969e-003 0. 0. 0.
      4.93603140e-001 0. 6.27930649e-003 2.09843391e-003 5.25257969e-003
      0. 0. 0. 0. 7.04615533e-001 0. 0. 0. 0. 0. 0. 0. 0. 0. 0. 0. 0. 0.
      0. 0. 0. 0. 7.04615533e-001 0. 0. 0. 0. 0. 0. 0. 0. 0. 0. 0. 0. 0.
      0. 0. 0. 0. 0. 0. 0. 0. 0. 0. 0. 0. 0. 0. 0. 0. 0. 0. 0. 0. 0. 0.
      0. 0. 0. 0. 0. 0. 0. 0. 0. 0. 0. 0. 0. 0.</_>
    <_>
      1.36901662e-001 3.95175517e-002 1.18251592e-001 0. 1.55315772e-001
      0. 0. 0. 1.36901662e-001 2.39516143e-002 6.20368961e-003
      1.85638070e-002 0. 6.67369545e-001 0. 0. 0. 2.39516143e-002 0. 0.
      0. 0. 1.54565513e-001 0. 0. 0. 0. 0. 0. 0. 0. 6.67369545e-001 0.
      0. 0. 0. 1.29134406e-003 0. 0. 0. 7.04614341e-001 0. 0. 0.
      1.29134406e-003 0. 0. 0. 0. 0. 0. 0. 0. 0. 0. 0. 0. 0.
      7.04614341e-001 0. 0. 0. 0. 0. 0. 0. 0. 0. 0. 0. 0. 0. 0. 0. 0. 0.
      0. 0. 0. 0. 0. 0. 0. 0. 0. 0. 0. 0. 0. 0. 0. 0. 0. 0. 0. 0. 0. 0.
      0. 0. 0. 0. 0. 0. 0. 0. 0. 0. 0. 0. 0. 0. 1.56896815e-001 0. 0. 0.
      0. 0. 0. 0. 0. 6.79614127e-001 0. 0. 0. 0. 4.09894739e-004 0. 0.
      0. 1.52894929e-001 0. 1.03253173e-003 3.45054897e-004
      4.09894739e-004 7.83935189e-002 0. 0. 0. 6.79614127e-001 0.
      9.08654705e-002 3.03657185e-002 7.83935189e-002 0. 0. 0. 0.
      5.50060987e-001 0. 0. 0. 0. 0. 0. 0. 0. 0. 0. 0. 0. 0.
      2.52393216e-001 0. 0. 0. 5.50060987e-001 0. 9.81331542e-002
      3.27944607e-002 2.52393216e-001 3.54121059e-001 6.70645945e-003
      2.00682841e-002 0. 0. 0. 3.18274600e-003 1.06362044e-003
      3.54121059e-001 0. 0. 0. 0. 0. 0. 0. 0. 0. 0. 0. 0. 0. 0. 0. 0. 0.
      0. 4.81454581e-001 7.14266226e-002 2.13735685e-001 0. 0. 0. 0. 0.
      4.81454581e-001 4.81454581e-001 4.15829830e-002 1.24432147e-001 0.
      0. 0. 0. 0. 4.81454581e-001 1.27877528e-003 0. 0. 0.
      8.97131935e-002 0. 2.74497294e-003 9.17324098e-004 1.27877528e-003
      2.88557053e-001 0. 0. 0. 3.65075767e-001 0. 2.87213683e-001
      9.59820002e-002 2.88557053e-001 3.65075767e-001 0. 0. 0.
      7.41848582e-003 0. 7.90537000e-002 2.64183581e-002 3.65075767e-001
      3.65075767e-001 0. 0. 0. 1.07888259e-001 0. 2.01225802e-001
      6.72462359e-002 3.65075767e-001 3.25610191e-001 0. 0. 0.
      3.25610191e-001 0. 1.56802014e-001 5.24006151e-002 3.25610191e-001
      3.25610191e-001 1.14754140e-002 3.43388133e-002 0. 0. 0.
      5.55192586e-003 1.85536046e-003 3.25610191e-001 3.25610191e-001 0.
      0. 0. 4.17532921e-002 0. 1.00487731e-001 3.35812829e-002
      3.25610191e-001 3.25610191e-001 5.06107928e-003 1.51446806e-002 0.
      0. 0. 2.41268761e-002 8.06278177e-003 3.25610191e-001
      3.46694797e-001 4.87380549e-002 1.45842865e-001 0. 0. 0. 0. 0.
      3.46694797e-001 3.46694797e-001 2.77987849e-002 8.31845701e-002 0.
      0. 0. 0. 0. 3.46694797e-001 3.46694797e-001 2.10333485e-002
      6.29398078e-002 0. 1.65536464e-003 0. 2.81963497e-002
      9.42272507e-003 3.46694797e-001 3.44185233e-001 1.17034167e-002
      3.50210853e-002 0. 1.01229139e-002 0. 1.72626041e-002
      5.76885929e-003 3.44185233e-001</_>
    <_>
      1.36965374e-002 6.19677221e-003 1.85431056e-002 0. 6.12652540e-001
      0. 0. 0. 1.36965374e-002 0. 0. 0. 0. 3.40475231e-001 0. 0. 0. 0.
      0. 0. 0. 0. 6.12652540e-001 0. 0. 0. 0. 0. 0. 0. 0.
      3.55690509e-001 0. 0. 0. 0. 0. 0. 0. 0. 0. 0. 0. 0. 0. 0. 0. 0. 0.
      0. 0. 0. 0. 0. 0. 0. 0. 0. 0. 0. 0. 0. 0. 0. 0. 0. 0. 0. 0. 0. 0.
      0. 0. 0. 0. 0. 0. 0. 0. 0. 0. 0. 0. 0. 0. 0. 0. 0. 0. 0. 0. 0. 0.
      0. 0. 0. 0. 0. 0. 0. 0. 0. 0. 0. 0. 0. 0. 0. 0. 0. 0. 0.
      5.27241409e-001 0. 0. 0. 0. 0. 0. 0. 0. 2.97548592e-001 0. 0. 0.
      0. 1.38281554e-001 1.64557006e-002 4.92417328e-002 0.
      5.27241409e-001 0. 5.46023324e-002 1.82471871e-002 1.38281554e-001
      3.21224242e-001 3.14005464e-002 9.39624161e-002 0. 2.99332738e-001
      0. 1.31999711e-002 4.41120937e-003 3.21224242e-001 0. 0. 0. 0. 0.
      0. 0. 0. 0. 0. 0. 0. 0. 0. 0. 0. 0. 0. 4.50575501e-001
      6.16413094e-002 1.84454292e-001 0. 0. 0. 0. 0. 4.50575501e-001
      4.50575501e-001 1.20942526e-001 3.61906141e-001 0. 0. 0. 0. 0.
      4.50575501e-001 0. 0. 0. 0. 0. 0. 0. 0. 0. 1.58378982e-003 0. 0.
      0. 0. 0. 0. 0. 1.58378982e-003 4.61062819e-001 8.88758376e-002
      2.65950412e-001 0. 0. 0. 0. 0. 4.61062819e-001 4.61062819e-001
      8.17007795e-002 2.44479910e-001 0. 0. 0. 0. 0. 4.61062819e-001
      3.11838150e-001 3.97957079e-002 1.19083926e-001 0. 3.11838150e-001
      0. 1.09554693e-001 3.66113484e-002 3.11838150e-001 3.11838150e-001
      6.74927011e-002 2.01963887e-001 0. 1.49047226e-001 0.
      2.75355056e-002 9.20190569e-003 3.11838150e-001 3.11838150e-001
      1.68416928e-002 5.03967740e-002 0. 9.53194275e-002 0.
      6.59174100e-002 2.20284760e-002 3.11838150e-001 3.11838150e-001
      2.48343349e-002 7.43138120e-002 0. 2.12173220e-002 0.
      2.77761463e-002 9.28230956e-003 3.11838150e-001 3.48033220e-001
      4.98144403e-002 1.49063826e-001 0. 0. 0. 0. 0. 3.48033220e-001
      3.48033220e-001 7.48763606e-002 2.24058643e-001 0. 0. 0. 0. 0.
      3.48033220e-001 3.48033220e-001 1.39574679e-002 4.17660698e-002 0.
      0. 0. 3.00538596e-002 1.00434711e-002 3.48033220e-001
      3.03225338e-001 1.35151511e-002 4.04424891e-002 0. 0. 0.
      2.31717099e-002 7.74357840e-003 3.03225338e-001 4.22100604e-001
      9.36524719e-002 2.80243963e-001 0. 0. 0. 0. 0. 4.22100604e-001
      4.22100604e-001 6.63994625e-002 1.98692515e-001 0. 2.84681818e-003
      0. 0. 0. 4.22100604e-001 2.46895552e-001 1.21829733e-002
      3.64561044e-002 0. 4.09241393e-003 0. 2.18166783e-002
      7.29075028e-003 2.46895552e-001 1.16775423e-001 3.52175348e-003
      1.05384290e-002 0. 2.34892834e-002 0. 4.04106639e-003
      1.35045347e-003 1.16775423e-001</_>
    <_>
      1.43487111e-001 5.48359305e-002 1.64090052e-001 0. 2.48356417e-001
      0. 0. 0. 1.43487111e-001 2.41173357e-002 9.41325538e-003
      2.81680543e-002 0. 6.30690277e-001 0. 0. 0. 2.41173357e-002 0. 0.
      0. 0. 2.51648009e-001 0. 0. 0. 0. 0. 0. 0. 0. 6.30690277e-001 0.
      0. 0. 0. 6.56772347e-004 0. 0. 0. 7.04615295e-001 0. 0. 0.
      6.56772347e-004 0. 0. 0. 0. 0. 0. 0. 0. 0. 0. 0. 0. 0.
      7.04615295e-001 0. 0. 0. 0. 0. 0. 0. 0. 0. 0. 0. 0. 0. 0. 0. 0. 0.
      0. 0. 0. 0. 0. 0. 0. 0. 0. 0. 0. 0. 0. 0. 0. 0. 0. 0. 0. 0. 0. 0.
      0. 0. 0. 0. 0. 0. 0. 0. 0. 0. 0. 0. 0. 0. 2.55231977e-001 0. 0. 0.
      0. 0. 0. 0. 0. 6.51450336e-001 0. 0. 0. 0. 8.69706506e-004 0. 0.
      0. 2.56637096e-001 0. 1.97629211e-003 6.60443795e-004
      8.69706506e-004 7.65241757e-002 0. 0. 0. 6.51450336e-001 0.
      4.23872471e-002 1.41651100e-002 7.65241757e-002 0. 0. 0. 0.
      5.42710900e-001 0. 0. 0. 0. 0. 0. 0. 0. 0. 0. 0. 0. 0.
      2.54348963e-001 8.17513186e-003 2.44631115e-002 0. 5.42710900e-001
      0. 4.36085202e-002 1.45732388e-002 2.54348963e-001 3.68496060e-001
      1.33166723e-002 3.98485623e-002 0. 0. 0. 0. 0. 3.68496060e-001 0.
      0. 0. 0. 0. 0. 0. 0. 0. 0. 0. 0. 0. 0. 0. 0. 0. 0. 4.66030896e-001
      5.94345741e-002 1.77850902e-001 0. 0. 0. 0. 0. 4.66030896e-001
      4.66030896e-001 9.58446339e-002 2.86803693e-001 0. 0. 0. 0. 0.
      4.66030896e-001 3.75447539e-003 0. 0. 0. 1.81594282e-001 0.
      8.05180985e-003 2.69078021e-003 3.75447539e-003 3.68336201e-001 0.
      0. 0. 3.81717831e-001 0. 1.82260022e-001 6.09082505e-002
      3.68336201e-001 2.82421798e-001 0. 0. 0. 2.35365462e-002 0.
      6.12252019e-003 2.04604212e-003 2.82421798e-001 3.81717831e-001 0.
      0. 0. 2.04107180e-001 0. 1.19718559e-001 4.00079228e-002
      3.81717831e-001 3.28164190e-001 1.60740614e-002 4.80997302e-002 0.
      3.28164190e-001 0. 8.15435797e-002 2.72505041e-002 3.28164190e-001
      3.28164190e-001 2.51016729e-002 7.51137733e-002 0. 0. 0. 0. 0.
      3.28164190e-001 3.28164190e-001 9.04166140e-003 2.70560980e-002 0.
      7.09433407e-002 0. 5.66854104e-002 1.89433061e-002 3.28164190e-001
      3.28164190e-001 1.35466624e-002 4.05367836e-002 0. 1.23968162e-003
      0. 3.33949621e-003 1.11600105e-003 3.28164190e-001 3.50694984e-001
      4.32661511e-002 1.29468814e-001 0. 0. 0. 0. 0. 3.50694984e-001
      3.50694984e-001 6.06562197e-002 1.81506559e-001 0. 0. 0. 0. 0.
      3.50694984e-001 3.50694984e-001 1.95103530e-002 5.83824180e-002 0.
      8.33705533e-003 0. 1.27607891e-002 4.26443154e-003 3.50694984e-001
      3.11296165e-001 2.32205056e-002 6.94846064e-002 0. 7.10468087e-003
      0. 6.58217864e-003 2.19964865e-003 3.11296165e-001</_>
    <_>
      6.15612930e-003 1.51706755e-003 4.53964435e-003 0. 6.12451732e-001
      0. 0. 0. 6.15612930e-003 0. 0. 0. 0. 3.41283619e-001 0. 0. 0. 0.
      0. 0. 0. 0. 6.12451732e-001 0. 0. 0. 0. 0. 0. 0. 0.
      3.56535017e-001 0. 0. 0. 0. 0. 0. 0. 0. 0. 0. 0. 0. 0. 0. 0. 0. 0.
      0. 0. 0. 0. 0. 0. 0. 0. 0. 0. 0. 0. 0. 0. 0. 0. 0. 0. 0. 0. 0. 0.
      0. 0. 0. 0. 0. 0. 0. 0. 0. 0. 0. 0. 0. 0. 0. 0. 0. 0. 0. 0. 0. 0.
      0. 0. 0. 0. 0. 0. 0. 0. 0. 0. 0. 0. 0. 0. 0. 0. 0. 0. 0.
      4.80953544e-001 0. 0. 0. 0. 0. 0. 0. 0. 2.75073260e-001 0. 0. 0.
      0. 2.11381584e-001 0. 0. 0. 4.80953544e-001 0. 6.50524274e-002
      2.17394363e-002 2.11381584e-001 3.85842979e-001 5.26857888e-003
      1.57655980e-002 0. 2.53774256e-001 0. 1.90217085e-002
      6.35673758e-003 3.85842979e-001 0. 0. 0. 0. 0. 0. 0. 0. 0. 0. 0.
      0. 0. 0. 0. 0. 0. 0. 4.94377434e-001 3.94651704e-002
      1.18094839e-001 0. 0. 0. 0. 0. 4.94377434e-001 4.94377434e-001
      1.38961328e-002 4.15825285e-002 0. 0. 0. 0. 0. 4.94377434e-001 0.
      0. 0. 0. 0. 0. 0. 0. 0. 0. 0. 0. 0. 0. 0. 0. 0. 0. 4.98753130e-001
      0. 0. 0. 0. 0. 0. 0. 4.98753130e-001 4.98753130e-001 0. 0. 0. 0.
      0. 0. 0. 4.98753130e-001 3.24177593e-001 0. 0. 0. 3.24177593e-001
      0. 1.05930351e-001 3.54001559e-002 3.24177593e-001 3.24177593e-001
      9.07490402e-003 2.71555725e-002 0. 9.49955434e-002 0.
      3.15984376e-002 1.05596706e-002 3.24177593e-001 3.24177593e-001 0.
      0. 0. 2.32395232e-002 0. 1.31145090e-001 4.38264087e-002
      3.24177593e-001 3.24177593e-001 2.26872577e-003 6.78889314e-003 0.
      3.63203511e-003 0. 8.37009922e-002 2.79714111e-002 3.24177593e-001
      3.49880129e-001 2.57003251e-002 7.69051686e-002 0. 0. 0. 0. 0.
      3.49880129e-001 3.49880129e-001 9.04937554e-003 2.70791836e-002 0.
      0. 0. 0. 0. 3.49880129e-001 3.49880129e-001 6.42508129e-003
      1.92262921e-002 0. 0. 0. 6.41838014e-002 2.14490984e-002
      3.49880129e-001 3.49880129e-001 2.26234365e-003 6.76979590e-003 0.
      0. 0. 6.53247312e-002 2.18303762e-002 3.49880129e-001
      3.83578271e-001 0. 0. 0. 0. 0. 0. 0. 3.83578271e-001
      3.83578271e-001 0. 0. 0. 0. 0. 0. 0. 3.83578271e-001
      3.51063013e-001 0. 0. 0. 2.19767448e-004 0. 4.60201241e-002
      1.53791169e-002 3.51063013e-001 2.81249762e-001 0. 0. 0.
      1.03787649e-002 0. 2.08522566e-002 6.96845865e-003 2.81249762e-001</_>
    <_>
      9.80635639e-003 5.60235791e-003 1.67643931e-002 0. 6.12337589e-001
      0. 0. 0. 9.80635639e-003 0. 0. 0. 0. 3.41195881e-001 0. 0. 0. 0.
      0. 0. 0. 0. 6.12337589e-001 0. 0. 0. 0. 0. 0. 0. 0.
      3.56443375e-001 0. 0. 0. 0. 0. 0. 0. 0. 0. 0. 0. 0. 0. 0. 0. 0. 0.
      0. 0. 0. 0. 0. 0. 0. 0. 0. 0. 0. 0. 0. 0. 0. 0. 0. 0. 0. 0. 0. 0.
      0. 0. 0. 0. 0. 0. 0. 0. 0. 0. 0. 0. 0. 0. 0. 0. 0. 0. 0. 0. 0. 0.
      0. 0. 0. 0. 0. 0. 0. 0. 0. 0. 0. 0. 0. 0. 0. 0. 0. 0. 0.
      4.34113324e-001 0. 0. 0. 0. 0. 0. 0. 0. 2.47326598e-001 0. 0. 0.
      0. 2.49816537e-001 4.95936349e-003 1.48403086e-002 0.
      4.34113324e-001 0. 7.88601339e-002 2.63537411e-002 2.49816537e-001
      4.34113324e-001 1.75406560e-002 5.24883270e-002 0. 2.12622285e-001
      0. 1.96565781e-002 6.56890031e-003 4.34113324e-001 0. 0. 0. 0. 0.
      0. 0. 0. 0. 0. 0. 0. 0. 0. 0. 0. 0. 0. 4.98164088e-001
      1.53803304e-002 4.60238159e-002 0. 0. 0. 0. 0. 4.98164088e-001
      4.98164088e-001 0. 0. 0. 0. 0. 0. 0. 4.98164088e-001 0. 0. 0. 0.
      0. 0. 0. 0. 0. 0. 0. 0. 0. 0. 0. 0. 0. 0. 4.96810883e-001 0. 0. 0.
      0. 0. 0. 0. 4.96810883e-001 4.96810883e-001 2.07015220e-002
      6.19468577e-002 0. 5.90575859e-002 0. 0. 0. 4.96810883e-001
      3.17180783e-001 6.88858889e-003 2.06132866e-002 0. 3.17180783e-001
      0. 1.04209699e-001 3.48251387e-002 3.17180783e-001 3.17180783e-001
      2.43640896e-002 7.29066432e-002 0. 7.36474916e-002 0.
      2.61815097e-002 8.74942355e-003 3.17180783e-001 3.17180783e-001
      9.39353136e-004 2.81090289e-003 0. 5.31274639e-003 0.
      2.00253144e-001 6.69211075e-002 3.17180783e-001 3.17180783e-001
      3.32237571e-003 9.94181540e-003 0. 7.94446678e-004 0.
      1.40775025e-001 4.70445491e-002 3.17180783e-001 3.50326866e-001
      1.04554147e-002 3.12865861e-002 0. 0. 0. 0. 0. 3.50326866e-001
      3.50326866e-001 0. 0. 0. 0. 0. 0. 0. 3.50326866e-001
      3.50326866e-001 1.42573845e-003 4.26635332e-003 0. 0. 0.
      1.01166673e-001 3.38081270e-002 3.50326866e-001 3.46586794e-001 0.
      0. 0. 0. 0. 8.15627500e-002 2.72568427e-002 3.46586794e-001
      3.92228216e-001 0. 0. 0. 0. 0. 0. 0. 3.92228216e-001
      3.92228216e-001 1.34973302e-002 4.03891578e-002 0. 3.80072780e-002
      0. 0. 0. 3.92228216e-001 3.38240743e-001 0. 0. 0. 0. 0.
      6.07318915e-002 2.02955343e-002 3.38240743e-001 2.66278028e-001
      8.97640362e-004 2.68608239e-003 0. 5.99711854e-003 0.
      4.91509028e-002 1.64253674e-002 2.66278028e-001</_>
    <_>
      2.85438653e-002 9.92993638e-003 2.97141597e-002 0. 4.98099893e-001
      0. 0. 0. 2.85438653e-002 9.44814165e-005 0. 0. 0. 4.98099893e-001
      0. 0. 0. 9.44814165e-005 7.50005347e-005 0. 0. 0. 4.98099893e-001
      0. 0. 0. 7.50005347e-005 0. 0. 0. 0. 4.98099893e-001 0. 0. 0. 0.
      0. 0. 0. 0. 0. 0. 0. 0. 0. 0. 0. 0. 0. 0. 0. 0. 0. 0. 0. 0. 0. 0.
      0. 0. 0. 0. 0. 0. 0. 0. 0. 0. 0. 0. 0. 0. 0. 0. 0. 0. 0. 0. 0. 0.
      0. 0. 0. 0. 0. 0. 0. 0. 0. 0. 0. 0. 0. 0. 0. 0. 0. 0. 0. 0. 0. 0.
      0. 0. 0. 0. 0. 0. 0. 0. 0. 0. 4.38636929e-001 0. 0. 0. 0. 0. 0. 0.
      0. 4.38636929e-001 0. 0. 0. 0. 8.70627239e-002 0. 0. 0.
      4.38636929e-001 0. 8.45866054e-002 2.82674283e-002 8.70627239e-002
      3.11431199e-001 0. 0. 0. 4.38636929e-001 0. 8.95582810e-002
      2.99288798e-002 3.11431199e-001 0. 0. 0. 0. 0. 0. 0. 0. 0. 0. 0.
      0. 0. 0. 0. 0. 0. 0. 4.98530447e-001 0. 0. 0. 0. 0.
      2.83018164e-002 9.45799332e-003 4.98530447e-001 4.98530447e-001 0.
      0. 0. 0. 0. 0. 0. 4.98530447e-001 0. 0. 0. 0. 0. 0. 0. 0. 0. 0. 0.
      0. 0. 0. 0. 0. 0. 0. 4.87735987e-001 1.31499264e-002
      3.93495932e-002 0. 0. 0. 8.71629640e-003 2.91284081e-003
      4.87735987e-001 4.87735987e-001 4.65096682e-002 1.39174670e-001 0.
      0. 0. 1.34946868e-001 4.50969934e-002 4.87735987e-001
      1.59301803e-001 0. 0. 0. 3.21202010e-001 0. 1.34612620e-001
      4.49852869e-002 1.59301803e-001 3.21202010e-001 0. 0. 0.
      3.02893996e-001 0. 1.44806117e-001 4.83917892e-002 3.21202010e-001
      3.21202010e-001 0. 0. 0. 7.05689639e-002 0. 2.05315188e-001
      6.86127618e-002 3.21202010e-001 3.21202010e-001 0. 0. 0.
      3.45627754e-003 0. 1.81912586e-001 6.07920103e-002 3.21202010e-001
      3.48577559e-001 0. 0. 0. 0. 0. 1.48898950e-002 4.97595454e-003
      3.48577559e-001 3.48577559e-001 0. 0. 0. 0. 0. 0. 0.
      3.48577559e-001 3.48577559e-001 0. 0. 0. 0. 0. 1.20572306e-001
      4.02931497e-002 3.48577559e-001 3.48577559e-001 0. 0. 0. 0. 0.
      8.51431563e-002 2.84533519e-002 3.48577559e-001 3.62807125e-001
      8.45414866e-003 2.52980385e-002 0. 0. 0. 5.60374837e-003
      1.87267922e-003 3.62807125e-001 3.62807125e-001 2.99012829e-002
      8.94760415e-002 0. 0. 0. 8.67579877e-002 2.89930701e-002
      3.62807125e-001 3.62807125e-001 1.61031459e-003 4.81867557e-003 0.
      0. 0. 7.43025839e-002 2.48306226e-002 3.62807125e-001
      2.96727359e-001 5.69548365e-003 1.70430597e-002 0. 7.24322535e-003
      0. 7.31843561e-002 2.44569406e-002 2.96727359e-001</_>
    <_>
      5.64039312e-003 4.11566254e-003 1.23156318e-002 0. 4.98530537e-001
      0. 0. 0. 5.64039312e-003 9.74825863e-003 6.85512833e-003
      2.05131564e-002 0. 4.98530537e-001 0. 0. 0. 9.74825863e-003 0. 0.
      0. 0. 4.98530537e-001 0. 0. 0. 0. 0. 0. 0. 0. 4.98530537e-001 0.
      0. 0. 0. 5.08396700e-003 3.39199416e-003 1.01501402e-002 0.
      6.90646589e-001 0. 0. 0. 5.08396700e-003 0. 0. 0. 0.
      1.36476964e-001 0. 0. 0. 0. 0. 0. 0. 0. 6.90646589e-001 0. 0. 0.
      0. 0. 0. 0. 0. 1.42575860e-001 0. 0. 0. 0. 0. 0. 0. 0. 0. 0. 0. 0.
      0. 0. 0. 0. 0. 0. 0. 0. 0. 0. 0. 0. 0. 0. 0. 0. 0. 0. 0. 0. 0. 0.
      0. 0. 0. 0. 0. 0. 0. 0. 0. 0. 4.93119925e-001 0. 0. 0. 0. 0. 0. 0.
      0. 4.93119925e-001 0. 0. 0. 0. 8.39245990e-002 1.04712443e-002
      3.13339531e-002 0. 4.93119925e-001 0. 0. 0. 8.39245990e-002
      5.52992187e-002 6.72460673e-003 2.01225895e-002 0. 4.93119925e-001
      0. 2.43929531e-002 8.15171748e-003 5.52992187e-002 0. 0. 0. 0.
      5.47609746e-001 0. 0. 0. 0. 0. 0. 0. 0. 1.10474296e-001 0. 0. 0.
      0. 2.20870271e-001 2.70552794e-003 8.09597131e-003 0.
      5.47609746e-001 0. 6.48024678e-002 2.16559041e-002 2.20870271e-001
      3.65262419e-001 1.30725214e-002 3.91179696e-002 0. 1.07927494e-001
      0. 8.62651784e-003 2.88283871e-003 3.65262419e-001 0. 0. 0. 0. 0.
      0. 0. 0. 0. 0. 0. 0. 0. 0. 0. 0. 0. 0. 4.90207762e-001
      3.60347331e-002 1.07829668e-001 0. 0. 0. 0. 0. 4.90207762e-001
      4.90207762e-001 4.45778258e-002 1.33393869e-001 0. 3.26465666e-002
      0. 1.02426996e-002 3.42293922e-003 4.90207762e-001 3.22359949e-001
      4.10573706e-002 1.22859307e-001 0. 3.22359949e-001 0.
      1.84142729e-003 6.15372672e-004 3.22359949e-001 1.80576354e-001
      2.49008462e-002 7.45128319e-002 0. 3.22359949e-001 0.
      5.54336086e-002 1.85249858e-002 1.80576354e-001 3.22359949e-001
      2.05838885e-002 6.15948439e-002 0. 7.45797828e-002 0.
      1.66717306e-001 5.57139963e-002 3.22359949e-001 3.22359949e-001
      1.16772130e-002 3.49426791e-002 0. 1.08451977e-001 0.
      1.34351000e-001 4.48977612e-002 3.22359949e-001 3.24325889e-001
      5.26515907e-003 1.57553628e-002 0. 3.24325889e-001 0.
      1.03026263e-001 3.44296545e-002 3.24325889e-001 3.24325889e-001
      2.45462302e-002 7.34516904e-002 0. 4.57753576e-002 0.
      1.42799038e-002 4.77210525e-003 3.24325889e-001 3.24325889e-001
      1.75414362e-003 5.24906674e-003 0. 5.60904890e-002 0.
      1.27080932e-001 4.24682386e-002 3.24325889e-001 3.24325889e-001
      7.75144203e-003 2.31952704e-002 0. 4.25316393e-003 0.
      8.44712406e-002 2.82288082e-002 3.24325889e-001 3.68748158e-001
      2.67347824e-002 8.00006688e-002 0. 0. 0. 0. 0. 3.68748158e-001
      3.68748158e-001 3.01223714e-002 9.01376233e-002 0. 4.92693596e-002
      0. 6.92125317e-003 2.31296709e-003 3.68748158e-001 3.68748158e-001
      7.74500333e-003 2.31760051e-002 0. 3.78013402e-003 0.
      7.37198964e-002 2.46358979e-002 3.68748158e-001 2.63293624e-001
      7.53059285e-003 2.25344039e-002 0. 1.23147696e-001 0.
      2.69430801e-002 9.00390558e-003 2.63293624e-001</_>
    <_>
      4.60045505e-003 1.76654279e-003 5.28617017e-003 0. 4.98627424e-001
      0. 0. 0. 4.60045505e-003 1.15286419e-002 4.05071862e-003
      1.21212956e-002 0. 4.98627424e-001 0. 0. 0. 1.15286419e-002 0. 0.
      0. 0. 4.98627424e-001 0. 0. 0. 0. 0. 0. 0. 0. 4.98627424e-001 0.
      0. 0. 0. 8.05740152e-003 2.56123091e-003 7.66417943e-003 0.
      6.92199647e-001 0. 0. 0. 8.05740152e-003 0. 0. 0. 0.
      1.28650278e-001 0. 0. 0. 0. 0. 0. 0. 0. 6.92199647e-001 0. 0. 0.
      0. 0. 0. 0. 0. 1.34399399e-001 0. 0. 0. 0. 0. 0. 0. 0. 0. 0. 0. 0.
      0. 0. 0. 0. 0. 0. 0. 0. 0. 0. 0. 0. 0. 0. 0. 0. 0. 0. 0. 0. 0. 0.
      0. 0. 0. 0. 0. 0. 0. 0. 0. 0. 4.89638627e-001 0. 0. 0. 0. 0. 0. 0.
      0. 4.89638627e-001 0. 0. 0. 0. 1.06676340e-001 1.18234782e-002
      3.53803597e-002 0. 4.89638627e-001 0. 0. 0. 1.06676340e-001
      7.01166466e-002 1.27187464e-002 3.80593427e-002 0. 4.89638627e-001
      0. 2.18653940e-002 7.30704935e-003 7.01166466e-002 0. 0. 0. 0.
      5.60178995e-001 0. 0. 0. 0. 0. 0. 0. 0. 1.06870338e-001 0. 0. 0.
      0. 2.24931657e-001 2.92421505e-003 8.75036605e-003 0.
      5.60178995e-001 0. 6.30899668e-002 2.10836120e-002 2.24931657e-001
      3.45109701e-001 0. 0. 0. 1.06575325e-001 0. 1.06283110e-002
      3.55180423e-003 3.45109701e-001 0. 0. 0. 0. 0. 0. 0. 0. 0. 0. 0.
      0. 0. 0. 0. 0. 0. 0. 4.98691559e-001 0. 0. 0. 0. 0. 0. 0.
      4.98691559e-001 4.98691559e-001 0. 0. 0. 1.26480674e-002 0.
      8.81002098e-003 2.94416212e-003 4.98691559e-001 3.18873316e-001
      3.29360031e-002 9.85570922e-002 0. 3.18873316e-001 0.
      7.11643184e-003 2.37818644e-003 3.18873316e-001 2.02015296e-001
      3.25565860e-002 9.74217355e-002 0. 3.18873316e-001 0.
      4.73038815e-002 1.58081669e-002 2.02015296e-001 3.18873316e-001
      1.23421736e-002 3.69324908e-002 0. 5.43019995e-002 0.
      1.51242286e-001 5.05425185e-002 3.18873316e-001 3.18873316e-001
      1.09392358e-002 3.27343605e-002 0. 8.70475098e-002 0.
      1.87773794e-001 6.27507269e-002 3.18873316e-001 3.21580023e-001
      4.52831527e-003 1.35504464e-002 0. 3.21580023e-001 0.
      9.71341059e-002 3.24605964e-002 3.21580023e-001 3.21580023e-001 0.
      0. 0. 4.64840047e-002 0. 1.72045678e-002 5.74947894e-003
      3.21580023e-001 3.21580023e-001 1.18428771e-003 3.54384119e-003 0.
      8.31365660e-002 0. 1.83664069e-001 6.13773316e-002 3.21580023e-001
      3.21580023e-001 0. 0. 0. 7.38934241e-003 0. 8.69305730e-002
      2.90506780e-002 3.21580023e-001 3.51713687e-001 0. 0. 0. 0. 0. 0.
      0. 3.51713687e-001 3.51713687e-001 0. 0. 0. 1.09085971e-002 0.
      6.00385899e-003 2.00638920e-003 3.51713687e-001 3.51713687e-001 0.
      0. 0. 0. 0. 6.70974031e-002 2.24227775e-002 3.51713687e-001
      3.51713687e-001 0. 0. 0. 1.56535897e-002 0. 3.62022556e-002
      1.20981606e-002 3.51713687e-001</_>
    <_>
      4.96796519e-003 5.64701902e-003 1.68980341e-002 0. 4.98453528e-001
      0. 0. 0. 4.96796519e-003 7.10525736e-003 8.56440421e-003
      2.56279651e-002 0. 4.98453528e-001 0. 0. 0. 7.10525736e-003 0. 0.
      0. 0. 4.98453528e-001 0. 0. 0. 0. 0. 0. 0. 0. 4.98453528e-001 0.
      0. 0. 0. 4.66573564e-003 5.95281925e-003 1.78131070e-002 0.
      7.04475462e-001 0. 0. 0. 4.66573564e-003 0. 0. 0. 0. 0. 0. 0. 0.
      0. 0. 0. 0. 0. 7.04475462e-001 0. 0. 0. 0. 0. 0. 0. 0. 0. 0. 0. 0.
      0. 0. 0. 0. 0. 0. 0. 0. 0. 0. 0. 0. 0. 0. 0. 0. 0. 0. 0. 0. 0. 0.
      0. 0. 0. 0. 0. 0. 0. 0. 0. 0. 0. 0. 0. 0. 0. 0. 0. 0. 0.
      4.69384342e-001 0. 0. 0. 0. 0. 0. 0. 0. 4.69384342e-001 0. 0. 0.
      0. 1.88656583e-001 2.35644095e-002 7.05136955e-002 0.
      4.69384342e-001 0. 9.15615004e-004 3.05983238e-004 1.88656583e-001
      1.20815098e-001 1.27014555e-002 3.80075984e-002 0. 4.69384342e-001
      0. 7.65569061e-002 2.55840365e-002 1.20815098e-001 0. 0. 0. 0.
      4.06342566e-001 0. 0. 0. 0. 0. 0. 0. 0. 0. 0. 0. 0. 0.
      3.93531144e-001 0. 0. 0. 4.06342566e-001 0. 1.52006119e-001
      5.07979020e-002 3.93531144e-001 4.06342566e-001 0. 0. 0.
      1.35951035e-003 0. 7.45750312e-003 2.49217311e-003 4.06342566e-001
      0. 0. 0. 0. 0. 0. 0. 0. 0. 0. 0. 0. 0. 0. 0. 0. 0. 0.
      4.98753130e-001 0. 0. 0. 0. 0. 0. 0. 4.98753130e-001
      4.98753130e-001 0. 0. 0. 0. 0. 0. 0. 4.98753130e-001
      2.91898012e-001 3.93891148e-002 1.17867254e-001 0. 2.91898012e-001
      0. 6.02020212e-002 2.01184601e-002 2.91898012e-001 2.34371498e-001
      1.75141469e-002 5.24090044e-002 0. 2.91898012e-001 0.
      1.22774072e-001 4.10290360e-002 2.34371498e-001 2.91898012e-001
      4.75301780e-003 1.42228408e-002 0. 1.23855937e-002 0.
      2.91898012e-001 1.03470847e-001 2.91898012e-001 2.91898012e-001
      9.93783586e-004 2.97377980e-003 0. 8.80770944e-003 0.
      2.50804573e-001 8.38144869e-002 2.91898012e-001 3.13505501e-001 0.
      0. 0. 3.07731688e-001 0. 1.46923751e-001 4.90994677e-002
      3.13505501e-001 3.13505501e-001 0. 0. 0. 1.14670792e-003 0.
      8.44484568e-003 2.82212649e-003 3.13505501e-001 3.13505501e-001 0.
      0. 0. 3.52044031e-003 0. 2.33420640e-001 7.80050755e-002
      3.13505501e-001 3.13505501e-001 0. 0. 0. 4.77795256e-005 0.
      1.67589262e-001 5.60053959e-002 3.13505501e-001 3.66223603e-001 0.
      0. 0. 0. 0. 0. 0. 3.66223603e-001 3.66223603e-001 0. 0. 0. 0. 0.
      0. 0. 3.66223603e-001 3.66223603e-001 0. 0. 0. 0. 0.
      1.30718708e-001 4.36838977e-002 3.66223603e-001 2.88752079e-001 0.
      0. 0. 4.49680863e-003 0. 7.25500733e-002 2.42449604e-002
      2.88752079e-001</_>
    <_>
      6.04070723e-003 2.47662980e-003 7.41102220e-003 0. 4.98656482e-001
      0. 0. 0. 6.04070723e-003 8.31645355e-003 3.38588236e-003
      1.01318527e-002 0. 4.98656482e-001 0. 0. 0. 8.31645355e-003 0. 0.
      0. 0. 4.98656482e-001 0. 0. 0. 0. 0. 0. 0. 0. 4.98656482e-001 0.
      0. 0. 0. 4.47880803e-003 1.80857792e-003 5.41195553e-003 0.
      7.04589903e-001 0. 0. 0. 4.47880803e-003 0. 0. 0. 0. 0. 0. 0. 0.
      0. 0. 0. 0. 0. 7.04589903e-001 0. 0. 0. 0. 0. 0. 0. 0. 0. 0. 0. 0.
      0. 0. 0. 0. 0. 0. 0. 0. 0. 0. 0. 0. 0. 0. 0. 0. 0. 0. 0. 0. 0. 0.
      0. 0. 0. 0. 0. 0. 0. 0. 0. 0. 0. 0. 0. 0. 0. 3.76440561e-003
      2.49571487e-004 7.46813021e-004 0. 4.41191256e-001 0. 0. 0.
      3.76440561e-003 2.65366817e-003 2.30373713e-004 6.89366017e-004 0.
      4.41191256e-001 0. 2.74935621e-003 9.18789010e-004 2.65366817e-003
      2.78925806e-001 2.06945948e-002 6.19261228e-002 0. 4.41191256e-001
      0. 5.85022606e-002 1.95504762e-002 2.78925806e-001 1.45114541e-001
      8.57496727e-003 2.56595742e-002 0. 4.41191256e-001 0.
      9.68455225e-002 3.23641598e-002 1.45114541e-001 2.23233714e-003 0.
      0. 0. 4.02181000e-001 0. 4.66569141e-003 1.55919616e-003
      2.23233714e-003 6.41679362e-005 0. 0. 0. 1.29159569e-004 0.
      6.35963661e-005 2.12528430e-005 6.41679362e-005 3.77134144e-001 0.
      0. 0. 4.02181000e-001 0. 2.33969927e-001 7.81888366e-002
      3.77134144e-001 4.02181000e-001 0. 0. 0. 4.49333992e-003 0.
      5.70149831e-002 1.90534554e-002 4.02181000e-001 0. 0. 0. 0. 0. 0.
      0. 0. 0. 0. 0. 0. 0. 0. 0. 0. 0. 0. 4.71017212e-001 0. 0. 0. 0. 0.
      1.89439520e-001 6.33075237e-002 4.71017212e-001 4.71017212e-001 0.
      0. 0. 2.07353495e-002 0. 2.46487588e-001 8.23720321e-002
      4.71017212e-001 2.76004881e-001 2.38079373e-002 7.12424293e-002 0.
      2.44885847e-001 0. 2.17147574e-001 7.25669637e-002 2.76004881e-001
      2.57003248e-001 9.06842854e-003 2.71361973e-002 0. 2.76004881e-001
      0. 1.77528217e-001 5.93269058e-002 2.57003248e-001 2.76004881e-001
      3.57402314e-004 1.06948405e-003 0. 5.18558100e-002 0.
      2.76004881e-001 1.03754200e-001 2.76004881e-001 2.76004881e-001
      6.80766389e-005 2.03711272e-004 0. 1.14261499e-002 0.
      2.76004881e-001 1.09825462e-001 2.76004881e-001 2.96753556e-001 0.
      0. 0. 2.33061224e-001 0. 2.08822787e-001 6.97850734e-002
      2.96753556e-001 2.96753556e-001 0. 0. 0. 2.98728794e-003 0.
      5.90139963e-002 1.97214913e-002 2.96753556e-001 2.96753556e-001 0.
      0. 0. 0. 0. 2.96753556e-001 1.13249555e-001 2.96753556e-001
      2.96753556e-001 0. 0. 0. 0. 0. 2.76467234e-001 9.23904851e-002
      2.96753556e-001 3.35396022e-001 0. 0. 0. 0. 0. 1.17768064e-001
      3.93561237e-002 3.35396022e-001 3.35396022e-001 0. 0. 0.
      5.97980805e-002 0. 1.75135940e-001 5.85275106e-002 3.35396022e-001
      3.35396022e-001 0. 0. 0. 0. 0. 2.27811351e-001 7.61305839e-002
      3.35396022e-001 2.95978963e-001 0. 0. 0. 1.21931799e-001 0.
      1.36935011e-001 4.57613058e-002 2.95978963e-001</_>
    <_>
      6.27963804e-003 3.67425662e-003 1.09947799e-002 0. 4.98577118e-001
      0. 0. 0. 6.27963804e-003 9.53665748e-003 5.56799211e-003
      1.66615564e-002 0. 4.98577118e-001 0. 0. 0. 9.53665748e-003 0. 0.
      0. 0. 4.98577118e-001 0. 0. 0. 0. 0. 0. 0. 0. 4.98577118e-001 0.
      0. 0. 0. 5.66420704e-003 3.42435157e-003 1.02469651e-002 0.
      7.04551578e-001 0. 0. 0. 5.66420704e-003 0. 0. 0. 0. 0. 0. 0. 0.
      0. 0. 0. 0. 0. 7.04551578e-001 0. 0. 0. 0. 0. 0. 0. 0. 0. 0. 0. 0.
      0. 0. 0. 0. 0. 0. 0. 0. 0. 0. 0. 0. 0. 0. 0. 0. 0. 0. 0. 0. 0. 0.
      0. 0. 0. 0. 0. 0. 0. 0. 0. 0. 0. 0. 0. 0. 0. 4.25704196e-002
      4.18615621e-003 1.25265773e-002 0. 4.22219813e-001 0.
      8.32649879e-003 2.78257648e-003 4.25704196e-002 1.26485080e-002
      2.64968560e-003 7.92886969e-003 0. 4.22219813e-001 0.
      1.15022613e-002 3.84386396e-003 1.26485080e-002 3.15041691e-001
      2.81593036e-002 8.42633843e-002 0. 4.22219813e-001 0.
      7.73376673e-002 2.58449409e-002 3.15041691e-001 1.61873505e-001
      1.70871727e-002 5.11313342e-002 0. 4.22219813e-001 0.
      9.45298150e-002 3.15902866e-002 1.61873505e-001 1.50477337e-002 0.
      0. 0. 3.91490787e-001 0. 1.75220650e-002 5.85558126e-003
      1.50477337e-002 4.78620920e-003 0. 0. 0. 1.93033178e-004 0.
      1.20982085e-003 4.04301914e-004 4.78620920e-003 3.91490787e-001 0.
      0. 0. 3.91490787e-001 0. 2.29414359e-001 7.66664445e-002
      3.91490787e-001 3.91490787e-001 0. 0. 0. 1.41557644e-003 0.
      1.24192737e-001 4.15031388e-002 3.91490787e-001 1.69190331e-004 0.
      0. 0. 0. 0. 0. 0. 1.69190331e-004 0. 0. 0. 0. 0. 0. 0. 0. 0.
      4.76541758e-001 0. 0. 0. 0. 0. 2.47265413e-001 8.26319829e-002
      4.76541758e-001 4.76541758e-001 0. 0. 0. 0. 0. 1.30401596e-001
      4.35780361e-002 4.76541758e-001 2.73733348e-001 2.02915967e-002
      6.07201979e-002 0. 1.10511176e-001 0. 2.73733348e-001
      1.02965929e-001 2.73733348e-001 2.73733348e-001 1.20899007e-002
      3.61775905e-002 0. 2.55397588e-001 0. 2.16741234e-001
      7.24311769e-002 2.73733348e-001 2.73733348e-001 0. 0. 0.
      3.57170799e-003 0. 2.73733348e-001 1.07607253e-001 2.73733348e-001
      2.73733348e-001 0. 0. 0. 0. 0. 2.73733348e-001 1.24994576e-001
      2.73733348e-001 2.95690060e-001 0. 0. 0. 1.55488342e-001 0.
      2.15287536e-001 7.19454363e-002 2.95690060e-001 2.95690060e-001 0.
      0. 0. 6.92182104e-004 0. 1.13706939e-001 3.79989445e-002
      2.95690060e-001 2.95690060e-001 0. 0. 0. 0. 0. 2.95690060e-001
      1.36091739e-001 2.95690060e-001 2.95690060e-001 0. 0. 0. 0. 0.
      2.95690060e-001 1.18840776e-001 2.95690060e-001 3.34079325e-001 0.
      0. 0. 0. 0. 1.43165007e-001 4.78433520e-002 3.34079325e-001
      3.34079325e-001 0. 0. 0. 0. 0. 8.19409788e-002 2.73833051e-002
      3.34079325e-001 3.34079325e-001 0. 0. 0. 0. 0. 3.02781403e-001
      1.01184249e-001 3.34079325e-001 2.84989029e-001 0. 0. 0.
      3.06665688e-003 0. 1.70711234e-001 5.70486933e-002 2.84989029e-001</_>
    <_>
      1.33102748e-003 3.27353599e-003 9.79566853e-003 0. 3.85067225e-001
      0. 0. 0. 1.33102748e-003 3.17361094e-002 3.46865878e-002
      1.03795514e-001 0. 5.68995893e-001 0. 0. 0. 3.17361094e-002 0. 0.
      0. 0. 4.29450184e-001 0. 0. 0. 0. 0. 0. 0. 0. 5.68995893e-001 0.
      0. 0. 0. 2.29136758e-002 1.83807034e-002 5.50020710e-002 0.
      4.97643232e-001 0. 0. 0. 2.29136758e-002 2.48125452e-003
      9.57728946e-004 2.86589051e-003 0. 4.97643232e-001 0. 0. 0.
      2.48125452e-003 0. 0. 0. 0. 4.97643232e-001 0. 0. 0. 0. 0. 0. 0.
      0. 4.97643232e-001 0. 0. 0. 0. 0. 0. 0. 0. 7.04615533e-001 0. 0.
      0. 0. 0. 0. 0. 0. 0. 0. 0. 0. 0. 0. 0. 0. 0. 7.04615533e-001 0. 0.
      0. 0. 0. 0. 0. 0. 0. 0. 0. 0. 0. 7.00032571e-004 0. 0. 0.
      3.06412905e-001 0. 0. 0. 7.00032571e-004 0. 0. 0. 0.
      4.14815903e-001 0. 0. 0. 0. 4.14815903e-001 1.11436248e-002
      3.33459750e-002 0. 2.38595486e-001 0. 7.33672529e-002
      2.45181099e-002 4.14815903e-001 2.64669091e-001 3.07763219e-002
      9.20944884e-002 0. 4.14815903e-001 0. 1.09934027e-003
      3.67381144e-004 2.64669091e-001 3.99263314e-004 0. 0. 0.
      4.58688736e-001 0. 9.26333014e-004 3.09565017e-004 3.99263314e-004
      5.08153171e-004 0. 0. 0. 4.58688736e-001 0. 1.00352743e-003
      3.35362100e-004 5.08153171e-004 8.30258578e-002 1.00843003e-002
      3.01760677e-002 0. 4.58688736e-001 0. 9.07748565e-002
      3.03354394e-002 8.30258578e-002 2.29539767e-001 0. 0. 0.
      4.58688736e-001 0. 1.48447156e-001 4.96085584e-002 2.29539767e-001
      3.16429680e-004 0. 0. 0. 2.55283952e-001 0. 5.32506092e-004
      1.77954658e-004 3.16429680e-004 0. 0. 0. 0. 0. 0. 0. 0. 0.
      4.50239003e-001 0. 0. 0. 2.41071373e-001 0. 2.23518699e-001
      7.46962130e-002 4.50239003e-001 4.50239003e-001 0. 0. 0. 0. 0.
      7.23302886e-002 2.41715759e-002 4.50239003e-001 2.92729139e-001
      9.41923913e-003 2.81859543e-002 0. 5.91611080e-002 0.
      1.71479449e-001 5.73054589e-002 2.92729139e-001 2.92729139e-001
      2.60860659e-002 7.80594647e-002 0. 2.86812425e-001 0.
      5.67285381e-002 1.89576838e-002 2.92729139e-001 2.92729139e-001
      2.56762607e-004 7.68331578e-004 0. 0. 0. 2.77086765e-001
      9.25975516e-002 2.92729139e-001 2.92729139e-001 7.29450781e-004
      2.18279497e-003 0. 0. 0. 2.92729139e-001 1.04016960e-001
      2.92729139e-001 1.52945235e-001 1.17062870e-002 3.50296758e-002 0.
      2.90501326e-001 0. 1.46819487e-001 4.90645953e-002 1.52945235e-001
      2.90501326e-001 0. 0. 0. 2.90501326e-001 0. 2.27499872e-001
      7.60266632e-002 2.90501326e-001 2.90501326e-001 3.00990592e-004
      9.00678686e-004 0. 3.43625690e-003 0. 2.90501326e-001
      1.18211135e-001 2.90501326e-001 2.90501326e-001 0. 0. 0.
      4.54690913e-003 0. 2.90501326e-001 9.76303592e-002 2.90501326e-001
      3.37262869e-001 0. 0. 0. 3.42061296e-002 0. 1.20588303e-001
      4.02985960e-002 3.37262869e-001 3.37262869e-001 0. 0. 0. 0. 0.
      4.76274751e-002 1.59163065e-002 3.37262869e-001 3.37262869e-001 0.
      0. 0. 8.13701074e-004 0. 2.12035671e-001 7.08586276e-002
      3.37262869e-001 3.37262869e-001 0. 0. 0. 3.37916729e-003 0.
      1.22971550e-001 4.10949476e-002 3.37262869e-001</_>
    <_>
      3.18448633e-001 6.33365288e-002 1.89527035e-001 0. 4.54003969e-003
      0. 8.31800792e-003 2.77973223e-003 3.18448633e-001 3.18448633e-001
      6.05263636e-002 1.81117952e-001 0. 2.13905908e-002 0.
      2.17198972e-002 7.25840824e-003 3.18448633e-001 3.18448633e-001
      4.45159245e-003 1.33208623e-002 0. 1.21060200e-001 0.
      3.40942629e-002 1.13937045e-002 3.18448633e-001 3.02822202e-001
      4.64844634e-004 1.39099243e-003 0. 3.18448633e-001 0.
      9.44774598e-002 3.15727070e-002 3.02822202e-001 3.31820101e-001
      6.22382499e-002 1.86240539e-001 0. 4.13996391e-002 0.
      1.01458663e-002 3.39057110e-003 3.31820101e-001 3.31820101e-001
      4.35783081e-002 1.30402878e-001 0. 3.84159982e-002 0. 0. 0.
      3.31820101e-001 1.59209922e-001 8.16597510e-003 2.44356170e-002 0.
      3.31820101e-001 0. 4.47659045e-002 1.49599798e-002 1.59209922e-001
      3.31820101e-001 1.22489640e-002 3.66534293e-002 0. 3.31820101e-001
      0. 0. 0. 3.31820101e-001 3.50224167e-001 2.55052857e-002
      7.63215274e-002 0. 6.29602559e-003 0. 0. 0. 3.50224167e-001
      3.44785243e-001 1.82357803e-002 5.45684099e-002 0. 3.39806220e-003
      0. 0. 0. 3.44785243e-001 3.50224167e-001 2.20089662e-003
      6.58589602e-003 0. 1.13666482e-001 0. 0. 0. 3.50224167e-001
      3.50224167e-001 0. 0. 0. 0. 0. 0. 0. 3.50224167e-001
      3.10040683e-001 0. 0. 0. 3.34795773e-001 0. 2.02418771e-002
      6.76448038e-003 3.10040683e-001 1.62219957e-001 0. 0. 0.
      4.90119129e-001 0. 5.80524877e-002 1.94001216e-002 1.62219957e-001
      0. 0. 0. 0. 3.91790628e-001 0. 0. 0. 0. 0. 0. 0. 0.
      4.90119129e-001 0. 0. 0. 0. 4.85229343e-002 2.67209345e-003
      7.99589138e-003 0. 4.81003046e-001 0. 1.56457815e-002
      5.22854552e-003 4.85229343e-002 1.79621637e-001 4.00814041e-003
      1.19938394e-002 0. 4.81003046e-001 0. 0. 0. 1.79621637e-001 0. 0.
      0. 0. 4.81003046e-001 0. 0. 0. 0. 0. 0. 0. 0. 4.81003046e-001 0.
      0. 0. 0. 4.07401532e-001 2.72567640e-003 8.15623160e-003 0.
      4.07401532e-001 0. 0. 0. 4.07401532e-001 4.07401532e-001 0. 0. 0.
      0. 0. 0. 0. 4.07401532e-001 0. 0. 0. 0. 4.07401532e-001 0. 0. 0.
      0. 0. 0. 0. 0. 0. 0. 0. 0. 0. 0. 0. 0. 0. 4.30366337e-001 0. 0. 0.
      0. 0. 0. 0. 0. 5.52843869e-001 0. 0. 0. 0. 2.95127230e-003 0. 0.
      0. 4.05476302e-001 0. 1.32192168e-002 4.41762991e-003
      2.95127230e-003 5.61175831e-002 0. 0. 0. 5.52843869e-001 0.
      1.56046599e-001 5.21480329e-002 5.61175831e-002 0. 0. 0. 0.
      4.95669365e-001 0. 0. 0. 0. 0. 0. 0. 0. 4.95669365e-001 0. 0. 0.
      0. 3.47325020e-002 0. 0. 0. 4.95669365e-001 0. 9.38286856e-002
      3.13558988e-002 3.47325020e-002 2.66974117e-003 0. 0. 0.
      4.95669365e-001 0. 8.62640981e-003 2.88279518e-003 2.66974117e-003
      0. 0. 0. 0. 7.04615533e-001 0. 0. 0. 0. 0. 0. 0. 0. 0. 0. 0. 0. 0.
      0. 0. 0. 0. 7.04615533e-001 0. 0. 0. 0. 0. 0. 0. 0. 0. 0. 0. 0. 0.</_>
    <_>
      3.45725507e-001 1.89442523e-002 5.66884242e-002 0. 1.52937740e-001
      0. 6.42994866e-002 2.14877594e-002 3.45725507e-001 2.82971621e-001
      2.17920747e-002 6.52101338e-002 0. 2.13766992e-001 0.
      4.18131314e-002 1.39732156e-002 2.82971621e-001 3.27004224e-001 0.
      0. 0. 3.45725507e-001 0. 7.44132474e-002 2.48675998e-002
      3.27004224e-001 1.55474037e-001 1.67733226e-002 5.01919836e-002 0.
      3.45725507e-001 0. 5.36980629e-002 1.79449506e-002 1.55474037e-001
      3.20741206e-001 2.35003475e-002 7.03218654e-002 0. 1.14328630e-001
      0. 2.47903354e-002 8.28449521e-003 3.20741206e-001 3.20741206e-001
      1.12621086e-002 3.37004922e-002 0. 1.51802571e-002 0.
      5.61876893e-002 1.87769383e-002 3.20741206e-001 3.20741206e-001
      3.49969007e-002 1.04723670e-001 0. 3.20741206e-001 0.
      5.12771569e-002 1.71359256e-002 3.20741206e-001 3.20741206e-001
      6.70436583e-003 2.00619400e-002 0. 1.03289552e-001 0.
      1.35582685e-001 4.53093573e-002 3.20741206e-001 3.59711379e-001
      8.93932767e-003 2.67498754e-002 0. 6.31454587e-003 0.
      7.63533935e-002 2.55159624e-002 3.59711379e-001 2.18869492e-001
      2.33772653e-003 6.99536875e-003 0. 7.41177099e-003 0.
      5.44107556e-002 1.81831196e-002 2.18869492e-001 3.59711379e-001 0.
      0. 0. 0. 0. 2.28635103e-001 7.64058381e-002 3.59711379e-001
      3.59711379e-001 0. 0. 0. 0. 0. 2.23268986e-001 7.46125802e-002
      3.59711379e-001 2.11794190e-002 0. 0. 0. 4.98133659e-001 0.
      8.38913675e-003 2.80350214e-003 2.11794190e-002 2.39442904e-002
      5.34366071e-003 1.59902107e-002 0. 4.98133659e-001 0.
      7.93538522e-003 2.65186629e-003 2.39442904e-002 0. 0. 0. 0.
      4.98133659e-001 0. 0. 0. 0. 0. 0. 0. 0. 4.98133659e-001 0. 0. 0.
      0. 1.37890786e-001 1.68388449e-002 5.03880531e-002 0.
      6.03501678e-001 0. 1.81461945e-002 6.06413977e-003 1.37890786e-001
      2.56538928e-001 3.07955267e-003 9.21515934e-003 0. 2.03725874e-001
      0. 5.49577475e-002 1.83659140e-002 2.56538928e-001 0. 0. 0. 0.
      6.03501678e-001 0. 0. 0. 0. 0. 0. 0. 0. 2.18514085e-001 0. 0. 0.
      0. 4.49336678e-001 0. 0. 0. 0. 0. 2.61813253e-001 8.74934047e-002
      4.49336678e-001 4.49336678e-001 0. 0. 0. 0. 0. 3.16979021e-001
      1.05928831e-001 4.49336678e-001 0. 0. 0. 0. 0. 0. 0. 0. 0. 0. 0.
      0. 0. 0. 0. 0. 0. 0. 0. 0. 0. 0. 4.97732550e-001 0. 0. 0. 0. 0. 0.
      0. 0. 4.97732550e-001 0. 0. 0. 0. 1.24315526e-002 0. 0. 0.
      4.97732550e-001 0. 2.05692351e-002 6.87387725e-003 1.24315526e-002
      2.61233095e-002 0. 0. 0. 4.97732550e-001 0. 4.17083204e-002
      1.39381895e-002 2.61233095e-002 0. 0. 0. 0. 6.64921820e-001 0. 0.
      0. 0. 0. 0. 0. 0. 2.27293491e-001 0. 0. 0. 0. 1.50429374e-002 0.
      0. 0. 6.64921820e-001 0. 2.36514024e-002 7.90388323e-003
      1.50429374e-002 0. 0. 0. 0. 2.37450838e-001 0. 0. 0. 0. 0. 0. 0.
      0. 0. 0. 0. 0. 0. 0. 0. 0. 0. 0. 0. 0. 0. 0. 0. 0. 0. 0. 0. 0. 0.
      0. 0. 0. 0. 0. 0. 0. 0. 0. 0. 0.</_>
    <_>
      3.11988860e-001 7.73634613e-002 2.31501013e-001 0. 4.65469770e-002
      0. 3.57642584e-002 1.19517865e-002 3.11988860e-001 3.11988860e-001
      6.36944100e-002 1.90597937e-001 0. 6.98686093e-002 0.
      2.59766877e-002 8.68095271e-003 3.11988860e-001 3.11988860e-001
      6.65152026e-003 1.99038833e-002 0. 3.11988860e-001 0.
      1.31659254e-001 4.39982116e-002 3.11988860e-001 1.96707025e-001
      7.83497281e-003 2.34451499e-002 0. 3.11988860e-001 0.
      1.00798048e-001 3.36849429e-002 1.96707025e-001 3.26932907e-001
      4.30820622e-002 1.28917933e-001 0. 3.31100449e-002 0.
      7.42405944e-004 2.48099008e-004 3.26932907e-001 3.26932907e-001
      3.04867197e-002 9.12278816e-002 0. 2.46111141e-003 0. 0. 0.
      3.26932907e-001 3.26932907e-001 1.18271280e-002 3.53911407e-002 0.
      3.26932907e-001 0. 3.89763201e-003 1.30252016e-003 3.26932907e-001
      3.26932907e-001 1.61279039e-003 4.82606469e-003 0. 6.70919791e-002
      0. 0. 0. 3.26932907e-001 3.59465003e-001 3.05728205e-002
      9.14855450e-002 0. 0. 0. 0. 0. 3.59465003e-001 2.73907304e-001
      1.41343856e-002 4.22954597e-002 0. 7.72796199e-003 0. 0. 0.
      2.73907304e-001 3.79579216e-001 0. 0. 0. 0. 0. 0. 0.
      3.79579216e-001 3.79579216e-001 2.30397983e-003 6.89435983e-003 0.
      0. 0. 0. 0. 3.79579216e-001 1.30524680e-001 0. 0. 0.
      4.86697525e-001 0. 4.70764264e-002 1.57321151e-002 1.30524680e-001
      6.88240901e-002 2.92833173e-003 8.76265205e-003 0. 4.86697525e-001
      0. 3.72796617e-002 1.24582089e-002 6.88240901e-002 0. 0. 0. 0.
      4.86697525e-001 0. 0. 0. 0. 0. 0. 0. 0. 4.86697525e-001 0. 0. 0.
      0. 2.40841210e-001 6.74834941e-003 2.01935582e-002 0.
      5.04155159e-001 0. 2.22392008e-003 7.43195007e-004 2.40841210e-001
      3.95192146e-001 9.20229650e-004 2.75366707e-003 0. 1.56053081e-001
      0. 0. 0. 3.95192146e-001 0. 0. 0. 0. 5.04155159e-001 0. 0. 0. 0.
      0. 0. 0. 0. 1.82859287e-001 0. 0. 0. 0. 4.98731285e-001 0. 0. 0.
      0. 0. 0. 0. 4.98731285e-001 4.98731285e-001 2.96187750e-003
      8.86303186e-003 0. 0. 0. 0. 0. 4.98731285e-001 0. 0. 0. 0. 0. 0.
      0. 0. 0. 0. 0. 0. 0. 0. 0. 0. 0. 0. 0. 0. 0. 0. 4.98657763e-001 0.
      0. 0. 0. 0. 0. 0. 0. 4.98657763e-001 0. 0. 0. 0. 4.36643884e-003
      0. 0. 0. 4.98657763e-001 0. 7.99938664e-003 2.67325458e-003
      4.36643884e-003 7.62612838e-003 0. 0. 0. 4.98657763e-001 0.
      1.18363975e-002 3.95551650e-003 7.62612838e-003 0. 0. 0. 0.
      6.65240288e-001 0. 0. 0. 0. 0. 0. 0. 0. 2.27478832e-001 0. 0. 0.
      0. 3.54274875e-003 0. 0. 0. 6.65240288e-001 0. 4.52334853e-003
      1.51162385e-003 3.54274875e-003 0. 0. 0. 0. 2.37644434e-001 0. 0.
      0. 0. 0. 0. 0. 0. 0. 0. 0. 0. 0. 0. 0. 0. 0. 0. 0. 0. 0. 0. 0. 0.
      0. 0. 0. 0. 0. 0. 0. 0. 0. 0. 0. 0. 0. 0. 0. 0.</_>
    <_>
      2.96793610e-001 8.45243037e-002 2.52928942e-001 0. 1.04636233e-003
      0. 1.02103129e-002 3.41210770e-003 2.96793610e-001 2.96793610e-001
      8.83957446e-002 2.64513731e-001 0. 1.95946475e-003 0.
      3.73175088e-003 1.24708575e-003 2.96793610e-001 2.96793610e-001
      1.85954589e-002 5.56447059e-002 0. 2.96793610e-001 0.
      1.12057075e-001 3.74475047e-002 2.96793610e-001 2.38810167e-001
      2.97603365e-002 8.90540034e-002 0. 2.96793610e-001 0.
      5.22045717e-002 1.74458511e-002 2.38810167e-001 3.14761668e-001
      8.11236054e-002 2.42752731e-001 0. 1.03872106e-003 0. 0. 0.
      3.14761668e-001 3.14761668e-001 5.34808449e-002 1.60035104e-001 0.
      0. 0. 0. 0. 3.14761668e-001 3.14761668e-001 3.34473811e-002
      1.00086935e-001 0. 3.14761668e-001 0. 0. 0. 3.14761668e-001
      3.14761668e-001 2.49706767e-003 7.47215003e-003 0. 0. 0. 0. 0.
      3.14761668e-001 3.55463475e-001 4.61565442e-002 1.38117999e-001 0.
      0. 0. 5.14045591e-004 1.71785025e-004 3.55463475e-001
      2.38576263e-001 2.76130550e-002 8.26287791e-002 0. 4.04368108e-003
      0. 7.95852393e-003 2.65959906e-003 2.38576263e-001 3.84505510e-001
      0. 0. 0. 0. 0. 5.91152115e-003 1.97552680e-003 3.84505510e-001
      3.84505510e-001 0. 0. 0. 0. 0. 9.15229619e-002 3.05853672e-002
      3.84505510e-001 1.89810380e-001 0. 0. 0. 4.72862691e-001 0.
      6.02877103e-002 2.01470926e-002 1.89810380e-001 1.04568176e-001
      1.39135700e-002 4.16345522e-002 0. 4.72862691e-001 0.
      2.98115369e-002 9.96249262e-003 1.04568176e-001 0. 0. 0. 0.
      4.72862691e-001 0. 0. 0. 0. 0. 0. 0. 0. 4.72862691e-001 0. 0. 0.
      0. 3.87893915e-001 2.81770285e-002 8.43160897e-002 0.
      4.14424628e-001 0. 0. 0. 3.87893915e-001 4.14424628e-001
      2.06480525e-003 6.17866032e-003 0. 0. 0. 0. 0. 4.14424628e-001 0.
      0. 0. 0. 4.14424628e-001 0. 0. 0. 0. 0. 0. 0. 0. 0. 0. 0. 0. 0.
      4.93951082e-001 0. 0. 0. 0. 0. 8.45223945e-003 2.82459031e-003
      4.93951082e-001 4.93951082e-001 0. 0. 0. 0. 0. 1.30858719e-001
      4.37306836e-002 4.93951082e-001 0. 0. 0. 0. 0. 0. 0. 0. 0. 0. 0.
      0. 0. 0. 0. 0. 0. 0. 0. 0. 0. 0. 4.97459650e-001 0. 0. 0. 0. 0. 0.
      0. 0. 4.97459650e-001 0. 0. 0. 0. 1.49366818e-002 0. 0. 0.
      4.97459650e-001 0. 3.84828225e-002 1.28602860e-002 1.49366818e-002
      1.91329699e-002 0. 0. 0. 4.97459650e-001 0. 4.59037200e-002
      1.53402183e-002 1.91329699e-002 0. 0. 0. 0. 7.04414546e-001 0. 0.
      0. 0. 0. 0. 0. 0. 0. 0. 0. 0. 0. 8.52137711e-003 0. 0. 0.
      7.04414546e-001 0. 1.95158105e-002 6.52184105e-003 8.52137711e-003
      0. 0. 0. 0. 0. 0. 0. 0. 0. 0. 0. 0. 0. 0. 0. 0. 0. 0. 0. 0. 0. 0.
      0. 0. 0. 0. 0. 0. 0. 0. 0. 0. 0. 0. 0. 0. 0. 0. 0. 0. 0. 0. 0. 0.
      0.</_>
    <_>
      3.41422647e-001 1.95117220e-002 5.83865084e-002 0. 1.33157983e-001
      0. 8.67565423e-002 2.89925132e-002 3.41422647e-001 2.81587481e-001
      2.26647183e-002 6.78214207e-002 0. 1.92605987e-001 0.
      6.60387576e-002 2.20689978e-002 2.81587481e-001 3.22361916e-001 0.
      0. 0. 3.41422647e-001 0. 1.06393516e-001 3.55548486e-002
      3.22361916e-001 1.76910341e-001 1.74378585e-002 5.21805212e-002 0.
      3.41422647e-001 0. 8.86768997e-002 2.96342671e-002 1.76910341e-001
      3.21230382e-001 2.26445384e-002 6.77609742e-002 0. 1.21801235e-001
      0. 2.05167849e-002 6.85634883e-003 3.21230382e-001 3.21230382e-001
      1.03765540e-002 3.10505833e-002 0. 1.63917392e-002 0.
      5.91269806e-002 1.97591968e-002 3.21230382e-001 3.21230382e-001
      3.43904197e-002 1.02908865e-001 0. 3.21230382e-001 0.
      4.13569659e-002 1.38207721e-002 3.21230382e-001 3.21230382e-001
      6.03974052e-003 1.80731360e-002 0. 8.01187456e-002 0.
      1.40671462e-001 4.70099337e-002 3.21230382e-001 3.53618652e-001
      6.12331089e-003 1.83232818e-002 0. 3.78829055e-003 0.
      7.48516172e-002 2.50140987e-002 3.53618652e-001 2.38492936e-001
      2.09305412e-003 6.26321090e-003 0. 1.04098454e-001 0.
      5.51413447e-002 1.84272695e-002 2.38492936e-001 3.53618652e-001 0.
      0. 0. 0. 0. 2.16925770e-001 7.24927858e-002 3.53618652e-001
      3.53618652e-001 2.39078188e-003 7.15410383e-003 0. 6.59444109e-002
      0. 2.22102404e-001 7.42227286e-002 3.53618652e-001 2.21490618e-002
      0. 0. 0. 4.97761220e-001 0. 1.36262635e-002 4.55365796e-003
      2.21490618e-002 3.31918448e-002 6.13458687e-003 1.83569510e-002 0.
      4.97761220e-001 0. 1.33484323e-002 4.46081161e-003 3.31918448e-002
      0. 0. 0. 0. 4.97761220e-001 0. 0. 0. 0. 0. 0. 0. 0.
      4.97761220e-001 0. 0. 0. 0. 1.64877951e-001 1.94029994e-002
      5.80609478e-002 0. 6.18953645e-001 0. 1.48895662e-002
      4.97583160e-003 1.64877951e-001 2.57916540e-001 3.10957851e-003
      9.30500869e-003 0. 1.28322855e-001 0. 5.84723577e-002
      1.95404366e-002 2.57916540e-001 0. 0. 0. 0. 6.18953645e-001 0. 0.
      0. 0. 0. 0. 0. 0. 1.25870973e-001 0. 0. 0. 0. 4.47883129e-001 0.
      0. 0. 0. 0. 2.54640877e-001 8.50965083e-002 4.47883129e-001
      4.47883129e-001 4.06116573e-003 1.21525098e-002 0. 4.45477515e-002
      0. 3.27035934e-001 1.09289669e-001 4.47883129e-001 0. 0. 0. 0. 0.
      0. 0. 0. 0. 0. 0. 0. 0. 0. 0. 0. 0. 0. 0. 0. 0. 0. 4.98454303e-001
      0. 0. 0. 0. 0. 0. 0. 0. 4.98454303e-001 0. 0. 0. 0.
      7.82039668e-003 0. 0. 0. 4.98454303e-001 0. 9.99623351e-003
      3.34056560e-003 7.82039668e-003 1.55496774e-002 0. 0. 0.
      4.98454303e-001 0. 2.07342803e-002 6.92903344e-003 1.55496774e-002
      0. 0. 0. 0. 6.91349030e-001 0. 0. 0. 0. 0. 0. 0. 0.
      1.32729247e-001 0. 0. 0. 0. 8.84905364e-003 0. 0. 0.
      6.91349030e-001 0. 1.23995338e-002 4.14370606e-003 8.84905364e-003
      0. 0. 0. 0. 1.38660654e-001 0. 0. 0. 0. 0. 0. 0. 0. 0. 0. 0. 0. 0.
      0. 0. 0. 0. 0. 0. 0. 0. 0. 0. 0. 0. 0. 0. 0. 0. 0. 0. 0. 0. 0. 0.
      0. 0. 0. 0. 0.</_>
    <_>
      3.15782785e-001 2.79066432e-002 8.35073292e-002 0. 6.96255565e-002
      0. 1.30247831e-001 4.35265377e-002 3.15782785e-001 3.10089976e-001
      3.09878103e-002 9.27272737e-002 0. 7.36215711e-002 0.
      5.30531779e-002 1.77294388e-002 3.10089976e-001 2.98620373e-001
      8.59417021e-004 2.57169362e-003 0. 3.15782785e-001 0.
      2.53086060e-001 8.45769271e-002 2.98620373e-001 1.88815579e-001
      3.05063017e-002 9.12861377e-002 0. 3.15782785e-001 0.
      1.52824298e-001 5.10712005e-002 1.88815579e-001 3.16979170e-001
      3.04394756e-002 9.10864323e-002 0. 3.63884270e-002 0.
      4.40940000e-002 1.47354379e-002 3.16979170e-001 3.16979170e-001
      1.77760683e-002 5.31927720e-002 0. 0. 0. 3.44796069e-002
      1.15224812e-002 3.16979170e-001 3.16979170e-001 3.22210714e-002
      9.64173749e-002 0. 3.16979170e-001 0. 1.58721700e-001
      5.30420020e-002 3.16979170e-001 3.16979170e-001 0. 0. 0. 0. 0.
      1.82520777e-001 6.09952398e-002 3.16979170e-001 2.97735810e-001
      1.48801785e-002 4.45271693e-002 0. 0. 0. 3.47693264e-002
      1.16192987e-002 2.97735810e-001 1.63170606e-001 1.04548596e-002
      3.12849320e-002 0. 9.22766235e-003 0. 1.28712207e-002
      4.30133613e-003 1.63170606e-001 3.77100110e-001 0. 0. 0. 0. 0.
      2.65084416e-001 8.85865465e-002 3.77100110e-001 3.77100110e-001 0.
      0. 0. 0. 0. 3.20019066e-001 1.06944755e-001 3.77100110e-001
      5.04464246e-002 3.02487722e-004 9.05155146e-004 0. 4.94849831e-001
      0. 5.05379364e-002 1.68888904e-002 5.04464246e-002 4.90580425e-002
      9.98642761e-003 2.98830867e-002 0. 4.94849831e-001 0.
      4.04187925e-002 1.35072507e-002 4.90580425e-002 0. 0. 0. 0.
      4.94849831e-001 0. 0. 0. 0. 0. 0. 0. 0. 4.94849831e-001 0. 0. 0.
      0. 2.91635484e-001 1.81855205e-002 5.44178002e-002 0.
      4.46477979e-001 0. 8.39898512e-002 2.80679371e-002 2.91635484e-001
      4.46477979e-001 0. 0. 0. 0. 0. 1.23418525e-001 4.12443019e-002
      4.46477979e-001 0. 0. 0. 0. 4.46477979e-001 0. 0. 0. 0. 0. 0. 0.
      0. 0. 0. 0. 0. 0. 4.23913211e-001 0. 0. 0. 0. 0. 2.59986579e-001
      8.68829489e-002 4.23913211e-001 4.23913211e-001 0. 0. 0. 0. 0.
      4.23913211e-001 1.47436500e-001 4.23913211e-001 0. 0. 0. 0. 0. 0.
      0. 0. 0. 1.34448484e-002 0. 0. 0. 0. 0. 3.37826810e-003
      1.12895796e-003 1.34448484e-002 0. 0. 0. 0. 4.98045295e-001 0. 0.
      0. 0. 0. 0. 0. 0. 4.98045295e-001 0. 0. 0. 0. 7.80804735e-003 0.
      0. 0. 4.98045295e-001 0. 2.84550339e-002 9.50917229e-003
      7.80804735e-003 9.54010058e-003 0. 0. 0. 4.98045295e-001 0.
      3.82316001e-002 1.27763301e-002 9.54010058e-003 0. 0. 0. 0.
      7.04398870e-001 0. 0. 0. 0. 0. 0. 0. 0. 0. 0. 0. 0. 0.
      4.68722172e-003 0. 0. 0. 7.04398870e-001 0. 2.26216055e-002
      7.55974231e-003 4.68722172e-003 0. 0. 0. 0. 0. 0. 0. 0. 0. 0. 0.
      0. 0. 0. 0. 0. 0. 0. 0. 0. 0. 0. 0. 0. 0. 0. 0. 0. 0. 0. 0. 0. 0.
      0. 0. 0. 0. 0. 0. 0. 0. 0. 0. 0. 0.</_>
    <_>
      3.23161840e-001 2.37845741e-002 7.11725131e-002 0. 3.21760960e-002
      0. 1.30656600e-001 4.36631478e-002 3.23161840e-001 3.23161840e-001
      1.90467685e-002 5.69951907e-002 0. 1.16132602e-001 0.
      9.75043923e-002 3.25842537e-002 3.23161840e-001 3.23161840e-001 0.
      0. 0. 2.38164827e-001 0. 1.70800343e-001 5.70784770e-002
      3.23161840e-001 2.17060760e-001 1.66125258e-003 4.97108186e-003 0.
      3.23161840e-001 0. 1.61552012e-001 5.39878495e-002 2.17060760e-001
      2.96062797e-001 2.20227111e-002 6.59002960e-002 0. 1.19698286e-001
      0. 3.13470773e-002 1.04756430e-002 2.96062797e-001 3.38778466e-001
      1.40001904e-002 4.18938771e-002 0. 5.27667291e-002 0.
      3.69014256e-002 1.23318089e-002 3.38778466e-001 2.11466163e-001
      1.02378707e-002 3.06354966e-002 0. 3.38778466e-001 0.
      6.07352145e-002 2.02966407e-002 2.11466163e-001 3.38778466e-001
      8.04403983e-003 2.40707435e-002 0. 3.38778466e-001 0.
      9.93033424e-002 3.31854336e-002 3.38778466e-001 3.50967258e-001
      1.09775644e-002 3.28490585e-002 0. 0. 0. 5.70682175e-002
      1.90711971e-002 3.50967258e-001 2.61883676e-001 9.52173304e-003
      2.84926593e-002 0. 7.80041935e-003 0. 5.56402765e-002
      1.85940024e-002 2.61883676e-001 3.50967258e-001 0. 0. 0. 0. 0.
      1.85864061e-001 6.21125028e-002 3.50967258e-001 3.50967258e-001 0.
      0. 0. 0. 0. 2.55605698e-001 8.54189321e-002 3.50967258e-001
      7.42334723e-002 0. 0. 0. 4.27773148e-001 0. 3.40920575e-002
      1.13929678e-002 7.42334723e-002 4.88862023e-002 6.09266979e-004
      1.82315207e-003 0. 5.37480533e-001 0. 4.10922281e-002
      1.37323020e-002 4.88862023e-002 0. 0. 0. 0. 4.63570923e-001 0. 0.
      0. 0. 0. 0. 0. 0. 5.37480533e-001 0. 0. 0. 0. 4.84763384e-002
      2.61052628e-003 7.81166041e-003 0. 4.85081881e-001 0.
      1.24927489e-002 4.17485787e-003 4.84763384e-002 1.55212373e-001
      2.05112761e-003 6.13773288e-003 0. 4.85081881e-001 0.
      2.63600070e-002 8.80905241e-003 1.55212373e-001 0. 0. 0. 0.
      4.85081881e-001 0. 0. 0. 0. 0. 0. 0. 0. 4.85081881e-001 0. 0. 0.
      0. 4.40018743e-001 0. 0. 0. 0. 0. 2.23380536e-001 7.46498629e-002
      4.40018743e-001 4.40018743e-001 0. 0. 0. 0. 0. 3.86036664e-001
      1.29006684e-001 4.40018743e-001 0. 0. 0. 0. 0. 0. 0. 0. 0. 0. 0.
      0. 0. 0. 0. 0. 0. 0. 0. 0. 0. 0. 4.55919296e-001 0. 0. 0. 0. 0. 0.
      0. 0. 5.36992073e-001 0. 0. 0. 0. 2.98341759e-003 0. 0. 0.
      4.22350764e-001 0. 1.98747888e-002 6.64180471e-003 2.98341759e-003
      3.69578600e-002 0. 0. 0. 5.36992073e-001 0. 1.60073072e-001
      5.34936190e-002 3.69578600e-002 0. 0. 0. 0. 4.96354163e-001 0. 0.
      0. 0. 0. 0. 0. 0. 4.96354163e-001 0. 0. 0. 0. 2.48552300e-002 0.
      0. 0. 4.96354163e-001 0. 8.65569487e-002 2.89258119e-002
      2.48552300e-002 1.39871484e-003 0. 0. 0. 4.96354163e-001 0.
      2.02956912e-003 6.78246317e-004 1.39871484e-003 0. 0. 0. 0. 0. 0.
      0. 0. 0. 0. 0. 0. 0. 0. 0. 0. 0. 0. 0. 0. 0. 0. 0. 0. 0. 0. 0. 0.
      0. 0. 0. 0. 0. 0. 0. 0.</_>
    <_>
      1.08344272e-001 8.15183576e-003 2.43934039e-002 0. 1.43603370e-001
      0. 0. 0. 1.08344272e-001 1.51093490e-002 1.53663475e-003
      4.59819706e-003 0. 6.68847859e-001 0. 0. 0. 1.51093490e-002
      1.72177167e-003 0. 0. 0. 2.11720467e-001 0. 0. 0. 1.72177167e-003
      5.09347096e-002 0. 0. 0. 6.68847859e-001 0. 5.48710003e-002
      1.83369741e-002 5.09347096e-002 0. 0. 0. 0. 6.99162304e-001 0. 0.
      0. 0. 0. 0. 0. 0. 0. 0. 0. 0. 0. 6.67220727e-002 0. 0. 0.
      6.99162304e-001 0. 7.03164712e-002 2.34985892e-002 6.67220727e-002
      3.00265336e-003 0. 0. 0. 3.06087472e-002 0. 2.92864675e-003
      9.78704775e-004 3.00265336e-003 0. 0. 0. 0. 0. 0. 0. 0. 0. 0. 0.
      0. 0. 0. 0. 0. 0. 0. 0. 0. 0. 0. 0. 0. 0. 0. 0. 0. 0. 0. 0. 0. 0.
      0. 0. 0. 0. 0. 0. 0. 2.54983813e-001 0. 0. 0. 0. 1.97342634e-001
      0. 0. 0. 5.48928678e-001 0. 1.93751842e-001 6.47486225e-002
      1.97342634e-001 0. 0. 0. 0. 2.36221686e-001 0. 0. 0. 0.
      2.36849084e-001 0. 0. 0. 5.48928678e-001 0. 1.87877446e-001
      6.27854988e-002 2.36849084e-001 1.68732837e-001 0. 0. 0.
      3.59425664e-001 0. 1.23920351e-001 4.14121039e-002 1.68732837e-001
      1.34522811e-001 0. 0. 0. 7.52403140e-002 0. 4.70902398e-002
      1.57367699e-002 1.34522811e-001 3.59425664e-001 0. 0. 0.
      3.59425664e-001 0. 2.09939331e-001 7.01582059e-002 3.59425664e-001
      3.59425664e-001 0. 0. 0. 6.43582344e-002 0. 2.11690545e-001
      7.07434565e-002 3.59425664e-001 1.37124285e-001 0. 0. 0. 0. 0.
      3.28542255e-002 1.09793348e-002 1.37124285e-001 8.43738765e-002 0.
      0. 0. 0. 0. 1.26241865e-002 4.21879208e-003 8.43738765e-002
      4.58614588e-001 0. 0. 0. 0. 0. 2.51986474e-001 8.42096806e-002
      4.58614588e-001 4.58614588e-001 0. 0. 0. 0. 0. 1.65094122e-001
      5.51716983e-002 4.58614588e-001 0. 0. 0. 0. 2.94222087e-001 0. 0.
      0. 0. 2.95897901e-001 1.43814152e-002 4.30345125e-002 0.
      4.87959117e-001 0. 8.95515755e-002 2.99266223e-002 2.95897901e-001
      0. 0. 0. 0. 3.07370305e-001 0. 0. 0. 0. 2.70453662e-001
      2.15721242e-002 6.45517707e-002 0. 4.87959117e-001 0.
      2.79345307e-002 9.33523010e-003 2.70453662e-001 3.04486215e-001
      5.84925897e-003 1.75031442e-002 0. 2.04299614e-001 0.
      1.08834833e-001 3.63707393e-002 3.04486215e-001 3.04486215e-001
      7.97626271e-004 2.38679280e-003 0. 2.22618021e-002 0.
      1.90845117e-001 6.37771562e-002 3.04486215e-001 3.00119370e-001
      8.77388939e-003 2.62547210e-002 0. 3.04486215e-001 0.
      7.89638832e-002 2.63883416e-002 3.00119370e-001 3.04486215e-001
      1.19643949e-003 3.58018954e-003 0. 9.40026045e-002 0.
      2.22519100e-001 7.43619725e-002 3.04486215e-001 3.19064468e-001 0.
      0. 0. 0. 0. 1.65708736e-001 5.53770140e-002 3.19064468e-001
      3.19064468e-001 0. 0. 0. 0. 0. 1.08324051e-001 3.62000540e-002
      3.19064468e-001 3.19064468e-001 0. 0. 0. 0. 0. 2.46290520e-001
      8.23059678e-002 3.19064468e-001 3.19064468e-001 0. 0. 0. 0. 0.
      2.53414959e-001 8.46868306e-002 3.19064468e-001</_>
    <_>
      8.24850611e-003 1.56267430e-003 4.67611756e-003 0. 4.64113086e-001
      0. 0. 0. 8.24850611e-003 0. 0. 0. 0. 2.63619840e-001 0. 0. 0. 0.
      2.02903762e-001 1.02237687e-002 3.05934157e-002 0. 4.64113086e-001
      0. 6.92585781e-002 2.31450591e-002 2.02903762e-001 4.09428596e-001
      2.85416991e-002 8.54076520e-002 0. 2.49756098e-001 0.
      1.99606027e-002 6.67050015e-003 4.09428596e-001 0. 0. 0. 0. 0. 0.
      0. 0. 0. 0. 0. 0. 0. 0. 0. 0. 0. 0. 4.83980983e-001
      5.52938096e-002 1.65460154e-001 0. 0. 0. 0. 0. 4.83980983e-001
      4.83980983e-001 5.28286062e-002 1.58083335e-001 0. 0. 0. 0. 0.
      4.83980983e-001 0. 0. 0. 0. 0. 0. 0. 0. 0. 0. 0. 0. 0. 0. 0. 0. 0.
      0. 4.83054787e-001 5.06593063e-002 1.51591972e-001 0. 0. 0. 0. 0.
      4.83054787e-001 4.83054787e-001 6.03550859e-002 1.80605426e-001 0.
      0. 0. 0. 0. 4.83054787e-001 3.08413655e-001 1.72665082e-002
      5.16679287e-002 0. 3.08413655e-001 0. 7.32386038e-002
      2.44751181e-002 3.08413655e-001 3.08413655e-001 3.42864245e-002
      1.02598049e-001 0. 8.00998807e-002 0. 2.18817703e-002
      7.31252320e-003 3.08413655e-001 3.08413655e-001 2.87500601e-002
      8.60308483e-002 0. 3.08413655e-001 0. 1.40952533e-002
      4.71039861e-003 3.08413655e-001 3.08413655e-001 1.48602873e-002
      4.44675535e-002 0. 8.64770263e-002 0. 4.48417710e-003
      1.49853702e-003 3.08413655e-001 3.48776519e-001 2.51515396e-002
      7.52630085e-002 0. 0. 0. 9.72892158e-003 3.25123500e-003
      3.48776519e-001 3.48776519e-001 2.06800159e-002 6.18824959e-002 0.
      0. 0. 2.10277587e-002 7.02710683e-003 3.48776519e-001
      3.48776519e-001 4.33114450e-003 1.29604368e-002 0. 0. 0.
      3.89156751e-002 1.30049353e-002 3.48776519e-001 3.48776519e-001
      2.50294409e-003 7.48976273e-003 0. 0. 0. 9.61214304e-002
      3.21220905e-002 3.48776519e-001 3.50144386e-001 2.31041275e-002
      6.91363588e-002 0. 0. 0. 1.20639941e-002 4.03157482e-003
      3.50144386e-001 3.50144386e-001 2.45750789e-002 7.35380054e-002 0.
      0. 0. 2.17982641e-004 7.28459781e-005 3.50144386e-001
      3.50144386e-001 1.98482233e-003 5.93934534e-003 0. 0. 0.
      6.10836856e-002 2.04130970e-002 3.50144386e-001 3.50144386e-001
      1.30883337e-003 3.91652854e-003 0. 0. 0. 1.14440918e-003
      3.82441503e-004 3.50144386e-001 2.01171860e-001 2.24274565e-002
