<?xml version="1.0"?>
<opencv_storage>
<my_svm type_id="opencv-ml-svm">
  <svm_type>C_SVC</svm_type>
  <kernel><type>RBF</type>
    <gamma>8.9999999999999997e-002</gamma></kernel>
  <C>10.</C>
  <term_criteria><epsilon>1.1920928955078125e-007</epsilon>
    <iterations>2147483647</iterations></term_criteria>
  <var_all>324</var_all>
  <var_count>324</var_count>
  <class_count>8</class_count>
  <class_labels type_id="opencv-matrix">
    <rows>1</rows>
    <cols>8</cols>
    <dt>i</dt>
    <data>
      1 2 3 4 5 6 7 8</data></class_labels>
  <sv_total>30</sv_total>
  <support_vectors>
    <_>
      4.67754202e-003 6.78188913e-003 2.02939976e-002 0. 4.72925961e-001
      0. 0. 0. 4.67754202e-003 8.95017479e-003 1.14782564e-002
      3.43473218e-002 0. 4.72925961e-001 0. 0. 0. 8.95017479e-003
      1.93094045e-001 1.96501538e-002 5.88007532e-002 0. 4.72925961e-001
      0. 0. 0. 1.93094045e-001 9.69237015e-002 1.16067519e-002
      3.47318240e-002 0. 4.72925961e-001 0. 1.05412230e-002
      3.52270086e-003 9.69237015e-002 2.40933336e-003 2.88498122e-003
      8.63296352e-003 0. 4.21983540e-001 0. 0. 0. 2.40933336e-003
      2.66850344e-003 1.27325882e-004 3.81007616e-004 0. 2.82799989e-001
      0. 0. 0. 2.66850344e-003 2.42231399e-001 2.43872497e-002
      7.29759485e-002 0. 4.21983540e-001 0. 2.42411755e-002
      8.10099673e-003 2.42231399e-001 4.21983540e-001 4.51164395e-002
      1.35005593e-001 0. 2.43292078e-001 0. 6.06029341e-003
      2.02524895e-003 4.21983540e-001 2.92107053e-002 2.21327017e-003
      6.62294868e-003 0. 0. 0. 0. 0. 2.92107053e-002 9.82741788e-002
      7.97707215e-003 2.38704421e-002 0. 0. 0. 0. 0. 9.82741788e-002
      4.47841018e-001 8.92993510e-002 2.67217696e-001 0. 0. 0. 0. 0.
      4.47841018e-001 4.47841018e-001 9.62388664e-002 2.87983418e-001 0.
      0. 0. 0. 0. 4.47841018e-001 3.16957802e-001 3.60024124e-002
      1.07732952e-001 0. 3.16957802e-001 0. 4.45862226e-002
      1.48999318e-002 3.16957802e-001 2.06894204e-001 1.76961962e-002
      5.29537536e-002 0. 3.16957802e-001 0. 3.41154933e-002
      1.14008076e-002 2.06894204e-001 3.16957802e-001 9.59599670e-003
      2.87148803e-002 0. 3.16957802e-001 0. 9.20466781e-002
      3.07603814e-002 3.16957802e-001 1.90707847e-001 1.37361055e-002
      4.11035419e-002 0. 3.16957802e-001 0. 5.23642860e-002
      1.74992271e-002 1.90707847e-001 3.08012694e-001 2.68820897e-002
      8.04414302e-002 0. 3.08012694e-001 0. 2.70623006e-002
      9.04376712e-003 3.08012694e-001 3.08012694e-001 3.82381789e-002
      1.14423208e-001 0. 8.25017020e-002 0. 2.34321691e-002
      7.83062354e-003 3.08012694e-001 3.08012694e-001 2.12490521e-002
      6.35850430e-002 0. 3.08012694e-001 0. 8.53611063e-003
      2.85262009e-003 3.08012694e-001 3.08012694e-001 5.01616532e-003
      1.50102368e-002 0. 1.00131743e-001 0. 5.50767034e-002
      1.84056666e-002 3.08012694e-001 3.45740497e-001 3.90131399e-002
      1.16742194e-001 0. 0. 0. 2.28304416e-002 7.62953330e-003
      3.45740497e-001 3.45740497e-001 3.35221253e-002 1.00310989e-001 0.
      0. 0. 1.77642163e-002 5.93648897e-003 3.45740497e-001
      3.45740497e-001 2.22100512e-004 6.64609426e-004 0. 0. 0.
      7.90005252e-002 2.64005922e-002 3.45740497e-001 3.45740497e-001 0.
      0. 0. 0. 0. 7.37607032e-002 2.46495288e-002 3.45740497e-001
      8.71958435e-002 0. 0. 0. 4.84519869e-001 0. 2.43090484e-002
      8.12365673e-003 8.71958435e-002 7.32728466e-002 1.28777111e-002
      3.85348722e-002 0. 4.84519869e-001 0. 1.46904187e-002
      4.90928022e-003 7.32728466e-002 1.26698781e-002 0. 0. 0.
      4.84519869e-001 0. 5.01459204e-002 1.67578887e-002 1.26698781e-002
      4.77767289e-002 1.89638708e-003 5.67469141e-003 0. 4.84519869e-001
      0. 1.33839563e-001 4.47268412e-002 4.77767289e-002 2.44992569e-001
      3.46334800e-002 1.03636190e-001 0. 5.39371908e-001 0.
      3.66619905e-003 1.22517941e-003 2.44992569e-001 3.24789703e-001
      5.43812104e-003 1.62728708e-002 0. 1.85361221e-001 0.
      3.35801765e-002 1.12219043e-002 3.24789703e-001 5.09872437e-002
      4.74513182e-003 1.41991880e-002 0. 5.39371908e-001 0.
      1.14801399e-001 3.83646488e-002 5.09872437e-002 2.87193595e-003
      6.20285922e-004 1.85612496e-003 0. 1.17323570e-001 0.
      5.04089287e-003 1.68458140e-003 2.87193595e-003 4.86493737e-001 0.
      0. 0. 0. 0. 1.43905997e-001 4.80908565e-002 4.86493737e-001
      4.86493737e-001 0. 0. 0. 0. 0. 1.51199967e-001 5.05283698e-002
      4.86493737e-001 0. 0. 0. 0. 0. 0. 0. 0. 0. 0. 0. 0. 0. 0. 0. 0. 0.
      0.</_>
    <_>
      3.93538661e-002 2.21103095e-002 6.61624894e-002 0. 3.66109580e-001
      0. 0. 0. 3.93538661e-002 4.99085449e-002 2.29420755e-002
      6.86514378e-002 0. 3.66109580e-001 0. 0. 0. 4.99085449e-002
      3.22196960e-001 1.53897047e-001 3.66109580e-001 0. 3.66109580e-001
      0. 0. 0. 3.22196960e-001 1.38512880e-001 6.20276034e-002
      1.85610145e-001 0. 3.66109580e-001 0. 0. 0. 1.38512880e-001
      1.65580809e-001 7.28624165e-002 2.18032151e-001 0. 2.91167527e-001
      0. 0. 0. 1.65580809e-001 2.91167527e-001 1.56966612e-001
      2.91167527e-001 0. 2.31392756e-001 0. 0. 0. 2.91167527e-001
      1.99761569e-001 6.27657697e-002 1.87818840e-001 0. 2.91167527e-001
      0. 0. 0. 1.99761569e-001 2.91167527e-001 9.79432464e-002
      2.91167527e-001 0. 6.62012324e-002 0. 0. 0. 2.91167527e-001
      2.84772664e-001 1.65566564e-001 2.84772664e-001 0. 0. 0. 0. 0.
      2.84772664e-001 2.54105985e-001 1.06876977e-001 2.84772664e-001 0.
      0. 0. 0. 0. 2.54105985e-001 2.84772664e-001 9.49520841e-002
      2.84131944e-001 0. 0. 0. 0. 0. 2.84772664e-001 2.84772664e-001
      9.78452712e-002 2.84772664e-001 0. 0. 0. 0. 0. 2.84772664e-001
      3.43787551e-001 1.20800324e-001 3.43787551e-001 0. 2.54221290e-001
      0. 0. 0. 3.43787551e-001 1.46411210e-001 3.95557098e-002
      1.18365519e-001 0. 3.43787551e-001 0. 0. 0. 1.46411210e-001
      2.47278646e-001 3.87608074e-002 1.15986690e-001 0. 3.43787551e-001
      0. 0. 0. 2.47278646e-001 7.35403970e-002 1.30373500e-002
      3.90125737e-002 0. 3.43787551e-001 0. 0. 0. 7.35403970e-002
      2.52558649e-001 6.08873889e-002 1.82197556e-001 0. 3.71407866e-001
      0. 0. 0. 2.52558649e-001 3.71407866e-001 9.57074538e-002
      2.86392063e-001 0. 1.62855729e-001 0. 0. 0. 3.71407866e-001
      6.50797635e-002 1.71762947e-002 5.13978228e-002 0. 3.71407866e-001
      0. 0. 0. 6.50797635e-002 8.64019394e-002 1.71130523e-002
      5.12085818e-002 0. 3.64806294e-001 0. 0. 0. 8.64019394e-002
      3.94173980e-001 1.74895719e-001 3.94173980e-001 0. 0. 0. 0. 0.
      3.94173980e-001 3.94173980e-001 1.46275580e-001 3.94173980e-001 0.
      0. 0. 0. 0. 3.94173980e-001 7.15335608e-002 1.21519053e-002
      3.63629945e-002 0. 0. 0. 0. 0. 7.15335608e-002 7.79795134e-003
      1.13166450e-003 3.38635873e-003 0. 0. 0. 0. 0. 7.79795134e-003
      1.35614760e-002 1.77279429e-003 5.30485576e-003 0. 4.94767159e-001
      0. 0. 0. 1.35614760e-002 5.59803285e-003 1.85351865e-003
      5.54641290e-003 0. 4.94767159e-001 0. 0. 0. 5.59803285e-003
      1.18963812e-002 0. 0. 0. 4.94767159e-001 0. 2.80261561e-002
      9.36585013e-003 1.18963812e-002 6.71636164e-002 1.16212098e-002
      3.47749591e-002 0. 4.94767159e-001 0. 5.89387603e-002
      1.96963008e-002 6.71636164e-002 1.36494907e-002 4.83687920e-003
      1.44737316e-002 0. 5.50563812e-001 0. 0. 0. 1.36494907e-002
      2.55656498e-003 9.83599923e-004 2.94329482e-003 0. 4.75587189e-001
      0. 0. 0. 2.55656498e-003 1.03748642e-001 2.95299776e-002
      8.83646086e-002 0. 5.50563812e-001 0. 2.68749073e-002
      8.98112264e-003 1.03748642e-001 1.60390232e-002 5.72795048e-003
      1.71401445e-002 0. 3.59996557e-001 0. 0. 0. 1.60390232e-002 0. 0.
      0. 0. 0. 0. 0. 0. 0. 0. 0. 0. 0. 0. 0. 0. 0. 0. 0. 0. 0. 0. 0. 0.
      0. 0. 0. 0. 0. 0. 0. 0. 0. 0. 0. 0.</_>
    <_>
      1.83710102e-002 1.10382847e-002 3.30307521e-002 0. 4.92370516e-001
      0. 0. 0. 1.83710102e-002 1.57650448e-002 9.90717299e-003
      2.96460409e-002 0. 4.92370516e-001 0. 0. 0. 1.57650448e-002
      8.34326372e-002 2.60038790e-003 7.78135192e-003 0. 4.92370516e-001
      0. 2.80357152e-003 9.36906843e-004 8.34326372e-002 6.24084026e-002
      1.01126183e-003 3.02608125e-003 0. 4.92370516e-001 0.
      1.36619546e-002 4.56559658e-003 6.24084026e-002 6.49071299e-003
      3.25821084e-003 9.74981114e-003 0. 4.56740141e-001 0. 0. 0.
      6.49071299e-003 0. 0. 0. 0. 0. 0. 0. 0. 0. 3.79526079e-001 0. 0.
      0. 4.56740141e-001 0. 6.25816658e-002 2.09137462e-002
      3.79526079e-001 3.76308113e-001 0. 0. 0. 0. 0. 4.62248661e-002
      1.54475775e-002 3.76308113e-001 0. 0. 0. 0. 0. 0. 0. 0. 0. 0. 0.
      0. 0. 0. 0. 0. 0. 0. 4.85991299e-001 0. 0. 0. 0. 0.
      1.51764154e-001 5.07170446e-002 4.85991299e-001 4.85991299e-001 0.
      0. 0. 0. 0. 1.49334177e-001 4.99049835e-002 4.85991299e-001
      2.93240845e-001 6.82972046e-003 2.04371288e-002 0. 2.93446451e-001
      0. 5.08110560e-002 1.69801693e-002 2.93240845e-001 2.21559286e-001
      4.50706203e-003 1.34868314e-002 0. 2.93446451e-001 0.
      5.06573841e-002 1.69288479e-002 2.21559286e-001 2.93446451e-001
      3.86487832e-003 1.15651768e-002 0. 2.93446451e-001 0.
      1.70087114e-001 5.68401366e-002 2.93446451e-001 2.79377967e-001
      2.45322082e-002 7.34094977e-002 0. 2.93446451e-001 0.
      9.22090933e-002 3.08146812e-002 2.79377967e-001 3.00725907e-001
      5.50104491e-003 1.64611749e-002 0. 2.61499912e-001 0.
      6.22210018e-002 2.07932219e-002 3.00725907e-001 3.00725907e-001
      1.95084803e-003 5.83766447e-003 0. 1.16534196e-002 0.
      5.31980954e-002 1.77779123e-002 3.00725907e-001 3.00725907e-001
      5.48598506e-002 1.64161131e-001 0. 3.00725907e-001 0.
      1.27788812e-001 4.27048057e-002 3.00725907e-001 3.00725907e-001
      1.92941073e-002 5.77351823e-002 0. 1.80040553e-001 0.
      1.42364755e-001 4.75758277e-002 3.00725907e-001 3.43546838e-001 0.
      0. 0. 0. 0. 7.41062313e-002 2.47650649e-002 3.43546838e-001
      3.43546838e-001 0. 0. 0. 0. 0. 8.26988891e-002 2.76365858e-002
      3.43546838e-001 3.43546838e-001 0. 0. 0. 0. 0. 1.54328004e-001
      5.15737534e-002 3.43546838e-001 3.43546838e-001 0. 0. 0. 0. 0.
      1.04703583e-001 3.49901579e-002 3.43546838e-001 9.12919194e-002
      1.40008202e-003 4.18956298e-003 0. 4.76915985e-001 0.
      7.57579058e-002 2.53169630e-002 9.12919194e-002 1.62705496e-001
      2.12398227e-002 6.35574386e-002 0. 4.76915985e-001 0.
      6.58066496e-002 2.19914280e-002 1.62705496e-001 9.51793263e-005
      5.83367837e-005 1.74565226e-004 0. 4.76915985e-001 0.
      3.63648978e-005 1.21525109e-005 9.51793263e-005 7.12997559e-003
      8.63463210e-004 2.58380338e-003 0. 4.76915985e-001 0.
      3.40843573e-003 1.13903941e-003 7.12997559e-003 3.31996053e-001
      6.11220822e-002 1.82900056e-001 0. 3.31996053e-001 0.
      2.03171834e-001 6.78964555e-002 3.31996053e-001 3.31996053e-001
      2.23282836e-002 6.68145865e-002 0. 2.08580151e-001 0.
      3.31996053e-001 1.19566038e-001 3.31996053e-001 5.08949868e-002
      2.95768445e-003 8.85049533e-003 0. 3.31996053e-001 0.
      3.56332101e-002 1.19079938e-002 5.08949868e-002 1.67379528e-001
      1.37499394e-003 4.11449652e-003 0. 6.31220080e-003 0.
      1.21910468e-001 4.07403372e-002 1.67379528e-001 2.87250102e-001 0.
      0. 0. 0. 0. 2.87250102e-001 1.25541180e-001 2.87250102e-001
      2.87250102e-001 0. 0. 0. 0. 0. 2.87250102e-001 1.10156506e-001
      2.87250102e-001 2.87250102e-001 0. 0. 0. 0. 0. 2.12067634e-001
      7.08692893e-002 2.87250102e-001 2.87250102e-001 0. 0. 0. 0. 0.
      2.87250102e-001 1.07706912e-001 2.87250102e-001</_>
    <_>
      1.42706372e-002 1.02635752e-002 3.07125300e-002 0. 4.84634697e-001
      0. 6.66120043e-003 2.22606189e-003 1.42706372e-002 1.65906809e-002
      1.16544599e-002 3.48745920e-002 0. 4.84634697e-001 0.
      4.88488004e-002 1.63244531e-002 1.65906809e-002 1.12707131e-001
      1.04952157e-002 3.14056873e-002 0. 4.84634697e-001 0.
      3.54364235e-003 1.18422613e-003 1.12707131e-001 1.04029730e-001
      6.24583662e-003 1.86899230e-002 0. 4.84634697e-001 0.
      3.09790280e-002 1.03526730e-002 1.04029730e-001 5.05144801e-003
      3.30320629e-003 9.88445245e-003 0. 4.03562397e-001 0.
      6.09155744e-002 2.03569662e-002 5.05144801e-003 0. 0. 0. 0. 0. 0.
      0. 0. 0. 4.03562397e-001 1.85951926e-002 5.56439087e-002 0.
      4.03562397e-001 0. 4.16129045e-002 1.39063383e-002 4.03562397e-001
      4.03562397e-001 3.03030331e-002 9.06782374e-002 0. 0. 0. 0. 0.
      4.03562397e-001 0. 0. 0. 0. 0. 0. 0. 0. 0. 0. 0. 0. 0. 0. 0. 0. 0.
      0. 4.83883142e-001 5.54972477e-002 1.66068926e-001 0. 0. 0. 0. 0.
      4.83883142e-001 4.83883142e-001 5.29736690e-002 1.58517420e-001 0.
      1.60106679e-003 0. 0. 0. 4.83883142e-001 3.03038687e-001
      2.30088215e-002 6.88511729e-002 0. 3.03038687e-001 0.
      3.76147553e-002 1.25701921e-002 3.03038687e-001 2.45392814e-001
      1.40651781e-002 4.20883559e-002 0. 3.03038687e-001 0.
      4.28749919e-002 1.43280895e-002 2.45392814e-001 3.03038687e-001
      7.52392318e-003 2.25144438e-002 0. 3.03038687e-001 0.
      1.12016782e-001 3.74340415e-002 3.03038687e-001 2.31433138e-001
      1.10888835e-002 3.31820771e-002 0. 3.03038687e-001 0.
      8.56883302e-002 2.86355391e-002 2.31433138e-001 3.12504739e-001
      1.73819084e-002 5.20132743e-002 0. 2.85784274e-001 0.
      3.81905511e-002 1.27626266e-002 3.12504739e-001 3.12504739e-001
      2.32418235e-002 6.95483983e-002 0. 0. 0. 1.75802037e-002
      5.87499514e-003 3.12504739e-001 3.12504739e-001 9.08784289e-003
      2.71942224e-002 0. 3.12504739e-001 0. 9.84257683e-002
      3.28921750e-002 3.12504739e-001 3.12504739e-001 3.61217558e-003
      1.08090062e-002 0. 0. 0. 1.13021962e-001 3.77699547e-002
      3.12504739e-001 3.45291257e-001 2.72392202e-002 8.15101340e-002 0.
      0. 0. 1.24344649e-002 4.15538019e-003 3.45291257e-001
      3.45291257e-001 2.28615366e-002 6.84104338e-002 0. 9.75284819e-003
      0. 5.18003246e-003 1.73107581e-003 3.45291257e-001 3.45291257e-001
      3.24364309e-003 9.70621873e-003 0. 0. 0. 1.20259479e-001
      4.01886068e-002 3.45291257e-001 3.45291257e-001 1.82509143e-003
      5.46137011e-003 0. 1.05655827e-002 0. 1.10318258e-001
      3.68664227e-002 3.45291257e-001 7.56168365e-002 3.06250033e-004
      9.16413264e-004 0. 4.85527098e-001 0. 7.15093166e-002
      2.38971580e-002 7.56168365e-002 7.64317662e-002 3.52187292e-003
      1.05387457e-002 0. 4.85527098e-001 0. 6.03500232e-002
      2.01679245e-002 7.64317662e-002 1.33615239e-002 0. 0. 0.
      4.85527098e-001 0. 5.77492826e-002 1.92988031e-002 1.33615239e-002
      2.13263948e-002 0. 0. 0. 4.85527098e-001 0. 1.13229960e-001
      3.78395095e-002 2.13263948e-002 3.69100332e-001 5.12439711e-003
      1.53340902e-002 0. 4.14009154e-001 0. 9.55563411e-002
      3.19332629e-002 3.69100332e-001 4.14009154e-001 0. 0. 0. 0. 0.
      1.25453159e-001 4.19242457e-002 4.14009154e-001 1.02132615e-002 0.
      0. 0. 4.14009154e-001 0. 9.32309106e-002 3.11561953e-002
      1.02132615e-002 0. 0. 0. 0. 0. 0. 0. 0. 0. 4.67413753e-001 0. 0.
      0. 0. 0. 2.20822155e-001 7.37948865e-002 4.67413753e-001
      4.67413753e-001 0. 0. 0. 3.09235859e-003 0. 2.45875686e-001
      8.21673349e-002 4.67413753e-001 0. 0. 0. 0. 0. 0. 0. 0. 0.
      1.56650448e-003 0. 0. 0. 0. 0. 0. 0. 1.56650448e-003</_>
    <_>
      2.98554271e-001 1.04515798e-001 2.98554271e-001 0. 0. 0. 0. 0.
      2.98554271e-001 2.98554271e-001 1.04480639e-001 2.98554271e-001 0.
      0. 0. 0. 0. 2.98554271e-001 2.98554271e-001 5.70304506e-002
      1.70656547e-001 0. 1.95386037e-001 0. 2.10554916e-002
      7.03637581e-003 2.98554271e-001 2.98554271e-001 3.27552408e-002
      9.80159342e-002 0. 4.24418412e-002 0. 1.65436007e-002
      5.52858086e-003 2.98554271e-001 3.22329760e-001 1.01407155e-001
      3.03448886e-001 0. 0. 0. 0. 0. 3.22329760e-001 3.22329760e-001
      7.55133480e-002 2.25964740e-001 0. 0. 0. 0. 0. 3.22329760e-001
      3.22329760e-001 1.06382798e-002 3.18337083e-002 0. 0. 0. 0. 0.
      3.22329760e-001 3.22329760e-001 2.31919084e-002 6.93987608e-002 0.
      0. 0. 0. 0. 3.22329760e-001 3.26113433e-001 6.63268790e-002
      1.98475316e-001 0. 0. 0. 0. 0. 3.26113433e-001 2.01557547e-001
      3.88153568e-002 1.16150327e-001 0. 2.30137864e-003 0. 0. 0.
      2.01557547e-001 3.96259844e-001 1.79684367e-002 5.37682064e-002 0.
      0. 0. 0. 0. 3.96259844e-001 3.96259844e-001 3.47127393e-002
      1.03873350e-001 0. 0. 0. 0. 0. 3.96259844e-001 3.08633924e-001
      3.75458710e-002 1.12351127e-001 0. 3.99714142e-001 0.
      2.83184592e-002 9.46353190e-003 3.08633924e-001 3.99714142e-001
      2.71637309e-002 8.12839344e-002 0. 1.92235067e-001 0.
      2.22502183e-002 7.43563194e-003 3.99714142e-001 2.86125895e-002
      3.82880750e-003 1.14572085e-002 0. 3.99714142e-001 0.
      2.46247416e-003 8.22915579e-004 2.86125895e-002 4.55454960e-002
      2.50305072e-003 7.49005331e-003 0. 3.17226321e-001 0.
      1.93480111e-003 6.46576576e-004 4.55454960e-002 4.88989502e-001
      1.45641863e-002 4.35814299e-002 0. 0. 0. 0. 0. 4.88989502e-001
      4.88989502e-001 4.28219885e-002 1.28139228e-001 0. 0. 0. 0. 0.
      4.88989502e-001 7.81516507e-002 8.39343760e-004 2.51162681e-003 0.
      0. 0. 0. 0. 7.81516507e-002 5.50189763e-002 1.78425049e-003
      5.33913728e-003 0. 0. 0. 0. 0. 5.50189763e-002 4.91957635e-001
      2.51224339e-002 7.51756132e-002 0. 0. 0. 0. 0. 4.91957635e-001
      4.91957635e-001 4.27224748e-002 1.27841443e-001 0. 0. 0. 0. 0.
      4.91957635e-001 3.08656506e-002 8.47642543e-004 2.53646029e-003 0.
      0. 0. 0. 0. 3.08656506e-002 1.77960861e-002 0. 0. 0. 0. 0. 0. 0.
      1.77960861e-002 0. 0. 0. 0. 5.59736609e-001 0. 0. 0. 0. 0. 0. 0.
      0. 4.14815545e-001 0. 0. 0. 0. 3.73192690e-002 0. 0. 0.
      5.59736609e-001 0. 6.06517494e-002 2.02687494e-002 3.73192690e-002
      2.93089601e-004 0. 0. 0. 4.34572548e-001 0. 2.88626587e-004
      9.64539504e-005 2.93089601e-004 0. 0. 0. 0. 0. 0. 0. 0. 0. 0. 0.
      0. 0. 0. 0. 0. 0. 0. 0. 0. 0. 0. 0. 0. 0. 0. 0. 0. 0. 0. 0. 0. 0.
      0. 0. 0. 0. 0. 0. 0. 0. 0. 0. 0. 0. 0. 0. 0. 0. 0. 0. 0. 0. 0. 0.
      0. 0. 0. 0. 0. 0. 0. 0. 0. 0. 0. 0. 0. 0. 0. 0. 0.</_>
    <_>
      5.58140278e-001 7.60219321e-002 2.27486596e-001 0. 5.58140278e-001
      0. 0. 0. 5.58140278e-001 0. 0. 0. 0. 4.83218841e-002 0. 0. 0. 0.
      0. 0. 0. 0. 0. 0. 0. 0. 0. 0. 0. 0. 0. 0. 0. 0. 0. 0. 0. 0. 0. 0.
      0. 0. 0. 0. 0. 0. 0. 0. 0. 0. 0. 0. 0. 0. 0. 0. 0. 0. 0. 0. 0. 0.
      0. 0. 0. 0. 0. 0. 0. 0. 0. 0. 0. 0. 0. 0. 5.14020398e-002 0. 0. 0.
      0. 0. 0. 0. 0. 7.02659249e-001 0. 0. 0. 0. 0. 0. 0. 0.
      5.36991060e-002 0. 0. 0. 0. 0. 0. 0. 0. 7.02659249e-001 0. 0. 0.
      0. 0. 0. 0. 0. 0. 0. 0. 0. 0. 0. 0. 0. 0. 0. 0. 0. 0. 0.
      4.74545389e-001 0. 0. 0. 0. 0. 0. 0. 4.74545389e-001
      4.74545389e-001 0. 0. 0. 3.01368684e-001 0. 5.74087650e-002
      1.91850029e-002 4.74545389e-001 0. 0. 0. 0. 0. 0. 0. 0. 0. 0. 0.
      0. 0. 0. 0. 0. 0. 0. 5.51647365e-001 0. 0. 0. 5.51647365e-001 0.
      2.68407822e-001 8.96971822e-002 5.51647365e-001 0. 0. 0. 0.
      3.81864719e-002 0. 0. 0. 0. 0. 0. 0. 0. 5.22088781e-002 0. 0. 0.
      0. 0. 0. 0. 0. 6.94761515e-001 0. 0. 0. 0. 0. 0. 0. 0.
      5.20576425e-002 0. 0. 0. 0. 1.04277432e-001 0. 0. 0.
      6.94761515e-001 0. 2.10815594e-002 7.04510463e-003 1.04277432e-001
      3.30517739e-001 0. 0. 0. 0. 0. 0. 0. 3.30517739e-001
      3.30517739e-001 0. 0. 0. 3.30517739e-001 0. 3.08200009e-002
      1.02995038e-002 3.30517739e-001 2.76664883e-001 0. 0. 0. 0. 0. 0.
      0. 2.76664883e-001 3.00137579e-001 0. 0. 0. 3.30517739e-001 0.
      7.89974406e-002 2.63995621e-002 3.00137579e-001 2.14583144e-001 0.
      0. 0. 3.66739750e-001 0. 4.00526561e-002 1.33848954e-002
      2.14583144e-001 0. 0. 0. 0. 1.51515957e-002 0. 0. 0. 0.
      3.66739750e-001 0. 0. 0. 3.66739750e-001 0. 1.22177921e-001
      4.08297181e-002 3.66739750e-001 3.66739750e-001 0. 0. 0.
      2.77943254e-001 0. 3.54360081e-002 1.18420916e-002 3.66739750e-001
      0. 0. 0. 0. 4.12988476e-002 0. 0. 0. 0. 4.20161694e-001 0. 0. 0.
      4.20161694e-001 0. 8.13573748e-002 2.71882731e-002 4.20161694e-001
      2.86653340e-001 0. 0. 0. 4.20161694e-001 0. 5.01351692e-002
      1.67542938e-002 2.86653340e-001 1.89234719e-001 0. 0. 0.
      2.01814011e-001 0. 3.16389725e-002 1.05732158e-002 1.89234719e-001</_>
    <_>
      3.20807308e-001 2.32148655e-002 6.94676936e-002 0. 4.12834883e-002
      0. 2.10083388e-002 7.02061830e-003 3.20807308e-001 3.20807308e-001
      2.17733327e-002 6.51541129e-002 0. 6.51162025e-003 0.
      3.26269083e-002 1.09033389e-002 3.20807308e-001 3.20807308e-001
      1.28118861e-002 3.83379012e-002 0. 3.20807308e-001 0.
      8.82802680e-002 2.95017175e-002 3.20807308e-001 3.20807308e-001
      2.44035968e-003 7.30245840e-003 0. 1.18864290e-001 0.
      1.71110064e-001 5.71819767e-002 3.20807308e-001 3.44487131e-001
      1.91714894e-002 5.73684089e-002 0. 0. 0. 2.64215581e-002
      8.82962067e-003 3.44487131e-001 2.52304226e-001 1.35379676e-002
      4.05107625e-002 0. 0. 0. 1.28697958e-002 4.30085976e-003
      2.52304226e-001 3.66200089e-001 0. 0. 0. 0. 0. 1.98698029e-001
      6.64013997e-002 3.66200089e-001 3.66200089e-001 0. 0. 0. 0. 0.
      2.01061532e-001 6.71912357e-002 3.66200089e-001 2.31151804e-001
      1.44662717e-002 4.32886034e-002 0. 0. 0. 5.94953960e-003
      1.98823167e-003 2.31151804e-001 1.35103002e-001 9.72294714e-003
      2.90947706e-002 0. 4.74632392e-003 0. 0. 0. 1.35103002e-001
      4.22117084e-001 0. 0. 0. 0. 0. 2.63210058e-001 8.79601762e-002
      4.22117084e-001 4.22117084e-001 0. 0. 0. 0. 0. 2.31507242e-001
      7.73656592e-002 4.22117084e-001 1.94669127e-001 5.99134760e-003
      1.79283284e-002 0. 4.78385746e-001 0. 4.27306928e-002
      1.42798470e-002 1.94669127e-001 3.94298643e-001 1.14120939e-003
      3.41492030e-003 0. 2.45074645e-001 0. 9.48610306e-002
      3.17008905e-002 3.94298643e-001 0. 0. 0. 0. 4.78385746e-001 0. 0.
      0. 0. 0. 0. 0. 0. 2.79849738e-001 0. 0. 0. 0. 4.58408117e-001 0.
      0. 0. 0. 0. 2.30700687e-001 7.70961195e-002 4.58408117e-001
      4.58408117e-001 0. 0. 0. 0. 0. 2.93407351e-001 9.80515853e-002
      4.58408117e-001 0. 0. 0. 0. 0. 0. 0. 0. 0. 4.66088415e-004 0. 0.
      0. 0. 0. 0. 0. 4.66088415e-004 4.54785496e-001 0. 0. 0. 0. 0.
      2.58822262e-001 8.64938572e-002 4.54785496e-001 4.54785496e-001 0.
      0. 0. 0. 0. 2.78799146e-001 9.31697711e-002 4.54785496e-001
      9.65721626e-003 0. 0. 0. 0. 0. 1.93035044e-003 6.45089196e-004
      9.65721626e-003 5.88202961e-002 0. 0. 0. 0. 0. 1.15327314e-002
      3.85403610e-003 5.88202961e-002 0. 0. 0. 0. 6.08986795e-001 0. 0.
      0. 0. 0. 0. 0. 0. 3.38623464e-001 0. 0. 0. 0. 2.94070262e-002 0.
      0. 0. 6.08986795e-001 0. 9.53708813e-002 3.18712778e-002
      2.94070262e-002 1.51153159e-004 0. 0. 0. 3.54517460e-001 0. 0. 0.
      1.51153159e-004 0. 0. 0. 0. 0. 0. 0. 0. 0. 0. 0. 0. 0. 0. 0. 0. 0.
      0. 0. 0. 0. 0. 0. 0. 0. 0. 0. 0. 0. 0. 0. 0. 0. 0. 0. 0. 0. 0. 0.
      0. 0. 0. 0. 0. 0. 0. 0. 0. 0. 0. 0. 0. 0. 0. 0. 0. 0. 0. 0. 0. 0.
      0. 0. 0. 0. 0. 0. 0. 0. 0. 0. 0.</_>
    <_>
      1.84479903e-003 4.54342738e-003 1.35956667e-002 0. 6.13651633e-001
      0. 6.75123930e-002 2.25615148e-002 1.84479903e-003 0. 0. 0. 0.
      3.22024137e-001 0. 9.20623541e-003 3.07657011e-003 0. 0. 0. 0. 0.
      6.13651633e-001 0. 0. 0. 0. 0. 0. 0. 0. 3.62854302e-001 0. 0. 0.
      0. 0. 0. 0. 0. 0. 0. 0. 0. 0. 0. 0. 0. 0. 0. 0. 0. 0. 0. 0. 0. 0.
      0. 0. 0. 0. 0. 0. 5.40290594e-001 3.44764382e-001 5.40290594e-001
      0. 0. 0. 0. 0. 5.40290594e-001 0. 0. 0. 0. 0. 0. 0. 0. 0. 0. 0. 0.
      0. 0. 0. 0. 0. 0. 2.41830081e-001 8.80478024e-002 2.63472617e-001
      0. 0. 0. 0. 0. 2.41830081e-001 4.47603375e-001 4.47603375e-001
      4.47603375e-001 0. 0. 0. 0. 0. 4.47603375e-001 0. 0. 0. 0.
      4.29522812e-001 0. 0. 0. 0. 9.54301935e-003 3.24647175e-003
      9.71468072e-003 0. 2.31706694e-001 0. 0. 0. 9.54301935e-003
      1.32703960e-001 5.32008447e-002 1.59197226e-001 0. 4.29522812e-001
      0. 1.23983044e-002 4.14330605e-003 1.32703960e-001 3.54700416e-001
      1.43928066e-001 4.29522812e-001 0. 2.28807583e-001 0.
      2.36158213e-003 7.89201295e-004 3.54700416e-001 7.57579431e-002
      2.91053746e-002 8.70943964e-002 0. 0. 0. 0. 0. 7.57579431e-002
      2.47811764e-001 9.64216888e-002 2.88530499e-001 0. 0. 0. 0. 0.
      2.47811764e-001 3.30217451e-001 2.25400925e-001 3.30217451e-001 0.
      0. 0. 0. 0. 3.30217451e-001 3.30217451e-001 2.37390205e-001
      3.30217451e-001 0. 0. 0. 0. 0. 3.30217451e-001 2.77064830e-001
      1.23784624e-001 2.77064830e-001 0. 0. 0. 0. 0. 2.77064830e-001
      2.77064830e-001 1.79141998e-001 2.77064830e-001 0. 0. 0. 0. 0.
      2.77064830e-001 2.77064830e-001 1.56901374e-001 2.77064830e-001 0.
      0. 0. 0. 0. 2.77064830e-001 2.70424843e-001 1.06257044e-001
      2.77064830e-001 0. 0. 0. 0. 0. 2.70424843e-001 3.14497352e-001
      1.22596547e-001 3.14497352e-001 0. 3.14497352e-001 0.
      4.13996950e-002 1.38350865e-002 3.14497352e-001 3.14497352e-001
      2.04707429e-001 3.14497352e-001 0. 1.51149526e-001 0.
      7.88565818e-003 2.63525522e-003 3.14497352e-001 1.76240906e-001
      3.62345465e-002 1.08427525e-001 0. 2.12014377e-001 0.
      1.60998795e-002 5.38031105e-003 1.76240906e-001 2.13477001e-001
      3.31363566e-002 9.91565138e-002 0. 1.50605394e-002 0.
      3.06664431e-003 1.02482131e-003 2.13477001e-001 3.01557273e-001
      2.45211557e-001 3.01557273e-001 0. 0. 0. 0. 0. 3.01557273e-001
      3.01557273e-001 1.26351714e-001 3.01557273e-001 0. 0. 0. 0. 0.
      3.01557273e-001 3.01557273e-001 2.33201273e-002 6.97825029e-002 0.
      0. 0. 0. 0. 3.01557273e-001 3.01557273e-001 2.47792639e-002
      7.41487145e-002 0. 0. 0. 0. 0. 3.01557273e-001 2.54869491e-001
      9.78796259e-002 2.92893171e-001 0. 0. 0. 0. 0. 2.54869491e-001
      3.11159007e-002 1.17656514e-002 3.52073163e-002 0. 0. 0. 0. 0.
      3.11159007e-002 4.12873030e-001 5.15245348e-002 1.54180452e-001 0.
      0. 0. 0. 0. 4.12873030e-001 4.12873030e-001 7.69840255e-002
      2.30364665e-001 0. 0. 0. 0. 0. 4.12873030e-001</_>
    <_>
      2.93144044e-002 2.22220626e-002 6.64968863e-002 0. 6.14212334e-001
      0. 1.05720662e-001 3.53300795e-002 2.93144044e-002 1.35614275e-004
      0. 0. 0. 2.93762267e-001 0. 1.44164553e-002 4.81773773e-003
      1.35614275e-004 0. 0. 0. 0. 6.14212334e-001 0. 1.72972865e-002
      5.78046450e-003 0. 0. 0. 0. 0. 3.65278065e-001 0. 2.35872110e-003
      7.88245175e-004 0. 0. 0. 0. 0. 0. 0. 0. 0. 0. 0. 0. 0. 0. 0. 0. 0.
      0. 0. 0. 0. 0. 0. 0. 0. 0. 0. 0. 0. 0. 0. 0. 0. 0. 0. 0. 0. 0. 0.
      0. 0. 0. 0. 0. 0. 0. 0. 0. 0. 0. 0. 0. 0. 0. 0. 0. 0. 0. 0. 0. 0.
      0. 0. 0. 0. 0. 0. 0. 0. 0. 0. 0. 0. 2.58672331e-002 0. 0. 0.
      3.93381089e-001 0. 2.90137436e-003 9.69590910e-004 2.58672331e-002
      4.39821184e-002 0. 0. 0. 2.10752487e-001 0. 5.52642799e-004
      1.84684002e-004 4.39821184e-002 3.90656948e-001 0. 0. 0.
      3.93381089e-001 0. 3.33657861e-002 1.11502884e-002 3.90656948e-001
      3.93381089e-001 0. 0. 0. 1.44685224e-001 0. 6.35538902e-003
      2.12386483e-003 3.93381089e-001 7.75385574e-002 0. 0. 0. 0. 0. 0.
      0. 7.75385574e-002 8.10036212e-002 0. 0. 0. 0. 0. 0. 0.
      8.10036212e-002 4.92426157e-001 0. 0. 0. 0. 0. 0. 0.
      4.92426157e-001 4.92426157e-001 0. 0. 0. 0. 0. 0. 0.
      4.92426157e-001 7.75385574e-002 0. 0. 0. 0. 0. 0. 0.
      7.75385574e-002 8.10036212e-002 0. 0. 0. 0. 0. 0. 0.
      8.10036212e-002 4.92426157e-001 0. 0. 0. 0. 0. 0. 0.
      4.92426157e-001 4.92426157e-001 0. 0. 0. 0. 0. 0. 0.
      4.92426157e-001 2.89790183e-001 8.10207054e-003 2.42444072e-002 0.
      2.67304540e-001 0. 9.00502354e-002 3.00932173e-002 2.89790183e-001
      2.89790183e-001 1.65970456e-002 4.96645570e-002 0. 5.77179380e-002
      0. 2.94029843e-002 9.82596539e-003 2.89790183e-001 2.89790183e-001
      3.56952548e-002 1.06813475e-001 0. 6.96529821e-002 0.
      2.58890688e-001 8.65167156e-002 2.89790183e-001 2.89790183e-001
      7.05040842e-002 2.10974529e-001 0. 1.19960934e-001 0.
      2.70275891e-001 9.03214589e-002 2.89790183e-001 3.19024175e-001
      5.98839810e-003 1.79195292e-002 0. 1.30059309e-002 0.
      7.27030309e-003 2.42960802e-003 3.19024175e-001 3.19024175e-001 0.
      0. 0. 0. 0. 0. 0. 3.19024175e-001 3.19024175e-001 2.46452112e-002
      7.37477019e-002 0. 5.36651164e-002 0. 3.19024175e-001
      1.10382333e-001 3.19024175e-001 3.19024175e-001 0. 0. 0. 0. 0.
      2.30627745e-001 7.70717561e-002 3.19024175e-001 3.69069427e-001 0.
      0. 0. 0. 0. 0. 0. 3.69069427e-001 3.69069427e-001 0. 0. 0. 0. 0.
      0. 0. 3.69069427e-001 3.69069427e-001 0. 0. 0. 0. 0.
      2.15932012e-001 7.21606836e-002 3.69069427e-001 2.31217965e-001 0.
      0. 0. 2.93893507e-003 0. 1.35043591e-001 4.51291949e-002
      2.31217965e-001</_>
    <_>
      1.85968541e-002 3.90712693e-002 1.16916120e-001 0. 6.07722700e-001
      0. 0. 0. 1.85968541e-002 1.29813809e-004 0. 0. 0. 3.38666707e-001
      0. 0. 0. 1.29813809e-004 0. 0. 0. 0. 6.07722700e-001 0. 0. 0. 0.
      0. 0. 0. 0. 3.53122383e-001 0. 0. 0. 0. 0. 0. 0. 0. 0. 0. 0. 0. 0.
      0. 0. 0. 0. 0. 0. 0. 0. 0. 0. 0. 0. 0. 0. 0. 0. 0. 0. 0. 0. 0. 0.
      0. 0. 0. 0. 0. 0. 0. 0. 0. 0. 0. 0. 0. 0. 0. 0. 0. 0. 0. 0. 0. 0.
      0. 0. 0. 0. 0. 0. 0. 0. 0. 0. 0. 0. 0. 0. 0. 0. 0. 0. 0. 0. 0. 0.
      0. 5.52137136e-001 0. 0. 0. 0. 0. 0. 0. 0. 3.06930453e-001 0. 0.
      0. 0. 1.07787624e-001 1.95812937e-002 5.85946925e-002 0.
      5.52137136e-001 0. 9.23302863e-003 3.08552361e-003 1.07787624e-001
      2.65933663e-001 4.78916690e-002 1.43310145e-001 0. 3.14873070e-001
      0. 1.75867241e-003 5.87718969e-004 2.65933663e-001 0. 0. 0. 0. 0.
      0. 0. 0. 0. 3.08021624e-003 3.53274198e-004 1.05713122e-003 0. 0.
      0. 0. 0. 3.08021624e-003 3.98339838e-001 1.29278615e-001
      3.86851013e-001 0. 0. 0. 0. 0. 3.98339838e-001 3.98339838e-001
      1.90422162e-001 3.98339838e-001 0. 0. 0. 0. 0. 3.98339838e-001
      2.61053033e-002 4.12056316e-003 1.23302983e-002 0. 0. 0. 0. 0.
      2.61053033e-002 1.26279771e-001 2.14264560e-002 6.41161352e-002 0.
      0. 0. 0. 0. 1.26279771e-001 3.89094412e-001 1.44636482e-001
      3.89094412e-001 0. 0. 0. 0. 0. 3.89094412e-001 3.89094412e-001
      1.69797286e-001 3.89094412e-001 0. 0. 0. 0. 0. 3.89094412e-001
      3.08338612e-001 5.78250103e-002 1.73034474e-001 0. 3.08338612e-001
      0. 3.23589817e-002 1.08138323e-002 3.08338612e-001 3.08338612e-001
      1.03625417e-001 3.08338612e-001 0. 1.61565468e-001 0.
      6.16361760e-003 2.05977820e-003 3.08338612e-001 2.34200180e-001
      3.28480564e-002 9.82939154e-002 0. 1.80753633e-001 0.
      2.15726532e-002 7.20922090e-003 2.34200180e-001 3.02050471e-001
      4.27481681e-002 1.27918810e-001 0. 2.90269498e-002 0.
      4.10907762e-003 1.37318519e-003 3.02050471e-001 3.51074845e-001
      1.42913535e-001 3.51074845e-001 0. 0. 0. 0. 0. 3.51074845e-001
      3.51074845e-001 1.37577325e-001 3.51074845e-001 0. 0. 0. 0. 0.
      3.51074845e-001 2.80466735e-001 3.66005898e-002 1.09522939e-001 0.
      0. 0. 0. 0. 2.80466735e-001 1.49343729e-001 1.49940830e-002
      4.48680222e-002 0. 1.07807349e-002 0. 0. 0. 1.49343729e-001
      3.94921273e-001 1.78326085e-001 3.94921273e-001 0. 0. 0. 0. 0.
      3.94921273e-001 3.94921273e-001 1.39893502e-001 3.94921273e-001 0.
      0. 0. 0. 0. 3.94921273e-001 6.47345483e-002 5.08780079e-003
      1.52246412e-002 0. 1.63284559e-002 0. 0. 0. 6.47345483e-002
      9.01388121e-004 1.18720673e-004 3.55257565e-004 0. 3.46839253e-004
      0. 0. 0. 9.01388121e-004</_>
    <_>
      3.36660929e-002 3.30674127e-002 9.89503041e-002 0. 5.57823598e-001
      0. 0. 0. 3.36660929e-002 5.49871067e-004 2.61376816e-004
      7.82139192e-004 0. 4.14142907e-001 0. 0. 0. 5.49871067e-004 0. 0.
      0. 0. 5.57823598e-001 0. 0. 0. 0. 0. 0. 0. 0. 4.32929784e-001 0.
      0. 0. 0. 0. 0. 0. 0. 0. 0. 0. 0. 0. 0. 0. 0. 0. 0. 0. 0. 0. 0. 0.
      0. 0. 0. 0. 0. 0. 0. 0. 0. 0. 0. 0. 0. 0. 0. 0. 0. 0. 0. 0. 0. 0.
      0. 0. 0. 0. 0. 0. 0. 0. 0. 0. 0. 0. 0. 0. 0. 0. 0. 0. 0. 0. 0. 0.
      0. 0. 0. 0. 0. 0. 0. 0. 0. 0. 0. 0. 0. 4.14923102e-001 0. 0. 0. 0.
      0. 0. 0. 0. 3.08525860e-001 0. 0. 0. 0. 2.60041505e-001
      1.24545088e-002 3.72686386e-002 0. 4.14923102e-001 0.
      2.64463574e-002 8.83793086e-003 2.60041505e-001 4.14923102e-001
      1.99420564e-002 5.96742369e-002 0. 2.65423983e-001 0.
      6.61158841e-003 2.20948225e-003 4.14923102e-001 0. 0. 0. 0. 0. 0.
      0. 0. 0. 8.39051045e-003 0. 0. 0. 0. 0. 0. 0. 8.39051045e-003
      4.83393669e-001 4.35427502e-002 1.30296513e-001 0. 0. 0. 0. 0.
      4.83393669e-001 4.83393669e-001 6.45525530e-002 1.93165854e-001 0.
      0. 0. 0. 0. 4.83393669e-001 2.19160356e-002 5.19980851e-004
      1.55598123e-003 0. 0. 0. 0. 0. 2.19160356e-002 5.47660403e-002
      2.13690102e-003 6.39442261e-003 0. 0. 0. 0. 0. 5.47660403e-002
      4.85741824e-001 4.68414053e-002 1.40167341e-001 0. 0. 0. 0. 0.
      4.85741824e-001 4.85741824e-001 4.75632511e-002 1.42327398e-001 0.
      0. 0. 0. 0. 4.85741824e-001 3.16982597e-001 1.61060281e-002
      4.81953770e-002 0. 3.16982597e-001 0. 3.52028795e-002
      1.17642116e-002 3.16982597e-001 3.16982597e-001 2.47709658e-002
      7.41241872e-002 0. 1.00619845e-001 0. 8.55003111e-003
      2.85727717e-003 3.16982597e-001 3.16982597e-001 1.40052405e-003
      4.19090176e-003 0. 5.38919633e-003 0. 1.96750134e-001
      6.57504350e-002 3.16982597e-001 3.16982597e-001 1.88831170e-003
      5.65054920e-003 0. 1.10408978e-003 0. 1.61899060e-001
      5.41038290e-002 3.16982597e-001 3.48561913e-001 2.98126861e-002
      8.92109200e-002 0. 0. 0. 0. 0. 3.48561913e-001 3.48561913e-001
      3.91122550e-002 1.17038772e-001 0. 0. 0. 0. 0. 3.48561913e-001
      3.48561913e-001 1.37477671e-003 4.11385624e-003 0. 0. 0.
      1.42954528e-001 4.77728993e-002 3.48561913e-001 3.22235316e-001
      5.55294158e-004 1.66165188e-003 0. 0. 0. 1.08380638e-001
      3.62189077e-002 3.22235316e-001 4.08652991e-001 4.05218154e-002
      1.21256731e-001 0. 0. 0. 0. 0. 4.08652991e-001 4.08652991e-001
      3.61117907e-002 1.08060263e-001 0. 0. 0. 0. 0. 4.08652991e-001
      3.15323979e-001 0. 0. 0. 0. 0. 1.08942352e-001 3.64066288e-002
      3.15323979e-001 2.00195163e-001 0. 0. 0. 3.89270205e-003 0.
      7.57488608e-002 2.53139418e-002 2.00195163e-001</_>
    <_>
      1.93305744e-003 7.38425925e-003 2.20965203e-002 0. 2.76259154e-001
      0. 0. 0. 1.93305744e-003 7.17934743e-002 1.11655861e-001
      3.34116906e-001 0. 5.48723578e-001 0. 0. 0. 7.17934743e-002 0.
      6.90560555e-003 2.06642058e-002 0. 4.09252465e-001 0. 0. 0. 0. 0.
      3.62544395e-002 1.08487114e-001 0. 5.48723578e-001 0. 0. 0. 0.
      5.98828234e-002 7.95173496e-002 2.37946153e-001 0. 4.77187246e-001
      0. 0. 0. 5.98828234e-002 1.39076887e-002 2.51627378e-002
      7.52963722e-002 0. 4.77187246e-001 0. 0. 0. 1.39076887e-002 0.
      2.08870489e-002 6.25018999e-002 0. 4.77187246e-001 0. 0. 0. 0. 0.
      1.80898588e-002 5.41315414e-002 0. 4.77187246e-001 0. 0. 0. 0.
      2.52483389e-003 2.44701765e-002 7.32238293e-002 0. 6.97496891e-001
      0. 0. 0. 2.52483389e-003 0. 0. 0. 0. 0. 0. 0. 0. 0. 0.
      3.75827849e-002 1.12461597e-001 0. 6.97496891e-001 0. 0. 0. 0. 0.
      0. 0. 0. 0. 0. 0. 0. 0. 0. 1.94600667e-003 5.82319405e-003 0.
      3.88159096e-001 0. 0. 0. 0. 0. 1.02165369e-002 3.05717792e-002 0.
      5.13907850e-001 0. 0. 0. 0. 2.49576598e-001 1.56441163e-002
      4.68131639e-002 0. 3.79643440e-001 0. 0. 0. 2.49576598e-001
      1.30175442e-001 3.15158032e-002 9.43073109e-002 0. 5.13907850e-001
      0. 0. 0. 1.30175442e-001 0. 7.84817059e-003 2.34846715e-002 0.
      4.76546526e-001 0. 0. 0. 0. 0. 6.98215887e-003 2.08932012e-002 0.
      4.76546526e-001 0. 0. 0. 0. 4.09524068e-002 2.34355666e-002
      7.01280013e-002 0. 4.76546526e-001 0. 7.79360114e-003
      2.60449108e-003 4.09524068e-002 1.85054317e-001 2.87439991e-002
      8.60127807e-002 0. 4.76546526e-001 0. 1.16904015e-002
      3.90673708e-003 1.85054317e-001 0. 4.51458339e-003 1.35093024e-002
      0. 4.06221956e-001 0. 0. 0. 0. 0. 0. 0. 0. 0. 0. 0. 0. 0.
      4.06221956e-001 2.26392802e-002 6.77452236e-002 0. 4.06221956e-001
      0. 6.91455323e-003 2.31072819e-003 4.06221956e-001 4.06221956e-001
      6.98781805e-003 2.09102184e-002 0. 0. 0. 0. 0. 4.06221956e-001
      3.24261993e-001 2.85064187e-002 8.53020847e-002 0. 1.29320771e-001
      0. 6.74499618e-003 2.25405931e-003 3.24261993e-001 2.59526134e-001
      4.90094647e-002 1.46655008e-001 0. 3.24261993e-001 0.
      4.76664645e-005 1.59292940e-005 2.59526134e-001 3.24261993e-001
      1.07140429e-002 3.20605002e-002 0. 8.94219521e-003 0.
      2.00722158e-001 6.70778155e-002 3.24261993e-001 3.24261993e-001
      1.48274116e-002 4.43692766e-002 0. 3.69656570e-002 0.
      1.57829762e-001 5.27439378e-002 3.24261993e-001 1.35473177e-001
      3.80895622e-002 1.13978408e-001 0. 3.28814059e-001 0.
      2.40253303e-002 8.02886393e-003 1.35473177e-001 3.28814059e-001
      4.10398319e-002 1.22806668e-001 0. 3.28814059e-001 0.
      3.60379964e-002 1.20432954e-002 3.28814059e-001 3.28814059e-001
      8.47441144e-003 2.53586713e-002 0. 6.26166835e-002 0.
      1.75407737e-001 5.86181842e-002 3.28814059e-001 3.28814059e-001
      8.73921253e-003 2.61510573e-002 0. 5.61723672e-002 0.
      1.30771384e-001 4.37015072e-002 3.28814059e-001 3.48150343e-001
      1.27813071e-002 3.82465199e-002 0. 1.19937025e-001 0.
      6.54051732e-003 2.18573166e-003 3.48150343e-001 3.48150343e-001
      5.63251646e-003 1.68546382e-002 0. 0. 0. 0. 0. 3.48150343e-001
      3.48150343e-001 3.27018346e-003 9.78563633e-003 0. 9.32362024e-003
      0. 8.17115605e-002 2.73065735e-002 3.48150343e-001 3.48150343e-001
      1.40812900e-003 4.21365909e-003 0. 2.44406564e-003 0.
      5.05114794e-002 1.68800503e-002 3.48150343e-001</_>
    <_>
      0. 0. 0. 0. 4.97826904e-001 0. 0. 0. 0. 0. 0. 0. 0.
      4.97826904e-001 0. 0. 0. 0. 0. 9.45359189e-003 2.82887518e-002 0.
      4.97826904e-001 0. 0. 0. 0. 0. 1.68063845e-002 5.02911098e-002 0.
      4.97826904e-001 0. 0. 0. 0. 0. 0. 0. 0. 4.98716921e-001 0. 0. 0.
      0. 0. 0. 0. 0. 4.98716921e-001 0. 0. 0. 0. 0. 3.81171447e-003
      1.14061031e-002 0. 4.98716921e-001 0. 0. 0. 0. 0. 0. 0. 0.
      4.98716921e-001 0. 0. 0. 0. 0. 0. 0. 0. 0. 0. 0. 0. 0. 0. 0. 0. 0.
      0. 0. 0. 0. 0. 1.39791638e-001 6.30949810e-002 1.88804254e-001 0.
      0. 0. 0. 0. 1.39791638e-001 4.78671998e-001 4.78671998e-001
      4.78671998e-001 0. 0. 0. 0. 0. 4.78671998e-001 0. 1.16435941e-002
      3.48420739e-002 0. 4.93294567e-001 0. 0. 0. 0. 3.14915815e-004
      2.08359398e-002 6.23490922e-002 0. 4.93294567e-001 0.
      3.43195832e-004 1.14690331e-004 3.14915815e-004 3.74587886e-002
      2.25090552e-002 6.73556700e-002 0. 4.93294567e-001 0. 0. 0.
      3.74587886e-002 3.87668498e-002 2.26630792e-002 6.78165779e-002 0.
      4.93294567e-001 0. 8.23670998e-003 2.75257090e-003 3.87668498e-002
      1.15699787e-002 9.46851261e-003 2.83334032e-002 0. 3.69909614e-001
      0. 1.05942914e-003 3.54043499e-004 1.15699787e-002 8.35120454e-002
      3.97263728e-002 1.18876435e-001 0. 3.69909614e-001 0.
      5.95928926e-004 1.99149479e-004 8.35120454e-002 1.25883818e-001
      5.18078990e-002 1.55028999e-001 0. 3.69909614e-001 0.
      2.54263245e-002 8.49705189e-003 1.25883818e-001 3.16605121e-001
      1.46571755e-001 3.69909614e-001 0. 3.69909614e-001 0.
      1.43023087e-002 4.77959262e-003 3.16605121e-001 2.35314488e-001
      1.13249615e-001 2.79635251e-001 0. 0. 0. 0. 0. 2.35314488e-001
      2.79635251e-001 1.85154915e-001 2.79635251e-001 0. 0. 0. 0. 0.
      2.79635251e-001 2.79635251e-001 1.95817769e-001 2.79635251e-001 0.
      0. 0. 0. 0. 2.79635251e-001 2.79635251e-001 1.38016760e-001
      2.79635251e-001 0. 0. 0. 0. 0. 2.79635251e-001 2.98131198e-001
      1.70464665e-001 3.01525921e-001 0. 3.01525921e-001 0. 0. 0.
      2.98131198e-001 1.37054995e-001 8.39127302e-002 2.51098871e-001 0.
      3.01525921e-001 0. 7.53552653e-003 2.51824735e-003 1.37054995e-001
      3.01525921e-001 1.63069218e-001 3.01525921e-001 0. 6.98210448e-002
      0. 0. 0. 3.01525921e-001 1.87416643e-001 5.28113432e-002
      1.58031628e-001 0. 8.63381252e-002 0. 0. 0. 1.87416643e-001
      2.49619976e-001 9.82756466e-002 2.90411562e-001 0. 2.90411562e-001
      0. 5.47933280e-002 1.83110144e-002 2.49619976e-001 2.90411562e-001
      1.80600464e-001 2.90411562e-001 0. 2.85465091e-001 0.
      3.08212508e-002 1.02999471e-002 2.90411562e-001 2.70104408e-001
      1.73223671e-002 5.18349893e-002 0. 3.25214826e-002 0. 0. 0.
      2.70104408e-001 2.90411562e-001 2.00203992e-002 5.99084347e-002 0.
      0. 0. 0. 0. 2.90411562e-001 3.58893365e-001 1.80820331e-001
      3.58893365e-001 0. 0. 0. 0. 0. 3.58893365e-001 7.12229609e-002
      3.44939455e-002 1.03219040e-001 0. 0. 0. 0. 0. 7.12229609e-002
      3.58893365e-001 4.24987003e-002 1.27171829e-001 0. 0. 0. 0. 0.
      3.58893365e-001 3.58893365e-001 4.71386872e-002 1.41056374e-001 0.
      0. 0. 0. 0. 3.58893365e-001</_>
    <_>
      0. 0. 0. 0. 5.12887165e-002 0. 0. 0. 0. 0. 6.14506612e-003
      1.83883794e-002 0. 7.01740086e-001 0. 0. 0. 0. 0. 5.52743964e-004
      1.65402074e-003 0. 5.79248406e-002 0. 0. 0. 0. 0. 1.32658686e-002
      3.96965407e-002 0. 7.01740086e-001 0. 0. 0. 0. 0. 3.87287815e-003
      1.15891201e-002 0. 4.97289658e-001 0. 0. 0. 0. 0. 2.13081259e-002
      6.37618005e-002 0. 4.97289658e-001 0. 0. 0. 0. 0. 5.87240281e-003
      1.75724663e-002 0. 4.97289658e-001 0. 0. 0. 0. 0. 9.14736744e-003
      2.73723062e-002 0. 4.97289658e-001 0. 0. 0. 0. 0. 4.13883850e-002
      1.23849347e-001 0. 6.97439492e-001 0. 0. 0. 0. 0. 0. 0. 0. 0. 0.
      0. 0. 0. 0. 1.77676212e-002 5.31672947e-002 0. 6.97439492e-001 0.
      0. 0. 0. 0. 0. 0. 0. 0. 0. 0. 0. 0. 0. 1.53509341e-003
      4.59358515e-003 0. 8.52938443e-002 0. 0. 0. 0. 0. 3.68422829e-002
      1.10246144e-001 0. 6.13864064e-001 0. 0. 0. 0. 1.71890944e-001
      4.36124578e-002 1.30505115e-001 0. 1.31632209e-001 0. 0. 0.
      1.71890944e-001 1.92476660e-001 7.08402842e-002 2.11981148e-001 0.
      6.13864064e-001 0. 0. 0. 1.92476660e-001 1.51521104e-004
      1.89939551e-002 5.68371490e-002 0. 4.62996393e-001 0.
      2.78458203e-004 9.30560855e-005 1.51521104e-004 2.25406885e-002
      1.73344500e-002 5.18711470e-002 0. 4.62996393e-001 0.
      3.20226769e-003 1.07014435e-003 2.25406885e-002 3.72716561e-002
      2.09535379e-002 6.27009496e-002 0. 4.62996393e-001 0.
      3.20226769e-003 1.07014435e-003 3.72716561e-002 1.97473586e-001
      6.62144795e-002 1.98138684e-001 0. 4.62996393e-001 0.
      3.68260592e-002 1.23066530e-002 1.97473586e-001 8.32220390e-002
      2.78567653e-002 8.33579525e-002 0. 3.23632300e-001 0.
      2.05035880e-003 6.85195671e-004 8.32220390e-002 2.01684117e-001
      4.99120019e-002 1.49355754e-001 0. 0. 0. 0. 0. 2.01684117e-001
      3.23632300e-001 1.17759861e-001 3.23632300e-001 0. 3.23632300e-001
      0. 2.35791095e-002 7.87974522e-003 3.23632300e-001 3.23632300e-001
      1.29018009e-001 3.23632300e-001 0. 0. 0. 0. 0. 3.23632300e-001
      2.84616292e-001 1.18414775e-001 2.84616292e-001 0. 4.25416678e-002
      0. 0. 0. 2.84616292e-001 2.84616292e-001 9.81173217e-002
      2.84616292e-001 0. 2.84616292e-001 0. 0. 0. 2.84616292e-001
      2.84616292e-001 7.93405622e-002 2.37417236e-001 0. 2.31595431e-003
      0. 1.29116867e-002 4.31485893e-003 2.84616292e-001 2.84616292e-001
      4.01853547e-002 1.20249897e-001 0. 3.88498567e-002 0.
      1.30637642e-002 4.36568074e-003 2.84616292e-001 2.32386589e-001
      7.33937398e-002 2.19622031e-001 0. 3.41315955e-001 0.
      5.69234835e-003 1.90228783e-003 2.32386589e-001 3.29677194e-001
      8.33219588e-002 2.49330908e-001 0. 3.41315955e-001 0.
      6.54619709e-002 2.18762960e-002 3.29677194e-001 3.41315955e-001
      2.35329662e-002 7.04196170e-002 0. 7.47816712e-002 0.
      2.80633774e-002 9.37828794e-003 3.41315955e-001 1.80484861e-001 0.
      0. 0. 0. 0. 2.25127097e-002 7.52335181e-003 1.80484861e-001
      3.50141019e-001 1.99940696e-001 3.50141019e-001 0. 3.50141019e-001
      0. 5.72085306e-002 1.91181358e-002 3.50141019e-001 3.50141019e-001
      1.53083071e-001 3.50141019e-001 0. 0. 0. 0. 0. 3.50141019e-001
      1.73351675e-001 0. 0. 0. 1.44854467e-002 0. 2.06870353e-003
      6.91324356e-004 1.73351675e-001 7.12602213e-002 0. 0. 0.
      2.80907564e-002 0. 0. 0. 7.12602213e-002</_>
    <_>
      5.74192079e-003 1.75690800e-002 5.25733866e-002 0. 4.84117180e-001
      0. 0. 0. 5.74192079e-003 4.44127209e-002 7.06874505e-002
      2.11523816e-001 0. 4.84117180e-001 0. 0. 0. 4.44127209e-002 0.
      4.56811534e-003 1.36695439e-002 0. 4.84117180e-001 0. 0. 0. 0. 0.
      8.12109374e-003 2.43014116e-002 0. 4.84117180e-001 0. 0. 0. 0.
      3.46384458e-002 4.07318585e-002 1.21885255e-001 0. 4.93979663e-001
      0. 0. 0. 3.46384458e-002 2.38784309e-003 2.11294321e-003
      6.32273266e-003 0. 4.93979663e-001 0. 0. 0. 2.38784309e-003 0.
      1.79819798e-003 5.38089406e-003 0. 4.93979663e-001 0. 0. 0. 0. 0.
      0. 0. 0. 4.93979663e-001 0. 0. 0. 0. 0. 0. 0. 0. 0. 0. 0. 0. 0. 0.
      0. 0. 0. 0. 0. 0. 0. 0. 0. 0. 0. 0. 0. 0. 0. 0. 0. 0. 0. 0. 0. 0.
      0. 0. 0. 0. 0. 1.02502871e-002 3.06727700e-002 0. 4.03717369e-001
      0. 0. 0. 0. 0. 1.82227343e-002 5.45293689e-002 0. 4.03717369e-001
      0. 0. 0. 0. 3.77769917e-001 1.77654028e-002 5.31608723e-002 0.
      4.03717369e-001 0. 3.64609323e-002 1.21846339e-002 3.77769917e-001
      1.54359713e-001 1.39307724e-002 4.16861810e-002 0. 4.03717369e-001
      0. 5.92405070e-003 1.97971892e-003 1.54359713e-001 0.
      4.10199910e-003 1.22747449e-002 0. 4.01497513e-001 0. 0. 0. 0. 0.
      0. 0. 0. 4.01497513e-001 0. 0. 0. 0. 1.50114477e-001
      2.88576446e-003 8.63530859e-003 0. 4.01497513e-001 0.
      5.53015880e-002 1.84808671e-002 1.50114477e-001 3.87069970e-001 0.
      0. 0. 4.01497513e-001 0. 5.03898971e-002 1.68394633e-002
      3.87069970e-001 0. 0. 0. 0. 0. 0. 0. 0. 0. 0. 0. 0. 0. 0. 0. 0. 0.
      0. 4.97932732e-001 0. 0. 0. 0. 0. 1.61232781e-002 5.38813043e-003
      4.97932732e-001 4.97932732e-001 0. 0. 0. 0. 0. 5.18613532e-002
      1.73311979e-002 4.97932732e-001 2.92968571e-001 1.48785515e-002
      4.45223041e-002 0. 1.77871197e-001 0. 1.62551507e-001
      5.43219000e-002 2.92968571e-001 2.72850931e-001 7.89779797e-003
      2.36332249e-002 0. 2.92968571e-001 0. 6.45257011e-002
      2.15633623e-002 2.72850931e-001 2.92968571e-001 6.19940052e-004
      1.85509690e-003 0. 5.48547949e-004 0. 2.92968571e-001
      9.79323238e-002 2.92968571e-001 2.92968571e-001 3.29075061e-004
      9.84718092e-004 0. 2.16068327e-002 0. 2.73251027e-001
      9.13156867e-002 2.92968571e-001 2.61498451e-001 1.77394727e-003
      5.30832680e-003 0. 3.01764190e-001 0. 9.49991047e-002
      3.17470990e-002 2.61498451e-001 3.01764190e-001 0. 0. 0.
      1.84810728e-001 0. 7.14065656e-002 2.38628816e-002 3.01764190e-001
      3.01764190e-001 7.39145034e-005 2.21180395e-004 0. 6.52759597e-002
      0. 2.81662762e-001 9.41267684e-002 3.01764190e-001 3.01764190e-001
      0. 0. 0. 2.30632015e-002 0. 2.68119842e-001 8.96009430e-002
      3.01764190e-001 3.57334614e-001 0. 0. 0. 0. 0. 9.67610162e-003
      3.23359156e-003 3.57334614e-001 3.57334614e-001 0. 0. 0. 0. 0.
      3.65239717e-002 1.22056995e-002 3.57334614e-001 3.57334614e-001 0.
      0. 0. 0. 0. 2.17746034e-001 7.27669075e-002 3.57334614e-001
      2.80206949e-001 0. 0. 0. 2.14518281e-003 0. 1.30629823e-001
      4.36541960e-002 2.80206949e-001</_>
    <_>
      3.00552696e-001 8.14896077e-002 2.43847981e-001 0. 1.05181765e-002
      0. 1.77563727e-002 5.93386823e-003 3.00552696e-001 3.00552696e-001
      7.21309334e-002 2.15843290e-001 0. 1.11125316e-002 0.
      6.63678581e-003 2.21789721e-003 3.00552696e-001 3.00552696e-001
      1.31070539e-002 3.92212979e-002 0. 3.00552696e-001 0.
      9.67889130e-002 3.23451571e-002 3.00552696e-001 2.61671424e-001
      1.27566298e-002 3.81725840e-002 0. 3.00552696e-001 0.
      6.79045543e-002 2.26925109e-002 2.61671424e-001 3.13431412e-001
      7.12485686e-002 2.13202894e-001 0. 3.70555767e-003 0.
      8.56066868e-003 2.86082551e-003 3.13431412e-001 3.13431412e-001
      5.04901819e-002 1.51085898e-001 0. 0. 0. 2.75617233e-003
      9.21064522e-004 3.13431412e-001 3.13431412e-001 8.90312623e-003
      2.66414527e-002 0. 3.13431412e-001 0. 1.27879784e-001
      4.27351743e-002 3.13431412e-001 3.13431412e-001 0. 0. 0. 0. 0.
      1.26305535e-001 4.22090963e-002 3.13431412e-001 3.20101142e-001
      5.18618450e-002 1.55190453e-001 0. 0. 0. 2.55217717e-004
      8.52892845e-005 3.20101142e-001 1.94674358e-001 3.25509086e-002
      9.74047482e-002 0. 2.51399539e-003 0. 0. 0. 1.94674358e-001
      3.95437151e-001 0. 0. 0. 0. 0. 1.61765054e-001 5.40590435e-002
      3.95437151e-001 3.95437151e-001 0. 0. 0. 0. 0. 1.45158216e-001
      4.85093333e-002 3.95437151e-001 1.44137800e-001 4.75027715e-004
      1.42145844e-003 0. 4.79111403e-001 0. 3.91891971e-002
      1.30963409e-002 1.44137800e-001 1.26584932e-001 5.46281505e-003
      1.63467620e-002 0. 4.79111403e-001 0. 3.57160680e-002
      1.19356839e-002 1.26584932e-001 0. 0. 0. 0. 4.79111403e-001 0. 0.
      0. 0. 0. 0. 0. 0. 4.79111403e-001 0. 0. 0. 0. 4.00437653e-001
      7.10743247e-003 2.12680679e-002 0. 4.00437653e-001 0.
      1.12712711e-001 3.76666039e-002 4.00437653e-001 4.00437653e-001 0.
      0. 0. 0. 0. 1.31545916e-001 4.39603366e-002 4.00437653e-001 0. 0.
      0. 0. 4.00437653e-001 0. 0. 0. 0. 4.19131061e-003 0. 0. 0. 0. 0.
      0. 0. 4.19131061e-003 4.74691838e-001 0. 0. 0. 0. 0.
      1.87077314e-001 6.25179410e-002 4.74691838e-001 4.74691838e-001 0.
      0. 0. 0. 0. 1.98203877e-001 6.62362501e-002 4.74691838e-001
      2.45205220e-002 0. 0. 0. 0. 0. 2.98221502e-003 9.96603863e-004
      2.45205220e-002 7.06576481e-002 0. 0. 0. 0. 0. 1.17471209e-002
      3.92568158e-003 7.06576481e-002 0. 0. 0. 0. 4.89279419e-001 0. 0.
      0. 0. 0. 0. 0. 0. 4.89279419e-001 0. 0. 0. 0. 2.88717402e-003 0.
      0. 0. 4.89279419e-001 0. 1.22961998e-001 4.10917513e-002
      2.88717402e-003 5.64693753e-003 0. 0. 0. 4.89279419e-001 0.
      1.36281922e-001 4.55430299e-002 5.64693753e-003 0. 0. 0. 0.
      7.02556491e-001 0. 0. 0. 0. 0. 0. 0. 0. 0. 0. 0. 0. 0.
      5.50760841e-003 0. 0. 0. 7.02556491e-001 0. 7.19498917e-002
      2.40443908e-002 5.50760841e-003 0. 0. 0. 0. 0. 0. 0. 0. 0. 0. 0.
      0. 0. 0. 0. 0. 0. 0. 0. 0. 0. 0. 0. 0. 0. 0. 0. 0. 0. 0. 0. 0. 0.
      0. 0. 0. 0. 0. 0. 0. 0. 0. 0. 0. 0.</_>
    <_>
      3.23055595e-001 2.53394060e-002 7.58251622e-002 0. 4.54590768e-002
      0. 1.07839316e-001 3.60380039e-002 3.23055595e-001 3.23055595e-001
      1.66098960e-002 4.97031361e-002 0. 1.41362622e-001 0.
      6.12026490e-002 2.04528496e-002 3.23055595e-001 3.23055595e-001 0.
      0. 0. 3.08259666e-001 0. 1.37857601e-001 4.60695848e-002
      3.23055595e-001 2.14458808e-001 1.31915731e-003 3.94740654e-003 0.
      3.23055595e-001 0. 9.38155353e-002 3.13515030e-002 2.14458808e-001
      2.92087972e-001 2.07933486e-002 6.22215830e-002 0. 1.26947269e-001
      0. 2.80997381e-002 9.39043984e-003 2.92087972e-001 3.40438873e-001
      1.73769444e-002 5.19984104e-002 0. 6.21773601e-002 0.
      5.16713373e-002 1.72676556e-002 3.40438873e-001 1.85682848e-001
      1.01853991e-002 3.04784812e-002 0. 3.40438873e-001 0.
      5.98887689e-002 2.00137757e-002 1.85682848e-001 3.40438873e-001
      9.40190814e-003 2.81339847e-002 0. 3.40438873e-001 0.
      1.48704886e-001 4.96945679e-002 3.40438873e-001 3.57877940e-001
      1.16649736e-002 3.49060483e-002 0. 0. 0. 5.56735769e-002
      1.86051279e-002 3.57877940e-001 2.58680940e-001 7.56139448e-003
      2.26265751e-002 0. 3.91953951e-003 0. 4.07666489e-002
      1.36234993e-002 2.58680940e-001 3.57877940e-001 0. 0. 0. 0. 0.
      1.93076566e-001 6.45228028e-002 3.57877940e-001 3.57877940e-001 0.
      0. 0. 0. 0. 2.02218682e-001 6.75779283e-002 3.57877940e-001
      7.62604699e-002 1.97950401e-004 5.92343102e-004 0. 4.92802709e-001
      0. 2.54309438e-002 8.49857461e-003 7.62604699e-002 4.57306691e-002
      9.73733666e-004 2.91377702e-003 0. 4.92802709e-001 0.
      2.11005826e-002 7.05144322e-003 4.57306691e-002 0. 9.34843067e-003
      2.79740710e-002 0. 4.92802709e-001 0. 0. 0. 0. 0. 2.40388233e-002
      7.19333291e-002 0. 4.92802709e-001 0. 0. 0. 0. 4.38468382e-002
      2.71565723e-003 8.12625326e-003 0. 4.83341366e-001 0.
      1.34011572e-002 4.47843131e-003 4.38468382e-002 1.64621502e-001
      2.38195970e-003 7.12770410e-003 0. 4.83341366e-001 0.
      4.15123701e-002 1.38727026e-002 1.64621502e-001 0. 6.38505677e-003
      1.91065222e-002 0. 4.83341366e-001 0. 0. 0. 0. 0. 0. 0. 0.
      4.83341366e-001 0. 0. 0. 0. 4.56644118e-001 0. 0. 0. 0. 0.
      2.31232047e-001 7.72737041e-002 4.56644118e-001 4.56644118e-001 0.
      0. 0. 0. 0. 3.02765071e-001 1.01178773e-001 4.56644118e-001 0. 0.
      0. 0. 0. 0. 0. 0. 0. 0. 0. 0. 0. 0. 0. 0. 0. 0. 0. 8.10669735e-003
      2.42583305e-002 0. 4.53664988e-001 0. 8.52605235e-003
      2.84925709e-003 0. 0. 2.08457969e-002 6.23785779e-002 0.
      4.53664988e-001 0. 2.19241381e-002 7.32666161e-003 0.
      2.05747131e-003 0. 0. 0. 4.53664988e-001 0. 7.76959881e-002
      2.59646364e-002 2.05747131e-003 4.64763381e-002 0. 0. 0.
      4.53664988e-001 0. 3.74107510e-001 1.25020161e-001 4.64763381e-002
      0. 5.59374737e-003 1.67386252e-002 0. 4.84547526e-001 0.
      5.88310882e-003 1.96603173e-003 0. 0. 0. 0. 0. 4.84547526e-001 0.
      0. 0. 0. 4.23896946e-002 0. 0. 0. 4.84547526e-001 0.
      2.15557903e-001 7.20356628e-002 4.23896946e-002 4.05156286e-003 0.
      0. 0. 4.84547526e-001 0. 1.85920577e-002 6.21314021e-003
      4.05156286e-003 0. 0. 0. 0. 0. 0. 0. 0. 0. 0. 0. 0. 0. 0. 0. 0. 0.
      0. 0. 0. 0. 0. 0. 0. 0. 0. 0. 0. 0. 0. 0. 0. 0. 0. 0. 0.</_>
    <_>
      3.04623336e-001 8.21396932e-002 2.45793238e-001 0. 6.64147083e-004
      0. 1.77525915e-003 5.93260396e-004 3.04623336e-001 3.04623336e-001
      8.38056356e-002 2.50778407e-001 0. 4.44199005e-003 0.
      2.44786707e-003 8.18034227e-004 3.04623336e-001 3.04623336e-001
      4.13234085e-002 1.23655282e-001 0. 6.32048100e-002 0.
      2.04154681e-002 6.82249153e-003 3.04623336e-001 3.04623336e-001
      1.53835863e-002 4.60335575e-002 0. 3.04623336e-001 0.
      2.81504523e-002 9.40738712e-003 3.04623336e-001 3.07335407e-001
      1.14024140e-001 3.07335407e-001 0. 8.07132758e-003 0.
      1.74788863e-003 5.84113644e-004 3.07335407e-001 3.07335407e-001
      9.25028771e-002 2.76803911e-001 0. 1.52309611e-002 0. 0. 0.
      3.07335407e-001 1.46385878e-001 1.15054529e-002 3.44286598e-002 0.
      3.07335407e-001 0. 2.01007072e-002 6.71730330e-003 1.46385878e-001
      3.07335407e-001 1.93572287e-002 5.79239950e-002 0. 3.07335407e-001
      0. 0. 0. 3.07335407e-001 3.31550688e-001 6.09117933e-002
      1.82271242e-001 0. 5.38473018e-003 0. 0. 0. 3.31550688e-001
      3.31550688e-001 3.82608101e-002 1.14490874e-001 0. 7.61827081e-003
      0. 1.43304025e-003 4.78898146e-004 3.31550688e-001 3.31550688e-001
      2.77158692e-002 8.29361379e-002 0. 2.35500768e-001 0. 0. 0.
      3.31550688e-001 3.31550688e-001 1.60951763e-002 4.81627174e-002 0.
      0. 0. 0. 0. 3.31550688e-001 4.30761099e-001 9.06088203e-003
      2.71135122e-002 0. 2.04020187e-001 0. 1.86652839e-002
      6.23761071e-003 4.30761099e-001 2.69076079e-001 0. 0. 0.
      4.30761099e-001 0. 2.57371590e-002 8.60090740e-003 2.69076079e-001
      0. 0. 0. 0. 2.55161494e-001 0. 0. 0. 0. 0. 0. 0. 0.
      4.30761099e-001 0. 0. 0. 0. 5.41964620e-002 1.70871022e-003
      5.11309272e-003 0. 4.80743855e-001 0. 1.15022315e-002
      3.84384370e-003 5.41964620e-002 1.78767562e-001 8.81373882e-003
      2.63739675e-002 0. 4.80743855e-001 0. 0. 0. 1.78767562e-001 0. 0.
      0. 0. 4.80743855e-001 0. 0. 0. 0. 0. 0. 0. 0. 4.80743855e-001 0.
      0. 0. 0. 4.05489028e-001 2.68259682e-002 8.02732185e-002 0.
      4.05489028e-001 0. 0. 0. 4.05489028e-001 4.05489028e-001
      1.50595075e-002 4.50636148e-002 0. 0. 0. 0. 0. 4.05489028e-001 0.
      0. 0. 0. 4.05489028e-001 0. 0. 0. 0. 0. 0. 0. 0. 0. 0. 0. 0. 0. 0.
      0. 0. 0. 3.52910280e-001 0. 0. 0. 0. 0. 0. 0. 0. 5.71866930e-001
      0. 0. 0. 0. 5.12827421e-003 0. 0. 0. 2.92277247e-001 0.
      1.13626001e-002 3.79718142e-003 5.12827421e-003 1.23470142e-001 0.
      0. 0. 5.71866930e-001 0. 2.99275398e-001 1.00012586e-001
      1.23470142e-001 0. 0. 0. 0. 4.75589484e-001 0. 0. 0. 0. 0. 0. 0.
      0. 4.75589484e-001 0. 0. 0. 0. 9.85845029e-002 0. 0. 0.
      4.75589484e-001 0. 2.41044492e-001 8.05528387e-002 9.85845029e-002
      2.92754751e-002 0. 0. 0. 4.75589484e-001 0. 6.54720888e-002
      2.18796190e-002 2.92754751e-002 0. 0. 0. 0. 7.04459488e-001 0. 0.
      0. 0. 0. 0. 0. 0. 0. 0. 0. 0. 0. 8.60456191e-003 0. 0. 0.
      7.04459488e-001 0. 1.62442811e-002 5.42855356e-003 8.60456191e-003
      0. 0. 0. 0. 0. 0. 0. 0. 0.</_>
    <_>
      2.66444325e-001 0. 0. 0. 6.27618060e-002 0. 3.22859138e-001
      1.82962656e-001 2.66444325e-001 2.69676119e-001 0. 0. 0.
      3.81506421e-002 0. 2.10426345e-001 7.03209043e-002 2.69676119e-001
      1.57245383e-001 0. 0. 0. 3.22859138e-001 0. 3.22859138e-001
      2.00902328e-001 1.57245383e-001 1.11385942e-001 0. 0. 0.
      3.22859138e-001 0. 2.84001857e-001 9.49084461e-002 1.11385942e-001
      3.29582244e-001 0. 0. 0. 0. 0. 3.29582244e-001 1.12208724e-001
      3.29582244e-001 3.29582244e-001 0. 0. 0. 0. 0. 3.29582244e-001
      1.71172768e-001 3.29582244e-001 1.54741302e-001 0. 0. 0.
      3.29582244e-001 0. 3.29582244e-001 1.24816343e-001 1.54741302e-001
      6.81538284e-002 0. 0. 0. 8.48258752e-003 0. 1.08095340e-001
      3.61235775e-002 6.81538284e-002 3.58636707e-001 0. 0. 0. 0. 0.
      3.58636707e-001 1.60216004e-001 3.58636707e-001 3.58636707e-001 0.
      0. 0. 0. 0. 3.58636707e-001 1.74240917e-001 3.58636707e-001
      9.37870443e-002 0. 0. 0. 0. 0. 6.14275560e-002 2.05280613e-002
      9.37870443e-002 2.45360076e-001 0. 0. 0. 0. 0. 1.54325068e-001
      5.15728593e-002 2.45360076e-001 1.82488393e-002 0. 0. 0.
      4.79325622e-001 0. 6.40978366e-002 2.14203708e-002 1.82488393e-002
      8.64278525e-002 0. 0. 0. 4.79325622e-001 0. 2.16017127e-001
      7.21891224e-002 8.64278525e-002 1.20749581e-004 0. 0. 0.
      4.79325622e-001 0. 2.12808707e-004 7.11169341e-005 1.20749581e-004
      2.05932669e-002 0. 0. 0. 4.79325622e-001 0. 5.45193590e-002
      1.82194170e-002 2.05932669e-002 2.16903314e-001 0. 0. 0.
      3.20124656e-001 0. 3.20124656e-001 1.85215876e-001 2.16903314e-001
      1.61558211e-001 0. 0. 0. 9.50607657e-003 0. 3.20124656e-001
      1.52082071e-001 1.61558211e-001 1.13819286e-001 0. 0. 0.
      3.20124656e-001 0. 2.97723949e-001 9.94941294e-002 1.13819286e-001
      2.26572692e-001 0. 0. 0. 2.63477885e-003 0. 3.20124656e-001
      2.31206268e-001 2.26572692e-001 9.84381959e-002 0. 0. 0. 0. 0.
      3.13012362e-001 1.04603238e-001 9.84381959e-002 8.30965582e-003 0.
      0. 0. 0. 0. 2.17650663e-002 7.27350311e-003 8.30965582e-003
      3.66795063e-001 0. 0. 0. 0. 0. 3.66795063e-001 3.66795063e-001
      3.66795063e-001 2.47397810e-001 0. 0. 0. 0. 0. 3.66795063e-001
      2.68825978e-001 2.47397810e-001 0. 0. 0. 0. 4.98753130e-001 0. 0.
      0. 0. 0. 0. 0. 0. 4.98753130e-001 0. 0. 0. 0. 0. 0. 0. 0.
      4.98753130e-001 0. 0. 0. 0. 0. 0. 0. 0. 4.98753130e-001 0. 0. 0.
      0. 1.13497591e-002 0. 0. 0. 5.97753406e-001 0. 3.71198803e-002
      1.24048106e-002 1.13497591e-002 1.42121658e-001 0. 0. 0. 0. 0.
      4.61947024e-001 1.54374570e-001 1.42121658e-001 0. 0. 0. 0.
      5.97753406e-001 0. 0. 0. 0. 0. 0. 0. 0. 0. 0. 3.87210661e-004
      1.29399006e-004 0. 2.46694729e-001 0. 0. 0. 0. 0. 3.52852881e-001
      2.64154822e-001 2.46694729e-001 3.52852881e-001 0. 0. 0. 0. 0.
      3.52852881e-001 3.52852881e-001 3.52852881e-001 1.48402061e-002 0.
      0. 0. 0. 0. 4.41735014e-002 1.47620076e-002 1.48402061e-002
      1.33176535e-001 0. 0. 0. 0. 0. 3.52852881e-001 1.40952215e-001
      1.33176535e-001</_>
    <_>
      3.12538855e-002 1.12310797e-002 3.36076692e-002 0. 5.54639399e-001
      0. 0. 0. 3.12538855e-002 3.67441273e-004 0. 0. 0. 4.13765848e-001
      0. 0. 0. 3.67441273e-004 6.56225756e-002 0. 0. 0. 5.54639399e-001
      0. 1.17142927e-002 3.91472084e-003 6.56225756e-002 8.22048411e-002
      0. 0. 0. 4.26965803e-001 0. 1.40570672e-002 4.69763717e-003
      8.22048411e-002 0. 0. 0. 0. 0. 0. 0. 0. 0. 0. 0. 0. 0. 0. 0. 0. 0.
      0. 6.56889558e-001 0. 0. 0. 0. 0. 2.86911428e-001 9.58810076e-002
      6.56889558e-001 1.39503717e-001 0. 0. 0. 0. 0. 0. 0.
      1.39503717e-001 0. 0. 0. 0. 0. 0. 0. 0. 0. 0. 0. 0. 0. 0. 0. 0. 0.
      0. 0. 0. 0. 0. 0. 0. 0. 0. 0. 0. 0. 0. 0. 0. 0. 0. 0. 0.
      2.51582086e-001 0. 0. 0. 3.10845584e-001 0. 4.22049724e-002
      1.41041959e-002 2.51582086e-001 3.10845584e-001 0. 0. 0.
      1.89866289e-001 0. 7.44287074e-002 2.48728339e-002 3.10845584e-001
      3.10845584e-001 5.62441256e-003 1.68303195e-002 0. 3.10845584e-001
      0. 1.06927469e-001 3.57333161e-002 3.10845584e-001 3.10845584e-001
      1.40610291e-003 4.20757988e-003 0. 7.07061291e-002 0.
      1.77627668e-001 5.93601167e-002 3.10845584e-001 3.39718312e-001 0.
      0. 0. 0. 0. 8.92215893e-002 2.98163686e-002 3.39718312e-001
      3.39718312e-001 0. 0. 0. 0. 0. 8.19322243e-002 2.73803789e-002
      3.39718312e-001 3.39718312e-001 0. 0. 0. 0. 0. 1.79940537e-001
      6.01330511e-002 3.39718312e-001 3.39718312e-001 0. 0. 0. 0. 0.
      1.37542561e-001 4.59644012e-002 3.39718312e-001 3.44336599e-001 0.
      0. 0. 0. 0. 7.82084838e-002 2.61359699e-002 3.44336599e-001
      3.44336599e-001 0. 0. 0. 0. 0. 7.52727538e-002 2.51548961e-002
      3.44336599e-001 3.44336599e-001 0. 0. 0. 0. 0. 1.19449817e-001
      3.99181321e-002 3.44336599e-001 3.44336599e-001 0. 0. 0. 0. 0.
      1.30932137e-001 4.37553339e-002 3.44336599e-001 2.68283248e-001
      1.05773024e-002 3.16511989e-002 0. 3.61265510e-001 0.
      1.54848427e-001 5.17476313e-002 2.68283248e-001 3.61265510e-001
      2.64432537e-003 7.91279878e-003 0. 1.62571654e-001 0.
      3.00919145e-001 1.00561887e-001 3.61265510e-001 6.47913665e-002
      2.01472430e-003 6.02880074e-003 0. 3.61265510e-001 0.
      3.87223400e-002 1.29403276e-002 6.47913665e-002 1.85438022e-001
      5.03681076e-004 1.50719995e-003 0. 2.87613153e-001 0.
      1.11628935e-001 3.73044349e-002 1.85438022e-001 2.93051153e-001 0.
      0. 0. 0. 0. 2.93051153e-001 1.08260050e-001 2.93051153e-001
      2.93051153e-001 0. 0. 0. 0. 0. 2.93051153e-001 9.79753062e-002
      2.93051153e-001 2.93051153e-001 0. 0. 0. 0. 0. 1.84549436e-001
      6.16731904e-002 2.93051153e-001 2.93051153e-001 0. 0. 0. 0. 0.
      2.66747415e-001 8.91422927e-002 2.93051153e-001 2.96837568e-001 0.
      0. 0. 0. 0. 2.31396392e-001 7.73286298e-002 2.96837568e-001
      2.96837568e-001 0. 0. 0. 0. 0. 1.69854745e-001 5.67624941e-002
      2.96837568e-001 2.96837568e-001 0. 0. 0. 0. 0. 2.96837568e-001
      1.01927713e-001 2.96837568e-001 2.96837568e-001 0. 0. 0. 0. 0.
      2.96837568e-001 1.17994525e-001 2.96837568e-001</_>
    <_>
      1.89636573e-002 7.26262620e-003 2.17325501e-002 0. 4.65406239e-001
      0. 0. 0. 1.89636573e-002 0. 0. 0. 0. 1.78421542e-001 0. 0. 0. 0.
      2.40771875e-001 1.30020306e-002 3.89070399e-002 0. 4.65406239e-001
      0. 1.95860304e-002 6.54532295e-003 2.40771875e-001 4.37147051e-001
      5.58164250e-003 1.67024042e-002 0. 1.68825880e-001 0.
      2.67082220e-003 8.92544282e-004 4.37147051e-001 0. 0. 0. 0. 0. 0.
      0. 0. 0. 0. 0. 0. 0. 0. 0. 0. 0. 0. 4.97419268e-001 0. 0. 0. 0. 0.
      0. 0. 4.97419268e-001 4.97419268e-001 2.31359154e-002
      6.92314804e-002 0. 0. 0. 0. 0. 4.97419268e-001 0. 0. 0. 0. 0. 0.
      0. 0. 0. 0. 0. 0. 0. 0. 0. 0. 0. 0. 4.94680941e-001
      3.94237787e-002 1.17970996e-001 0. 0. 0. 0. 0. 4.94680941e-001
      4.94680941e-001 8.68590921e-003 2.59915516e-002 0. 0. 0. 0. 0.
      4.94680941e-001 3.11104804e-001 1.79235153e-002 5.36339730e-002 0.
      3.11104804e-001 0. 3.20473276e-002 1.07096741e-002 3.11104804e-001
      3.11104804e-001 7.21413316e-003 2.15874370e-002 0. 5.15066274e-002
      0. 2.02430859e-002 6.76488597e-003 3.11104804e-001 3.11104804e-001
      1.26783783e-002 3.79384421e-002 0. 3.11104804e-001 0.
      4.65672351e-002 1.55619569e-002 3.11104804e-001 3.11104804e-001
      2.92137428e-003 8.74185190e-003 0. 5.15992567e-002 0.
      1.13437690e-001 3.79088856e-002 3.11104804e-001 3.46186221e-001 0.
      0. 0. 0. 0. 1.28771001e-002 4.30330075e-003 3.46186221e-001
      3.46186221e-001 9.65221412e-003 2.88831089e-002 0. 0. 0.
      4.35851654e-003 1.45653985e-003 3.46186221e-001 3.46186221e-001 0.
      0. 0. 0. 0. 1.28046051e-001 4.27907482e-002 3.46186221e-001
      3.46186221e-001 1.83851726e-003 5.50154503e-003 0. 0. 0.
      1.28612965e-001 4.29801904e-002 3.46186221e-001 3.46886218e-001
      2.08156761e-002 6.22884370e-002 0. 0. 0. 7.34725560e-004
      2.45532399e-004 3.46886218e-001 3.46886218e-001 4.58614295e-003
      1.37234880e-002 0. 0. 0. 0. 0. 3.46886218e-001 3.46886218e-001
      3.96489119e-003 1.18644657e-002 0. 0. 0. 1.24724075e-001
      4.16805930e-002 3.46886218e-001 3.46886218e-001 8.73551005e-004
      2.61399802e-003 0. 0. 0. 1.03520192e-001 3.45946327e-002
      3.46886218e-001 2.39911616e-001 6.85185147e-003 2.05032751e-002 0.
      4.63370383e-001 0. 3.26587334e-002 1.09139765e-002 2.39911616e-001
      4.33380514e-001 9.34343494e-004 2.79590138e-003 0. 1.58446535e-001
      0. 1.01837739e-001 3.40323858e-002 4.33380514e-001 2.24551857e-002
      0. 0. 0. 4.63370383e-001 0. 3.48373987e-002 1.16420453e-002
      2.24551857e-002 0. 0. 0. 0. 1.85852602e-001 0. 0. 0. 0.
      4.52279776e-001 0. 0. 0. 0. 0. 2.45924234e-001 8.21835548e-002
      4.52279776e-001 4.52279776e-001 0. 0. 0. 0. 0. 3.14478904e-001
      1.05093330e-001 4.52279776e-001 0. 0. 0. 0. 0. 0. 0. 0. 0.
      6.28417125e-003 0. 0. 0. 0. 0. 8.96882208e-004 2.99722305e-004
      6.28417125e-003 4.54762548e-001 0. 0. 0. 0. 0. 2.54391223e-001
      8.50130767e-002 4.54762548e-001 4.54762548e-001 0. 0. 0. 0. 0.
      2.63588428e-001 8.80866274e-002 4.54762548e-001 2.91904341e-002 0.
      0. 0. 0. 0. 5.43966331e-003 1.81783992e-003 2.91904341e-002
      9.17577147e-002 0. 0. 0. 0. 0. 2.04592869e-002 6.83713472e-003
      9.17577147e-002</_>
    <_>
      7.74595421e-003 3.11417901e-003 9.31881182e-003 0. 3.95503104e-001
      0. 0. 0. 7.74595421e-003 0. 0. 0. 0. 3.95503104e-001 0. 0. 0. 0.
      1.58586860e-001 4.89567174e-003 1.46497181e-002 0. 3.95503104e-001
      0. 2.31456794e-002 7.73489941e-003 1.58586860e-001 3.95503104e-001
      2.44973786e-002 7.33055025e-002 0. 3.95503104e-001 0.
      1.30194454e-002 4.35088156e-003 3.95503104e-001 9.95420734e-004 0.
      0. 0. 0. 0. 0. 0. 9.95420734e-004 1.72625072e-002 6.12006406e-004
      1.83135667e-003 0. 0. 0. 0. 0. 1.72625072e-002 4.73041981e-001
      6.61983788e-002 1.98090822e-001 0. 0. 0. 0. 0. 4.73041981e-001
      4.73041981e-001 7.49886483e-002 2.24394634e-001 0. 0. 0. 0. 0.
      4.73041981e-001 4.41487953e-002 2.48697447e-003 7.44197611e-003 0.
      0. 0. 0. 0. 4.41487953e-002 1.02692537e-001 6.04035938e-003
      1.80750601e-002 0. 0. 0. 0. 0. 1.02692537e-001 4.68061209e-001
      6.50038645e-002 1.94516361e-001 0. 0. 0. 0. 0. 4.68061209e-001
      4.68061209e-001 7.19438717e-002 2.15283483e-001 0. 0. 0. 0. 0.
      4.68061209e-001 2.65153289e-001 8.55252054e-003 2.55923681e-002 0.
      3.15943867e-001 0. 3.06918658e-002 1.02567049e-002 2.65153289e-001
      3.15943867e-001 2.82566268e-002 8.45545977e-002 0. 2.09037319e-001
      0. 3.49781998e-002 1.16891125e-002 3.15943867e-001 2.27851927e-001
      1.99545138e-002 5.97112924e-002 0. 3.15943867e-001 0.
      1.63818244e-002 5.47451992e-003 2.27851927e-001 3.15943867e-001
      1.20331571e-002 3.60076837e-002 0. 2.97068328e-001 0.
      6.53091818e-002 2.18251832e-002 3.15943867e-001 3.48853499e-001
      2.95037311e-002 8.82864147e-002 0. 0. 0. 1.12643940e-002
      3.76436301e-003 3.48853499e-001 3.48853499e-001 2.83607040e-002
      8.48660395e-002 0. 0. 0. 1.54425139e-002 5.16061718e-003
      3.48853499e-001 3.48853499e-001 1.35018909e-003 4.04028082e-003 0.
      0. 0. 3.77749614e-002 1.26237292e-002 3.48853499e-001
      3.48853499e-001 2.53965787e-004 7.59962422e-004 0. 0. 0.
      6.17700294e-002 2.06424650e-002 3.48853499e-001 3.49060267e-001
      2.69317981e-002 8.05902034e-002 0. 0. 0. 1.12604043e-002
      3.76302935e-003 3.49060267e-001 3.49060267e-001 2.53429785e-002
      7.58358538e-002 0. 0. 0. 1.31386034e-002 4.39069048e-003
      3.49060267e-001 3.49060267e-001 0. 0. 0. 0. 0. 4.77272496e-002
      1.59496069e-002 3.49060267e-001 3.49060267e-001 0. 0. 0. 0. 0.
      6.89776763e-002 2.30511297e-002 3.49060267e-001 8.93022195e-002
      2.91719232e-002 8.72931853e-002 0. 4.54719216e-001 0.
      6.54864870e-003 2.18844321e-003 8.93022195e-002 2.55444556e-001
      1.41338352e-002 4.22936641e-002 0. 4.54719216e-001 0.
      2.97359899e-002 9.93724540e-003 2.55444556e-001 5.06177470e-002
      5.45429206e-003 1.63212605e-002 0. 4.54719216e-001 0.
      6.64901659e-002 2.22198498e-002 5.06177470e-002 1.84228155e-003
      2.56672571e-003 7.68059259e-003 0. 4.54719216e-001 0.
      5.02504501e-003 1.67928403e-003 1.84228155e-003 4.91956234e-001 0.
      0. 0. 0. 0. 7.46138096e-002 2.49346253e-002 4.91956234e-001
      4.91956234e-001 0. 0. 0. 0. 0. 1.36830777e-001 4.57264408e-002
      4.91956234e-001 0. 0. 0. 0. 0. 0. 0. 0. 0. 0. 0. 0. 0. 0. 0. 0. 0.
      0. 4.91530567e-001 0. 0. 0. 0. 0. 8.40249807e-002 2.80796718e-002
      4.91530567e-001 4.91530567e-001 0. 0. 0. 0. 0. 1.36893883e-001
      4.57475372e-002 4.91530567e-001 0. 0. 0. 0. 0. 0. 0. 0. 0. 0. 0.
      0. 0. 0. 0. 0. 0. 0.</_>
    <_>
      1.93377975e-002 1.12194568e-002 3.35729010e-002 0. 4.00168866e-001
      0. 0. 0. 1.93377975e-002 2.69182987e-004 0. 0. 0. 3.77328575e-001
      0. 0. 0. 2.69182987e-004 1.67230874e-001 2.08536312e-002
      6.24020137e-002 0. 4.00168866e-001 0. 1.88802015e-002
      6.30944734e-003 1.67230874e-001 4.00168866e-001 5.42237759e-002
      1.62258238e-001 0. 3.48021328e-001 0. 5.96216880e-003
      1.99245731e-003 4.00168866e-001 9.73080471e-003 9.60501260e-004
      2.87418603e-003 0. 0. 0. 0. 0. 9.73080471e-003 7.03880563e-002
      8.42026807e-003 2.51966566e-002 0. 0. 0. 0. 0. 7.03880563e-002
      4.11221802e-001 1.13932766e-001 3.40930313e-001 0. 0. 0. 0. 0.
      4.11221802e-001 4.11221802e-001 1.34266168e-001 4.01775628e-001 0.
      0. 0. 0. 0. 4.11221802e-001 1.26641437e-001 1.55474218e-002
      4.65238057e-002 0. 0. 0. 0. 0. 1.26641437e-001 2.40845129e-001
      3.03938333e-002 9.09499377e-002 0. 0. 0. 0. 0. 2.40845129e-001
      3.81885380e-001 1.08448319e-001 3.24518770e-001 0. 0. 0. 0. 0.
      3.81885380e-001 3.81885380e-001 1.16918296e-001 3.49864095e-001 0.
      0. 0. 0. 0. 3.81885380e-001 2.91225791e-001 2.86223609e-002
      8.56490061e-002 0. 3.02705765e-001 0. 2.58562826e-002
      8.64073820e-003 2.91225791e-001 3.02705765e-001 6.16109073e-002
      1.84363261e-001 0. 1.30034998e-001 0. 8.16514250e-003
      2.72865430e-003 3.02705765e-001 3.02705765e-001 1.34705855e-002
      4.03090231e-002 0. 3.02705765e-001 0. 4.92500747e-003
      1.64585514e-003 3.02705765e-001 3.02705765e-001 2.35076360e-002
      7.03436062e-002 0. 1.52644351e-001 0. 1.55526563e-003
      5.19743829e-004 3.02705765e-001 3.40034217e-001 6.10949397e-002
      1.82819307e-001 0. 0. 0. 0. 0. 3.40034217e-001 3.40034217e-001
      5.29542677e-002 1.58459306e-001 0. 0. 0. 0. 0. 3.40034217e-001
      3.40034217e-001 2.08598413e-002 6.24203831e-002 0. 0. 0. 0. 0.
      3.40034217e-001 3.40034217e-001 1.49201043e-002 4.46464717e-002 0.
      0. 0. 0. 0. 3.40034217e-001 3.44719499e-001 4.89737391e-002
      1.46547973e-001 0. 0. 0. 0. 0. 3.44719499e-001 3.44719499e-001
      3.88453007e-002 1.16239876e-001 0. 0. 0. 0. 0. 3.44719499e-001
      3.44719499e-001 2.14691162e-002 6.42435327e-002 0. 0. 0. 0. 0.
      3.44719499e-001 3.44719499e-001 1.55919464e-002 4.66568731e-002 0.
      0. 0. 0. 0. 3.44719499e-001 1.57587424e-001 1.37649914e-002
      4.11899500e-002 0. 4.59090322e-001 0. 0. 0. 1.57587424e-001
      3.02662075e-001 1.17784040e-002 3.52453403e-002 0. 4.07033503e-001
      0. 0. 0. 3.02662075e-001 2.71872412e-002 2.80662309e-002
      8.39845389e-002 0. 4.59090322e-001 0. 2.01391764e-002
      6.73015928e-003 2.71872412e-002 1.16078598e-004 7.01655680e-003
      2.09961347e-002 0. 4.02251691e-001 0. 0. 0. 1.16078598e-004
      4.92171615e-001 4.21919301e-002 1.26253858e-001 0. 0. 0. 0. 0.
      4.92171615e-001 4.92171615e-001 2.91051585e-002 8.70933980e-002 0.
      0. 0. 0. 0. 4.92171615e-001 0. 0. 0. 0. 0. 0. 0. 0. 0. 0. 0. 0. 0.
      0. 0. 0. 0. 0. 4.92211401e-001 4.31319922e-002 1.29066870e-001 0.
      0. 0. 0. 0. 4.92211401e-001 4.92211401e-001 2.74069607e-002
      8.20117667e-002 0. 0. 0. 0. 0. 4.92211401e-001 0. 0. 0. 0. 0. 0.
      0. 0. 0. 0. 0. 0. 0. 0. 0. 0. 0. 0.</_>
    <_>
      0. 0. 0. 0. 7.02647150e-001 0. 0. 0. 0. 0. 0. 0. 0.
      5.15606739e-002 0. 0. 0. 0. 0. 0. 0. 0. 7.02647150e-001 0. 0. 0.
      0. 0. 0. 0. 0. 5.38648255e-002 0. 0. 0. 0. 0. 0. 0. 0.
      5.14020398e-002 0. 0. 0. 0. 0. 0. 0. 0. 7.02659249e-001 0. 0. 0.
      0. 0. 0. 0. 0. 5.36991060e-002 0. 0. 0. 0. 0. 0. 0. 0.
      7.02659249e-001 0. 0. 0. 0. 0. 0. 0. 0. 7.04615533e-001 0. 0. 0.
      0. 0. 0. 0. 0. 0. 0. 0. 0. 0. 0. 0. 0. 0. 7.04615533e-001 0. 0. 0.
      0. 0. 0. 0. 0. 0. 0. 0. 0. 0. 0. 0. 0. 0. 7.02647150e-001 0. 0. 0.
      0. 0. 0. 0. 0. 5.15606739e-002 0. 0. 0. 0. 0. 0. 0. 0.
      7.02647150e-001 0. 0. 0. 0. 0. 0. 0. 0. 5.38648255e-002 0. 0. 0.
      0. 0. 0. 0. 0. 5.14020398e-002 0. 0. 0. 0. 0. 0. 0. 0.
      7.02659249e-001 0. 0. 0. 0. 0. 0. 0. 0. 5.36991060e-002 0. 0. 0.
      0. 0. 0. 0. 0. 7.02659249e-001 0. 0. 0. 0. 0. 0. 0. 0.
      7.04615533e-001 0. 0. 0. 0. 0. 0. 0. 0. 0. 0. 0. 0. 0. 0. 0. 0. 0.
      7.04615533e-001 0. 0. 0. 0. 0. 0. 0. 0. 0. 0. 0. 0. 0.
      1.56480327e-001 1.07563315e-002 3.21870483e-002 0. 5.76510251e-001
      0. 0. 0. 1.56480327e-001 0. 0. 0. 0. 5.57262786e-002 0. 0. 0. 0.
      3.67735058e-001 2.28571985e-002 6.83974624e-002 0. 5.76510251e-001
      0. 0. 0. 3.67735058e-001 0. 0. 0. 0. 2.50375401e-002 0. 0. 0. 0.
      0. 0. 0. 0. 5.50185218e-002 0. 0. 0. 0. 2.71394789e-001
      1.43946502e-002 4.30742800e-002 0. 5.54422021e-001 0. 0. 0.
      2.71394789e-001 0. 0. 0. 0. 2.03345213e-002 0. 0. 0. 0.
      3.34321350e-001 1.83204599e-002 5.48218042e-002 0. 5.54422021e-001
      0. 0. 0. 3.34321350e-001 3.12604874e-001 6.12607226e-003
      1.83315445e-002 0. 3.17677170e-001 0. 0. 0. 3.12604874e-001
      3.17677170e-001 2.55253108e-004 7.63814664e-004 0. 6.48822810e-004
      0. 0. 0. 3.17677170e-001 3.17677170e-001 7.79681606e-003
      2.33310480e-002 0. 3.02817613e-001 0. 0. 0. 3.17677170e-001
      3.17677170e-001 3.24867549e-004 9.72127658e-004 0. 4.76580486e-002
      0. 0. 0. 3.17677170e-001</_>
    <_>
      4.57457274e-001 2.36498378e-002 7.07693323e-002 0. 3.76235217e-001
      0. 0. 0. 4.57457274e-001 3.73861521e-001 2.18306184e-002
      6.53255358e-002 0. 3.81427586e-001 0. 0. 0. 3.73861521e-001 0. 0.
      0. 0. 0. 0. 0. 0. 0. 0. 0. 0. 0. 0. 0. 0. 0. 0. 0. 0. 0. 0.
      9.95024860e-001 0. 0. 0. 0. 0. 0. 0. 0. 0. 0. 0. 0. 0. 0. 0. 0. 0.
      0. 0. 0. 0. 0. 0. 0. 0. 0. 0. 0. 0. 0. 0. 0. 0. 0. 0. 0. 0. 0. 0.
      0. 0. 0. 0. 0. 0. 0. 0. 0. 0. 0. 0. 0. 0. 0. 0. 0. 0. 0. 0. 0. 0.
      0. 0. 0. 0. 0. 0. 0. 0. 0. 0. 0. 0. 0. 0. 0. 0. 0. 0. 0. 0. 0. 0.
      0. 0. 0. 0. 0. 0. 0. 0. 0. 0. 0. 0. 0. 0. 0. 0. 0. 0. 0. 0. 0. 0.
      0. 0. 0. 0. 0. 0. 0. 0. 0. 0. 0. 0. 0. 0. 0. 0. 0. 0. 0. 0. 0. 0.
      0. 0. 0. 0. 0. 0. 0. 0. 0. 0. 0. 0. 0. 0. 0. 0. 0. 0. 0. 0. 0. 0.
      0. 0. 0. 0. 0. 0. 0. 0. 0. 0. 0. 0. 0. 0. 0. 0. 0. 0. 0. 0. 0. 0.
      0. 0. 0. 0. 0. 0. 0. 0. 0. 0. 0. 0. 0. 0. 0. 0. 0. 0. 0. 0. 0. 0.
      0. 0. 0. 0. 0. 0. 0. 0. 0. 0. 0. 0. 0. 0. 0. 0. 0. 0. 0. 0. 0. 0.
      0. 0. 0. 0. 0. 0. 0. 0. 0. 0. 0. 0. 0. 0. 0. 0. 0. 0. 0. 0. 0. 0.
      0. 0. 0. 0. 0. 0. 0. 0. 0. 0. 0. 0. 0. 0. 0. 0. 0. 0. 0. 0. 0. 0.
      0. 0. 0. 0. 0. 0. 0. 0. 0. 0. 0. 0. 0. 0. 0. 0. 0. 0. 0. 0. 0. 0.
      0. 0.</_>
    <_>
      0. 0. 0. 0. 0. 0. 0. 0. 0. 0. 0. 0. 0. 0. 0. 0. 0. 0. 0. 0. 0. 0.
      0. 0. 0. 0. 0. 0. 0. 0. 0. 0. 0. 0. 0. 0. 0. 0. 0. 0. 0. 0. 0. 0.
      0. 0. 0. 0. 0. 0. 0. 0. 0. 0. 0. 0. 0. 0. 0. 0. 0. 0. 0. 0. 0. 0.
      0. 0. 0. 0. 0. 0. 0. 0. 0. 0. 0. 0. 0. 0. 0. 0. 0. 0. 0. 0. 0. 0.
      0. 0. 0. 0. 0. 0. 0. 0. 0. 0. 0. 0. 0. 0. 0. 0. 0. 0. 0. 0. 0. 0.
      0. 0. 0. 0. 0. 0. 0. 0. 0. 0. 0. 0. 0. 0. 0. 0. 0. 0. 0. 0. 0. 0.
      0. 0. 0. 0. 0. 0. 0. 0. 0. 0. 0. 0. 0. 0. 0. 0. 0. 0. 0. 0. 0. 0.
      0. 0. 0. 0. 0. 0. 0. 0. 0. 0. 0. 0. 0. 0. 0. 0. 0. 0. 0. 0. 0. 0.
      0. 0. 0. 0. 0. 0. 0. 0. 0. 0. 0. 0. 0. 0. 0. 0. 0. 0. 0. 0. 0. 0.
      0. 0. 0. 0. 0. 0. 0. 0. 0. 0. 0. 0. 0. 0. 0. 0. 0. 0. 0. 0. 0. 0.
      0. 0. 0. 0. 0. 0. 0. 0. 0. 0. 0. 0. 0. 0. 0. 0. 0. 0. 0. 0. 0. 0.
      0. 0. 0. 0. 0. 0. 0. 0. 0. 0. 0. 0. 0. 0. 0. 0. 0. 0. 0. 0. 0. 0.
      0. 0. 0. 0. 0. 0. 0. 0. 0. 0. 0. 0. 0. 0. 0. 0. 0. 0. 0. 0. 0. 0.
      0. 0. 0. 0. 0. 0. 0. 0. 0. 0. 0. 0. 0. 0. 0. 0. 0. 0. 0. 0. 0. 0.
      0. 0. 0. 0. 0. 0. 0. 0. 0. 0. 0. 0. 0. 0. 0. 0.</_>
    <_>
      0. 0. 0. 0. 0. 0. 0. 0. 0. 0. 0. 0. 0. 0. 0. 0. 0. 0. 0. 0. 0. 0.
      0. 0. 0. 0. 0. 0. 0. 0. 0. 0. 0. 0. 0. 0. 0. 0. 0. 0. 0. 0. 0. 0.
      0. 0. 0. 0. 0. 0. 0. 0. 0. 0. 0. 0. 0. 0. 0. 0. 0. 0. 0. 0. 0. 0.
      0. 0. 0. 0. 0. 0. 0. 0. 0. 0. 0. 0. 0. 0. 0. 0. 0. 0. 0. 0. 0. 0.
      0. 0. 0. 0. 0. 0. 0. 0. 0. 0. 0. 0. 0. 0. 0. 0. 0. 0. 0. 0. 0. 0.
      0. 0. 0. 0. 0. 0. 0. 0. 0. 0. 0. 0. 0. 0. 0. 0. 0. 0. 0. 0. 0. 0.
      0. 0. 0. 0. 0. 0. 0. 0. 0. 0. 0. 0. 0. 0. 0. 0. 0. 0. 0. 0. 0. 0.
      0. 0. 0. 0. 0. 0. 0. 0. 0. 0. 0. 0. 0. 0. 0. 0. 0. 0. 0. 0. 0. 0.
      0. 0. 0. 0. 0. 0. 0. 0. 0. 0. 0. 0. 0. 0. 0. 0. 0. 0. 0. 0. 0. 0.
      0. 0. 0. 0. 0. 0. 0. 0. 0. 0. 0. 0. 0. 0. 0. 0. 0. 0. 0. 0. 0. 0.
      0. 0. 0. 0. 0. 0. 0. 0. 0. 0. 0. 0. 0. 0. 0. 0. 0. 0. 0. 0. 0. 0.
      0. 0. 0. 0. 0. 0. 0. 0. 0. 0. 0. 0. 0. 0. 0. 0. 0. 0. 0. 0. 0. 0.
      0. 0. 0. 0. 0. 0. 0. 0. 0. 0. 0. 0. 0. 0. 0. 0. 0. 0. 0. 0. 0. 0.
      0. 0. 0. 0. 0. 0. 0. 0. 0. 0. 0. 0. 0. 0. 0. 0. 0. 0. 0. 0. 0. 0.
      0. 0. 0. 0. 0. 0. 0. 0. 0. 0. 0. 0. 0. 0. 0. 0.</_>
    <_>
      4.57457274e-001 2.36498378e-002 7.07693323e-002 0. 3.76235217e-001
      0. 0. 0. 4.57457274e-001 3.73861521e-001 2.18306184e-002
      6.53255358e-002 0. 3.81427586e-001 0. 0. 0. 3.73861521e-001 0. 0.
      0. 0. 0. 0. 0. 0. 0. 0. 0. 0. 0. 0. 0. 0. 0. 0. 0. 0. 0. 0.
      9.95024860e-001 0. 0. 0. 0. 0. 0. 0. 0. 0. 0. 0. 0. 0. 0. 0. 0. 0.
      0. 0. 0. 0. 0. 0. 0. 0. 0. 0. 0. 0. 0. 0. 0. 0. 0. 0. 0. 0. 0. 0.
      0. 0. 0. 0. 0. 0. 0. 0. 0. 0. 0. 0. 0. 0. 0. 0. 0. 0. 0. 0. 0. 0.
      0. 0. 0. 0. 0. 0. 0. 0. 0. 0. 0. 0. 0. 0. 0. 0. 0. 0. 0. 0. 0. 0.
      0. 0. 0. 0. 0. 0. 0. 0. 0. 0. 0. 0. 0. 0. 0. 0. 0. 0. 0. 0. 0. 0.
      0. 0. 0. 0. 0. 0. 0. 0. 0. 0. 0. 0. 0. 0. 0. 0. 0. 0. 0. 0. 0. 0.
      0. 0. 0. 0. 0. 0. 0. 0. 0. 0. 0. 0. 0. 0. 0. 0. 0. 0. 0. 0. 0. 0.
      0. 0. 0. 0. 0. 0. 0. 0. 0. 0. 0. 0. 0. 0. 0. 0. 0. 0. 0. 0. 0. 0.
      0. 0. 0. 0. 0. 0. 0. 0. 0. 0. 0. 0. 0. 0. 0. 0. 0. 0. 0. 0. 0. 0.
      0. 0. 0. 0. 0. 0. 0. 0. 0. 0. 0. 0. 0. 0. 0. 0. 0. 0. 0. 0. 0. 0.
      0. 0. 0. 0. 0. 0. 0. 0. 0. 0. 0. 0. 0. 0. 0. 0. 0. 0. 0. 0. 0. 0.
      0. 0. 0. 0. 0. 9.95024860e-001 0. 0. 0. 0. 0. 0. 0. 0. 0. 0. 0. 0.
      0. 0. 0. 0. 0. 0. 0. 0. 0. 0. 3.70243758e-001 2.11952887e-002
      6.34241477e-002 0. 3.73278916e-001 0. 0. 0. 3.70243758e-001
      4.67137903e-001 2.29615588e-002 6.87094778e-002 0. 3.68348092e-001
      0. 0. 0. 4.67137903e-001</_>
    <_>
      0. 0. 0. 0. 0. 0. 0. 0. 0. 0. 0. 0. 0. 0. 0. 0. 0. 0. 0. 0. 0. 0.
      0. 0. 0. 0. 0. 0. 0. 0. 0. 0. 0. 0. 0. 0. 0. 0. 0. 0. 0. 0. 0. 0.
      0. 0. 0. 0. 0. 0. 0. 0. 0. 0. 0. 0. 0. 0. 0. 0. 0. 0. 0. 0. 0. 0.
      0. 0. 0. 0. 0. 0. 0. 0. 0. 0. 0. 0. 0. 0. 0. 0. 0. 0. 0. 0. 0. 0.
      0. 0. 0. 0. 0. 0. 0. 0. 0. 0. 0. 0. 0. 0. 0. 0. 0. 0. 0. 0. 0. 0.
      0. 0. 0. 0. 0. 0. 0. 0. 0. 0. 0. 0. 0. 0. 0. 0. 0. 0. 0. 0. 0. 0.
      0. 0. 0. 0. 0. 0. 0. 0. 0. 0. 0. 0. 0. 0. 0. 0. 0. 0. 0. 0. 0. 0.
      0. 0. 0. 0. 0. 0. 0. 0. 0. 0. 0. 0. 0. 0. 0. 0. 0. 0. 0. 0. 0. 0.
      0. 0. 0. 0. 0. 0. 0. 0. 0. 0. 0. 0. 0. 0. 0. 0. 0. 0. 0. 0. 0. 0.
      0. 0. 0. 0. 0. 0. 0. 0. 0. 0. 0. 0. 0. 0. 0. 0. 0. 0. 0. 0. 0. 0.
      0. 0. 0. 0. 0. 0. 0. 0. 0. 0. 0. 0. 0. 0. 0. 0. 0. 0. 0. 0. 0. 0.
      0. 0. 0. 0. 0. 0. 0. 0. 0. 0. 0. 0. 0. 0. 0. 0. 0. 0. 0. 0. 0. 0.
      0. 0. 0. 0. 0. 0. 0. 0. 0. 0. 0. 0. 0. 0. 0. 0. 0. 0. 0. 0. 0. 0.
      0. 0. 0. 0. 0. 0. 0. 0. 0. 0. 0. 0. 0. 0. 0. 0. 0. 0. 0. 0. 0. 0.
      0. 0. 0. 0. 0. 0. 0. 0. 0. 0. 0. 0. 0. 0. 0. 0.</_>
    <_>
      0. 0. 0. 0. 0. 0. 0. 0. 0. 0. 0. 0. 0. 0. 0. 0. 0. 0. 0. 0. 0. 0.
      0. 0. 0. 0. 0. 0. 0. 0. 0. 0. 0. 0. 0. 0. 0. 0. 0. 0. 0. 0. 0. 0.
      0. 0. 0. 0. 0. 0. 0. 0. 0. 0. 0. 0. 0. 0. 0. 0. 0. 0. 0. 0. 0. 0.
      0. 0. 0. 0. 0. 0. 0. 0. 0. 0. 0. 0. 0. 0. 0. 0. 0. 0. 0. 0. 0. 0.
      0. 0. 0. 0. 0. 0. 0. 0. 0. 0. 0. 0. 0. 0. 0. 0. 0. 0. 0. 0. 0. 0.
      0. 0. 0. 0. 0. 0. 0. 0. 0. 0. 0. 0. 0. 0. 0. 0. 0. 0. 0. 0. 0. 0.
      0. 0. 0. 0. 0. 0. 0. 0. 0. 0. 0. 0. 0. 0. 0. 0. 0. 0. 0. 0. 0. 0.
      0. 0. 0. 0. 0. 0. 0. 0. 0. 0. 0. 0. 0. 0. 0. 0. 0. 0. 0. 0. 0. 0.
      0. 0. 0. 0. 0. 0. 0. 0. 0. 0. 0. 0. 0. 0. 0. 0. 0. 0. 0. 0. 0. 0.
      0. 0. 0. 0. 0. 0. 0. 0. 0. 0. 0. 0. 0. 0. 0. 0. 0. 0. 0. 0. 0. 0.
      0. 0. 0. 0. 0. 0. 0. 0. 0. 0. 0. 0. 0. 0. 0. 0. 0. 0. 0. 0. 0. 0.
      0. 0. 0. 0. 0. 0. 0. 0. 0. 0. 0. 0. 0. 0. 0. 0. 0. 0. 0. 0. 0. 0.
      0. 0. 0. 0. 0. 0. 0. 0. 0. 0. 0. 0. 0. 0. 0. 0. 0. 0. 0. 0. 0. 0.
      0. 0. 0. 0. 0. 0. 0. 0. 0. 0. 0. 0. 0. 0. 0. 0. 0. 0. 0. 0. 0. 0.
      0. 0. 0. 0. 0. 0. 0. 0. 0. 0. 0. 0. 0. 0. 0. 0.</_></support_vectors>
  <decision_functions>
    <_>
      <sv_count>6</sv_count>
      <rho>2.5530839016928458e-001</rho>
      <alpha>
        3.0221743746452288e+000 1.2933243890951656e+000
        8.1756621787791106e-001 -2.9930393284649957e+000
        -1.4392938095300798e+000 -7.0073184362322982e-001</alpha>
      <index>
        1 2 3 4 5 6</index></_>
    <_>
      <sv_count>7</sv_count>
      <rho>5.9380557093673202e-002</rho>
      <alpha>
        6.8881989560861590e-001 8.4983651194911780e-001
        2.0243315863700104e+000 6.5125211842875744e-002
        -1.6754054270676559e+000 -1.5585309199053752e+000
        -3.9417685879758857e-001</alpha>
      <index>
        0 1 2 3 7 8 9</index></_>
    <_>
      <sv_count>6</sv_count>
      <rho>1.2778558142067603e-002</rho>
      <alpha>
        1.0341758950962932e+000 1.0255744361972274e+000
        1.6094300334040386e+000 -1.6721844329688107e+000
        -5.1609791788541337e-001 -1.4808980138433345e+000</alpha>
      <index>
        0 1 2 12 13 14</index></_>
    <_>
      <sv_count>7</sv_count>
      <rho>1.7931859231062267e-001</rho>
      <alpha>
        4.1108752293335478e+000 1.4853612426984593e+000
        6.1057223131152016e-001 -2.2722127094053013e+000
        -1.1269116020094185e+000 -1.5989434603562966e+000
        -1.2087409315725102e+000</alpha>
      <index>
        1 2 3 15 16 17 18</index></_>
    <_>
      <sv_count>6</sv_count>
      <rho>1.2293468331440631e-001</rho>
      <alpha>
        6.7055624117637036e-001 1.7507140413272233e+000
        6.8120596377463425e+000 -2.1890010827536428e+000
        -2.2536008689900341e-002 -7.0217928288063920e+000</alpha>
      <index>
        1 2 3 19 20 21</index></_>
    <_>
      <sv_count>7</sv_count>
      <rho>1.7378397101178261e-001</rho>
      <alpha>
        1.5814113503523868e+000 1.2262912956137961e+000
        2.7071080209155407e-001 -1.0619824238783468e+000
        -5.7928063860148526e-001 -1.0035150698908006e+000
        -4.3363531568710473e-001</alpha>
      <index>
        1 2 3 23 24 26 27</index></_>
    <_>
      <sv_count>4</sv_count>
      <rho>-2.3632456668570914e-001</rho>
      <alpha>
        1.2258748544867577e+000 7.3276743760351437e-001
        3.6672162210941212e-001 -2.3253639141996847e+000</alpha>
      <index>
        1 2 3 28</index></_>
    <_>
      <sv_count>6</sv_count>
      <rho>-2.6927721303155555e-001</rho>
      <alpha>
        7.1400787984727521e-001 1.8185721876738883e+000
        8.4955836077791624e-001 -1.1732543845983552e+000
        -1.6122851228724902e+000 -5.9659892082823451e-001</alpha>
      <index>
        4 5 6 7 8 9</index></_>
    <_>
      <sv_count>7</sv_count>
      <rho>-2.2280486608246086e-001</rho>
      <alpha>
        6.0621201492509669e-001 1.5378309985398542e+000
        7.1741329892981298e-001 -4.5923204801172644e-002
        -8.9682622900060238e-001 -6.9141543582609877e-001
        -1.2272914427668904e+000</alpha>
      <index>
        4 5 6 11 12 13 14</index></_>
    <_>
      <sv_count>6</sv_count>
      <rho>-2.2581316683424105e-001</rho>
      <alpha>
        2.8785355609076269e+000 1.3256570354461021e+000
        3.6180929187384803e+000 -5.3438320958841130e+000
        -1.3625683899869132e+000 -1.1158850292211804e+000</alpha>
      <index>
        4 5 6 15 17 18</index></_>
    <_>
      <sv_count>7</sv_count>
      <rho>-3.4329577518716409e-001</rho>
      <alpha>
        1.3457349831839702e+000 1.4009899717202903e+000
        1.1780940537780926e+000 -1.6416088055135807e+000
        -4.7642531986752706e-001 -3.3149675111644789e-001
        -1.4752881321847979e+000</alpha>
      <index>
        4 5 6 19 20 21 22</index></_>
    <_>
      <sv_count>7</sv_count>
      <rho>-1.4121215345700708e-001</rho>
      <alpha>
        9.0938256070427104e-001 2.0577752465257295e+000
        1.3861721839448236e+000 -1.1598645622392658e+000
        -6.4747978945154161e-001 -1.7684806717565857e+000
        -7.7750496772743105e-001</alpha>
      <index>
        4 5 6 23 24 25 27</index></_>
    <_>
      <sv_count>4</sv_count>
      <rho>-5.8475512855097089e-001</rho>
      <alpha>
        8.0508694003421599e-001 1.4610655215118569e+000
        9.9229834549802509e-001 -3.2584508070440976e+000</alpha>
      <index>
        4 5 6 28</index></_>
    <_>
      <sv_count>7</sv_count>
      <rho>-4.2545543042394496e-002</rho>
      <alpha>
        1.5265462362899789e+000 2.1462097174287611e+000
        9.3386308933675677e-001 1.1742983488797551e+000
        -2.1044672070049448e+000 -3.4665973074506085e-001
        -3.3297904541852459e+000</alpha>
      <index>
        7 8 9 10 12 13 14</index></_>
    <_>
      <sv_count>7</sv_count>
      <rho>9.0196415637207039e-002</rho>
      <alpha>
        9.0400081601573024e-001 9.3102251649715850e-001
        6.3645939926724482e-001 -3.5336242599037448e-001
        -4.1529365348476005e-001 -5.7586039114800280e-001
        -1.1269662611569962e+000</alpha>
      <index>
        7 8 9 15 16 17 18</index></_>
    <_>
      <sv_count>5</sv_count>
      <rho>-8.1249565499780976e-002</rho>
      <alpha>
        1.7436816332179657e+000 3.2117439636675602e+000
        4.5047384710154514e-001 -3.4261634456677417e+000
        -1.9797359983193292e+000</alpha>
      <index>
        7 8 9 19 22</index></_>
    <_>
      <sv_count>7</sv_count>
      <rho>1.9862187287839633e-001</rho>
      <alpha>
        9.5869781122649267e-001 1.4065582922178106e+000
        1.0353148336825071e+000 -1.2392435098590298e+000
        -3.0981770195516412e-001 -1.4140784322497322e+000
        -4.3743129306288414e-001</alpha>
      <index>
        7 8 9 23 24 26 27</index></_>
    <_>
      <sv_count>4</sv_count>
      <rho>-2.4169908291803138e-001</rho>
      <alpha>
        6.5271530753326479e-001 1.0385358341646793e+000
        8.5062961637537315e-001 -2.5418807580733178e+000</alpha>
      <index>
        7 8 9 28</index></_>
    <_>
      <sv_count>7</sv_count>
      <rho>9.2301782400612833e-002</rho>
      <alpha>
        2.3986559137662297e-001 1.0015235465098071e+000
        6.3518430738785314e-001 8.8058883253905096e-001
        -8.4268025987124207e-001 -7.7758654434967611e-001
        -1.1368954735924162e+000</alpha>
      <index>
        11 12 13 14 16 17 18</index></_>
    <_>
      <sv_count>5</sv_count>
      <rho>-3.9818897732096126e-002</rho>
      <alpha>
        1.0134247183272673e+000 4.1035763970271238e-001
        1.7293371328455387e+000 -1.9780791090049588e+000
        -1.1750403818705593e+000</alpha>
      <index>
        12 13 14 19 22</index></_>
    <_>
      <sv_count>8</sv_count>
      <rho>2.5043565879812762e-001</rho>
      <alpha>
        1.4866215455530163e+000 1.1639842400709739e+000
        4.3225100037870118e-001 7.3390662518786087e-001
        -1.9785038906484802e+000 -7.5245064198969647e-001
        -7.0094636291920820e-001 -3.8486251563316609e-001</alpha>
      <index>
        11 12 13 14 23 24 25 27</index></_>
    <_>
      <sv_count>4</sv_count>
      <rho>-2.3413804077405800e-001</rho>
      <alpha>
        6.4084691611680589e-001 7.0016822790355249e-001
        9.6086264355882189e-001 -2.3018777875791803e+000</alpha>
      <index>
        12 13 14 28</index></_>
    <_>
      <sv_count>7</sv_count>
      <rho>-1.6409043569959683e-001</rho>
      <alpha>
        1.0051187209154724e+000 2.7075402560935671e-002
        6.7762017204444824e-001 1.2335275638125196e+000
        -1.2564904828019769e+000 -1.0477987038709340e+000
        -6.3905267266046484e-001</alpha>
      <index>
        15 16 17 18 19 21 22</index></_>
    <_>
      <sv_count>8</sv_count>
      <rho>6.6642934149252708e-002</rho>
      <alpha>
        1.2845389160597245e-001 8.3267991839299205e-001
        1.1285086079252376e+000 1.2510834746658070e+000
        -1.1710372198738774e+000 -4.5977868908909036e-001
        -1.2000362473717254e+000 -5.0987373625531696e-001</alpha>
      <index>
        15 16 17 18 23 24 26 27</index></_>
    <_>
      <sv_count>5</sv_count>
      <rho>-3.4771734688583267e-001</rho>
      <alpha>
        4.6239124407623272e-001 4.0243276267756889e-001
        7.0279442902168876e-001 9.3219521675546790e-001
        -2.4998136525309569e+000</alpha>
      <index>
        15 16 17 18 28</index></_>
    <_>
      <sv_count>7</sv_count>
      <rho>2.0610239165256869e-001</rho>
      <alpha>
        1.5490541730654697e+000 2.2091745472221133e-001
        1.0381788987581526e+000 -9.7765564449006748e-001
        -3.0911306870434679e-001 -1.1718309955422528e+000
        -3.4955081780916647e-001</alpha>
      <index>
        19 20 22 23 24 26 27</index></_>
    <_>
      <sv_count>4</sv_count>
      <rho>-1.8107638977364851e-001</rho>
      <alpha>
        1.1959125563780950e+000 1.8544846691314437e-001
        8.4210697083083252e-001 -2.2234679941220716e+000</alpha>
      <index>
        19 20 22 28</index></_>
    <_>
      <sv_count>5</sv_count>
      <rho>-9.9999999999999956e-001</rho>
      <alpha>
        9.7499736506634349e-008 10. 9.9999999025002637e+000 -10. -10.</alpha>
      <index>
        23 25 26 28 29</index></_></decision_functions></my_svm>
</opencv_storage>
